3.16976030889
-0.00874497301444
-2.06417090875
-0.540983073632
0.000579261578861
3.19782026417
-1.25160006944
1.62912596756
0.0613039695695
0.338679390489
0.0603244085294
-0.595158505226
1.00792351543
0.0617209092014
0.0938601497835
-0.0139393802348
0.0353700935738
-0.289507549468
0.388293551437
0.130961199855
-0.111340074712
0.036426655934
0.308403632056
0.106951529295
0.0126287062012
-0.2690693292
0.0459710644066
0.899661446803
-1.20793340863
0.013204658426
-1.04869773998
1.03977519943
0.012414162423
-0.0211054541962
0.07831088896
-0.095999627467
-0.231398668791
0.0126932138609
-0.116548061331
0.0225109565886
-0.00893848066339
0.028959621784
0.0614553688181
-0.122009008725
-0.206764294929
-0.0106208962167
-0.129444362097
-0.00182518087176
-0.0236999795427
0.0554004897381
0.0299104517069
-0.109132044129
-0.226785955367
-0.0238760252668
-0.11434208346
-0.000500678781431
-0.00437699624211
0.00858100104208
0.0568432125156
-0.0882286459182
-0.242764852396
-0.00572933495649
-0.0970949999812
0.031419621553
0.0755513619227
-0.0272333446639
0.125054815038
-0.341726700797
0.446364047356
0.0768983764817
-0.570073751002
-0.0407610372811
-0.0536917254874
0.038326414269
-0.12297237765
0.0402202134502
-0.0100447474893
-0.054541477512
0.791549748367
-0.0554228572968
0.00401290930401
-0.00187419929256
0.000407861524116
0.0041271313296
-0.00168860504008
-0.00322081221398
-0.00248598828272
-0.00496572438557
-0.0766323481945
0.717812035134
-0.0920980089436
0.49440190677
-0.00392194106879
-0.0764207458823
0.000636403160542
0.0538865270772
-2.62551695135
2.69271139398
-1.8663062579
0.643182763242
-1.25340878604
-0.207755515105
1.08509494916
-2.05098184123
1.28520740063
1.06556253294
-1.05424639905
-1.1951035674
-2.1345979259
0.0827610957473
1.49058973507
-2.6159675578
2.70429236163
-1.89133037887
-1.24918709037
-1.30322647431
1.65706339537
0.147689936802
0.962695006824
-2.02326693177
