-0.107389929894
0.783824048649
1.07614846239
0.137115602358
0.676231923077
0.125987628015
-0.145575938055
0.862783572336
-0.993461887138
-0.25788865237
-0.025483425188
0.559083869847
-0.916632712011
-0.588695998188
-0.336558856716
-0.07277605497
-0.0709718091053
-0.177452313464
-0.0813383935713
1.08630791346
-0.477801751824
0.45449731457
-0.153702184089
-1.21852093075
-0.974320038361
0.146502278433
-0.799073767138
0.0154641764042
-0.886320922987
0.540597268248
0.102035540494
-0.417347382059
0.567393571377
0.288569449112
-0.432450955395
0.254316099835
0.494057283725
1.60095845508
0.847587449784
0.499662163879
-0.954876181576
-0.746624899983
1.03263024241
-0.503048920775
0.826063362236
-0.51714105409
-0.330826922894
0.0191254408496
-0.104467960862
0.0150800738834
0.292352950789
0.129302964662
0.468227151148
0.27236233176
0.116861000274
0.645615733271
0.0712274974863
0.174695492502
0.901178794584
-0.0868884296013
0.279560509527
-0.324425099909
-0.307136704023
-0.0701299860858
0.640588165322
-0.618069463529
0.208086087904
0.341899157463
-0.545405656699
-0.0729203635502
-1.06153942249
-0.311695620589
0.331969459269
-0.502003184642
-0.444465906921
0.232469755591
-0.549294553089
-0.392072888791
-0.826327212605
0.956286158343
1.19113024254
0.635196753974
-0.789061778842
0.20449926844
0.0178858534505
0.0446052607303
0.108610766292
1.03520265371
0.170084182507
-0.623854400446
-0.107114349216
0.425112142698
0.044595880064
0.08291825272
0.648860123219
0.307955832954
-0.374294716368
0.333337247807
-1.60404401745
0.41798030764
-0.541960309901
-0.14967782552
0.0932462581724
0.618037568293
0.354428261328
-0.568580690897
-0.49316458306
-0.692883088886
-0.264408870873
-0.443047396496
1.08210957381
0.0721790367319
-0.103166523436
-0.119542889305
-1.49350300456
-0.320256787359
-0.700648920315
0.971365450464
0.0255300558474
0.396830164479
-0.145959935977
0.0756117609419
1.07109250759
-0.358249724506
1.02684386062
1.15053665588
0.145238404066
-0.198332421855
0.216422213229
1.1811681209
0.322834566309
-0.138335937968
0.251363457956
-0.753383292133
-0.413247744242
1.12562885292
0.456433546349
0.535326591998
-0.069542283995
-0.655361580559
0.243882738743
-0.803817223989
-0.400695866354
-0.288471827597
0.318823607832
0.910610235119
-0.900750052729
-0.0188483040803
-0.288097256356
0.6444572187
0.0535415318716
0.245101701544
0.218780257069
0.0358549104078
0.622255692539
0.540371454445
-1.469437496
0.492981170007
0.785265134451
-0.468103994219
0.0238657739833
-0.924642543928
0.613311176371
0.342777306184
-0.0266388066063
0.0288255727441
0.333507767616
-0.000902452706463
0.442390041413
-0.856629998387
0.94365142634
-0.617419461927
-0.0966330275733
-0.45116902345
0.724089112651
1.46738276874
0.189971636633
-0.108649549388
0.479892577655
-0.823772754404
-0.0613806788182
0.701225271305
0.0580023071665
1.24671559803
-0.0327428047726
0.277558747253
0.361379878942
-0.723533799925
0.385206826113
0.369148546643
-0.243455641102
0.130563588611
0.580978144447
1.02486992232
-0.317366493892
0.96533941231
-0.0165133934316
0.0884543281807
-0.659592330052
1.02037511036
0.273660240412
0.241355064219
-0.222809024731
0.274460664102
-0.601099079654
-0.559989905927
0.336450369991
1.24246734357
0.0945428486643
0.29447043412
0.179162784325
0.253861548903
-0.905897123416
0.0100619643428
0.56571415749
0.380081104583
0.193429984735
-0.0335152123051
0.38603720683
-0.0955300422896
0.325357946869
0.404232875436
0.0954532096006
0.301953277768
-0.0192021496147
-0.14194488026
0.0943015739913
-0.571253118083
-0.501202549425
-0.517184093811
0.479095918956
0.661317620448
0.0376464874106
0.280145382285
0.410403519049
-0.333845640248
-0.632335382161
0.168915652688
0.0945830545647
0.310249152213
0.838759563638
0.946116351823
-1.12337050727
0.0253992945968
0.319076510619
-0.352028833624
0.899099328985
-0.15558904804
0.125405582696
0.365013079547
-0.42503964307
-0.44780267138
-1.0104698477
0.377743340824
-0.40413333688
1.50882863343
0.921284502445
-0.614438974735
-0.232089517163
0.565739897436
0.790375460566
-0.302708619209
-0.352859413304
-0.79307279275
-0.610212952921
-0.609153603935
0.829612988209
0.389985395336
-0.381252209458
0.109280061127
0.102334180593
0.0941633587332
0.252150122049
0.00765742680308
0.734050024663
-0.885828151549
0.138363378158
-0.813995123346
-0.393860589981
0.0900869462629
0.471891788319
-0.887333856053
0.143951130894
0.456372661287
0.900412550519
1.02429853375
0.616471943965
-0.635287581604
-0.453109821474
-0.0849463559494
-0.118086939055
-0.66596501206
-0.128044524332
-0.412710890366
-0.131655812378
-0.0969706761216
-0.114387205099
-0.155988582814
-0.494322099036
0.259525349018
-0.228445743387
-0.209888622631
-0.17013148219
-0.740632299169
-0.0621467891113
0.346913196711
-0.680575158306
1.54015281213
0.177377372747
-0.336028990368
-0.198330019671
0.128024865443
-0.289105642215
0.48785022547
-0.230267064376
0.159906698101
0.860965234791
-0.361871899511
-0.710068267805
-0.483633027959
0.837072709017
-0.126017730342
0.580914407041
-1.57030014835
-0.873863811763
-0.449745164005
-0.452874119446
0.503291460353
0.295630823176
-0.118017693843
-0.119662706469
0.879756001637
0.316240749746
1.1738572018
0.379232616781
0.512186486743
-0.633669866557
0.618758784766
0.0439719506715
0.235872229131
-0.528948857069
0.192004582216
1.13737711392
-0.550873310576
0.53179614886
0.437297090135
0.309103165212
-1.14140178415
-0.00904179001642
0.983926968502
-0.214168044898
0.153011220087
-0.141980947236
-0.340290169626
-0.167341365538
0.302950600919
-0.246789887736
0.53907111555
-0.671743364164
-0.166408642512
-0.336178334292
-0.326799311952
0.381222836012
-0.578634522493
-0.110659703468
0.254857056352
0.706774324105
0.525905215315
0.0310202997463
0.556640618092
0.169116965826
-0.568771554902
-0.5001035991
0.252113668561
-0.171221177352
0.530931190867
0.169267352665
-0.251996754031
-0.863409175163
-0.827399353818
-0.00335540997574
0.870560958208
-0.934788401354
0.463936950573
-0.229859659772
1.03139578788
0.0314629903912
0.0493331573263
0.160606053896
-0.112584171237
0.95399344158
0.693459064131
0.110285247003
-0.0746846787533
-0.190490158277
-0.834164490476
-0.361867390877
-0.722239402432
1.17679341238
0.724955840507
-0.352534086138
-0.0814842941796
0.262060393109
0.268241415536
-0.717316025603
-0.666440237447
0.299831126775
-0.404076498052
-0.48399304747
0.747605537622
-0.998594676215
0.263761961109
0.308206327283
-0.275974714332
0.164987420262
0.595826125999
-0.523552715692
-0.0952457491461
0.786407014983
-0.132581943304
0.400146978922
-0.325227701393
0.89177607865
0.410653063325
-0.182902594705
-0.854590961619
0.0102832990629
-0.417264426544
-0.53666534014
-1.06624608146
0.274230521319
-0.480172298585
-0.219213045044
-0.86568619743
-0.00745122515839
0.418577668079
0.440961923998
-0.909148146137
-0.42939488366
0.372372869042
0.618091256194
-0.491967300765
-1.37123358104
-1.38928960772
-0.4544498937
-0.12119768778
-0.639885283455
-0.660548665601
0.366110182799
-1.10761363616
0.113591497301
-0.8495636288
0.332232099326
0.327856491328
-0.926878235509
0.248627376776
0.502047365216
-0.11755117759
0.230115358411
0.31422085005
0.660923066001
-0.00657903351448
-0.922861931024
0.400302710159
0.43590839536
0.0943356413932
-0.240742063564
0.180019946045
-0.413084574273
0.283764616427
0.277484279204
-0.651216095563
-0.524136656484
-0.422672306138
-0.332153107245
0.855535878767
-0.359828448259
-0.666202191485
0.687226266555
0.0735856894815
-0.521349732118
-0.275827377353
0.616530902951
-0.915132764306
0.0541565490665
0.343518035202
0.128401047974
-0.16536362275
1.05861449674
-0.397906036018
0.980640372043
0.0089115869077
-0.86742235914
-0.749440065307
-1.44941252209
0.389121433501
-0.0137940154307
-1.27234773247
0.943323810183
0.564517243897
0.42681208033
0.692980696775
-0.0663907491961
0.279424259346
0.574775665779
0.301674841918
-0.7420692002
0.195294054695
-0.0715650003872
0.656715715382
0.421150692104
-0.992827289942
-0.309199261354
0.996085354854
-0.312622909034
0.202666978025
-0.105258111456
0.0876650355336
0.135737344509
0.563563225845
0.337106016574
-0.632610249031
0.51794359761
-0.567052329632
0.229474403758
-0.0674303924123
-0.415115655351
-0.12742650397
0.35862843853
-0.461055716077
-0.323169059608
0.835721425606
0.165994415101
0.502224586951
0.739592658632
0.386811257447
-0.0400815071958
-0.4092321885
-0.55280472192
0.56153233988
0.161457818669
0.0347170638712
1.25312155588
0.0329735023438
-0.895776366042
0.112189238338
-0.06091937709
-0.255352188217
0.286192531499
-0.466015461859
0.54565879661
0.312333816129
0.183710068725
-0.490210184579
0.928867793474
-0.452889888392
-0.161971252847
-0.642506748707
0.364988147107
-0.965886050857
0.250377892524
0.383923620119
-0.170532537311
0.295986080961
0.0390679839261
-0.653740980193
-0.325529157326
0.601927437083
1.37067665383
0.649926806079
0.396804428351
-0.201796090077
-0.584176525537
-1.10556575832
-0.288363160702
0.00782819181593
-1.02186231177
-0.0732404707764
-0.323671209213
-0.267666082105
0.741645277365
-0.177235762296
0.280223397472
0.0803846591033
-0.718625296943
-0.126172381151
-0.310171925169
0.260057648173
-0.53723196416
-0.640062287776
0.198306330227
0.469168865888
0.0159033616681
-0.616037378605
0.672662805943
-0.0956149852431
0.0573274389881
0.124353392879
0.210305852944
0.364705775061
0.180661482647
0.392792647394
0.0617813103738
0.54211087889
0.755069679518
0.223307027532
1.01618815044
0.758201620855
-0.395530560647
-0.219340304162
-0.655675054386
0.264418530993
0.399847141498
-0.13627089188
-0.536125418522
0.356342848261
0.518737055863
0.0960565356791
0.739562758943
-0.281502028483
-0.0734258187707
0.451303682023
0.0070311845025
0.0760289472814
-0.0319955087485
0.222755376928
0.1521684141
-0.0230851972014
1.24379151915
0.423763907691
-1.08290612345
0.0827585822395
0.969654400214
-1.36330873641
0.181792787309
0.665742696339
-0.00951171134615
-0.353825649223
-0.671971243929
-1.118601849
-0.0204864872812
-0.35558593916
0.777214477848
-0.197059645839
-0.595475885223
-0.390608807655
0.379610631168
-0.175893406411
-0.397743494052
-0.176962004988
0.543936901521
0.994107556585
0.316140519761
-0.40183562737
0.402975399499
-0.857383195646
-0.243365080439
0.430259240699
0.737766383285
0.749053585675
-0.168501923408
0.781858519505
-0.136311792555
0.313941166491
0.184822847114
0.590313804856
0.629302561819
-0.210908015932
0.336298497156
0.353295269521
-0.256592507857
0.0810162093341
-0.803597476613
0.0151578422511
0.0256555166171
1.19743547742
-0.0131076779953
0.86316732889
0.380878616316
0.256841573841
0.664429251746
0.866089732979
0.245703103636
0.186292721536
1.04750446397
-0.201011059661
-0.491354264857
0.824264171413
-0.875311246935
-0.0519511470456
-0.749671893924
0.717632960798
-0.54144123451
-0.485372551779
0.562548573272
0.199123966606
1.13879760892
-0.248147622359
-0.680718876478
-0.705374447035
0.255683383145
-0.589899743769
-0.162665715984
-0.398843196364
-0.287637610798
-0.515505283163
-0.326028877814
0.0269773305389
1.73627635275
0.110005451479
-0.233155370652
-0.0776967817675
0.46588485635
0.69002679517
-0.957660298575
0.566946383617
1.18602113877
-1.37579050028
0.494641817194
-0.0237290501154
-0.0589152129173
-0.166010750366
-1.55300444185
0.946080337767
0.669182357198
-0.664676829533
0.627812563042
0.38056531818
0.00388129777845
0.449672863648
-0.298787730724
0.56714641222
-0.312513267827
0.07708800343
1.06595394402
-0.650164943661
0.447398647621
0.461130101956
-0.429759630687
1.29912052485
-0.0914311660796
0.00425646129998
-0.25418113778
0.362616318901
-0.481635392904
0.389799867741
0.314212187458
-0.578006676327
0.381862877776
-1.12861638919
-0.740667595374
1.19533970931
-0.37021907913
-0.398390018543
0.260192666737
-0.380960771807
0.902837365919
1.06969641248
-0.289231640979
-0.770533743405
-0.403958544885
0.418279078034
-0.113124346861
0.145031521131
-0.245225912783
0.489438625011
0.447441361438
-0.645350909468
-0.163031959206
0.628010651396
1.86441891348
-0.619822659054
-0.484523704214
-0.101757348475
-0.603042450677
-0.433653825474
-0.528952561649
-0.571183952453
0.585127475135
0.196645651681
-0.170039238234
-0.391836120271
-0.671191590542
1.64361204336
0.43030001592
0.672347982088
0.807685515062
-0.180807173029
1.05915500909
-1.10474488621
-0.0677555736295
-0.269444667433
0.671901684675
-0.422600186476
0.319180721446
-1.19142326957
-0.0796710920742
-0.469303268479
0.800999941751
-0.617607957251
0.188253223793
-0.0259011215428
0.0238346692681
-0.567495325555
0.186898656675
0.25513038083
0.0112912986811
0.355244123924
0.682836309984
-0.0650884058251
0.674262844273
-0.136144548353
0.086659502307
-0.415831530088
0.626453627411
-0.158088736751
0.296479014115
-0.35600534347
-0.217610682665
-0.0951302725393
0.541239862779
-0.12059509713
0.9176644459
-0.267828147429
-0.0666342010658
0.28198407922
-0.844784926403
-0.0965061695423
0.369579454668
0.352022749628
0.345812863153
0.185057354935
-0.787742421558
0.0160904135005
0.203758800521
0.933700140005
0.473109457059
-0.081227136913
0.558385697603
-0.0694683952629
-0.417540841468
0.477441797766
0.232925918167
0.57149341913
-0.162630580962
-0.453772680167
0.217314570088
0.0382127908764
0.881501658239
-0.706973658895
-0.243832785695
0.674468711732
-0.0179085318375
0.802590456432
-0.471414269554
0.575555939065
0.0381308010369
-0.191766994386
-1.71847992689
-0.20491651457
0.280295295064
0.090238200909
0.663234246597
0.395318848814
0.0818237535603
0.178133696863
-0.0943207318771
0.707745792079
0.801656880768
-0.414143760164
0.636584184899
-0.396067906021
0.300160776716
-0.141068054143
-0.78931756534
0.798874488412
-0.255283466298
0.272200730828
1.08970622483
0.240713383361
-0.174784658228
-0.115422490854
-0.101703210712
-1.09447973016
-0.346375502882
0.181614152059
-0.187787519682
-0.103993183514
-0.358265631457
-0.652777609832
-0.516809557922
-0.696465761627
-0.246805201986
0.409212246724
0.218884897761
-0.117113341146
-0.129306979892
0.148656275106
-0.461032118134
-0.224495199164
-0.183041677856
-0.618361428241
-0.528738250327
0.99395729821
-0.220714181594
-0.504771784945
0.389485238976
-0.989621195597
0.465420864778
-0.499705485785
0.0396270290783
1.08743644111
-0.057585780729
-0.417102252393
-0.219123116225
0.228067276385
0.206405862238
0.632789771339
-0.632545415671
0.961145054698
0.22729878754
-0.591447783515
0.0329066842818
-0.958381802465
-0.128992977422
-0.223176198955
0.61865797214
-0.116539771137
-0.141804330495
-0.266864004113
-0.106349340838
1.28413186696
0.355724024824
0.542945212171
-0.0767230368537
0.0413435637961
-0.243702664865
-0.394747441602
-0.590568446195
-0.267716059296
0.684532172363
0.6008421329
-0.521111979838
0.47837244852
-0.144512679525
-0.366960063057
-0.0608336899634
-0.38104046717
-0.145566372159
0.444411255171
-0.854496047179
-0.0715804012864
0.513095494687
-0.438511716793
-0.318436037362
-0.832006701158
-0.214520793299
0.890428877828
0.311370030332
0.99145977732
-0.3549688614
1.01527146171
0.705268669405
0.979688390452
-0.320489553838
1.0271104587
0.168582200923
-0.392035744025
-0.590162227319
0.482924651661
0.57727474585
0.753129271
0.382624802609
-1.25203433472
0.201370204717
-1.10772751835
0.0361477559689
-0.366203430833
0.404357479165
-0.458456649037
0.47118695843
0.503606397508
-1.04255488437
0.708719600859
0.289793136488
-0.302413730123
-0.347853793867
0.662107250588
1.12224288351
-1.11527521502
-0.504381909259
-0.354876497382
-1.35719199306
-0.137717511506
0.346783521204
-0.110664769915
0.419899966977
0.686069799118
-0.366914458532
-0.579436170266
-0.400698064802
-0.577142443028
0.892001006879
-0.147194780041
-0.617364333953
0.031702579746
0.59834418857
-0.622603389597
0.0962777117567
-0.260711792186
0.0286565798546
0.503383040863
-0.538175146788
-0.0173941467169
-0.546296724843
0.222065232943
-0.32247332945
1.39989784612
-0.470401047575
0.169743610521
0.656886456618
-0.0568724509245
0.13277662654
0.726728256641
1.18630463106
0.174288605469
-0.0674413918649
-1.19009760262
-0.582261796054
1.08791472483
0.243025297946
-0.29555833156
-0.363320806064
0.331330770356
-1.02369687808
-0.187818033026
-0.342954131286
-0.0510458117019
0.406670936603
-0.116502168168
-0.313390593885
0.478879516201
-0.206280606928
0.661933210593
0.411242663446
-0.472198368952
0.102963605847
-0.727921056868
-0.43257728155
0.468212905525
0.128225889068
0.533865183907
0.97225779271
-0.801884772304
0.663453754153
0.293183226041
0.0439898231968
-0.407232499097
0.849926785639
0.490238747099
-0.551248520839
-0.219929282008
-0.761284411572
-1.03219600101
0.605831328861
-0.17666914495
-0.325237176537
-0.234492036204
0.172980900311
0.0148929693313
0.0592573569278
0.688762562894
-0.234747969383
0.324544262014
-0.274373441596
0.299403397962
-0.189305782008
0.568574581449
0.152233183309
0.75890824646
1.09118980397
0.213176382494
-1.06015875508
-0.0488872965772
-0.37671792215
1.16290394093
-0.400719797693
-0.740039424156
-0.304691947384
0.763880219006
-0.31229901154
0.361962545243
0.670744534166
1.44211924267
-0.399945958783
1.5914832771
0.12427033078
0.14341515241
0.606404006437
0.627622143698
0.0347305525631
0.47003343329
-0.449819233078
0.7051920738
0.26561645932
-0.32152086234
0.435854466708
1.54721637551
0.292803574111
0.476610063359
-0.0727796812513
0.327412012507
-0.550969739736
-0.595686702741
-0.529766462639
1.0617774941
-0.655067525353
1.42134395924
0.0412149313376
0.276872149056
0.526774693307
0.508958050606
0.596595288364
0.4425940201
0.261210612869
-0.47256136006
0.706569800761
0.692363872302
-0.493241815913
0.181299701227
0.0516271733745
-1.07703113372
0.518062294288
0.14258031058
0.106053360154
-0.259527268073
-0.411401892273
0.418292732769
0.705939149379
-0.175656419408
1.06373732377
0.44252744155
0.0798675743158
-0.228940632844
1.01166715699
-0.272738800829
-0.0690533327437
0.122422650671
0.218466880731
-1.00059414492
-0.486920798776
0.818470953388
0.340462973596
0.191874145781
0.269318132016
-0.825412414067
-0.226440861532
0.199674208264
0.226337539317
1.41295288306
0.122061570043
-0.130579823668
0.281862969149
0.581195107655
-0.195934590131
-0.195262199603
-0.168428380224
-0.0389331981617
-0.483368623003
0.0652985966535
0.706303957015
0.199914829011
-0.0327120224106
-0.411715817159
-0.49171782589
0.0679141233858
-0.380102908263
0.849104895006
-0.826819466268
-0.204792884054
-0.822171118876
-0.176291275197
0.632518605446
0.909505259051
-0.13182483524
0.714303399047
0.392959060693
-0.822641471211
-0.179775888664
0.445667260057
-0.595424348915
0.151925099308
0.573489735409
0.152175550616
0.0317396229198
0.574650900938
-0.782419204917
-0.515184386362
-0.664376746473
0.0190023379807
-0.0965710747367
-0.520012374771
-0.124254809885
0.223052000735
0.349529215237
-0.320598838439
-0.0318349376255
-0.281677348065
-0.443644790659
0.12399868001
0.2818547123
1.01188806796
0.126123420786
0.0927602946184
-0.246707741171
-0.969589418024
0.608736770251
-0.65463342668
-0.875190582959
0.627616658296
-0.313778842219
0.98871563762
0.120254772776
0.369978958053
-0.000478282343382
-0.12471611367
-0.511321164021
1.12223761548
-0.2269347028
-0.617801183601
-0.0692766362266
-0.199983295691
0.398074477995
0.348349989594
0.204213487257
0.204959267229
0.019364814381
-0.528642450635
-0.250094118416
-0.242777523569
0.56101643486
0.561624259372
-0.272867682804
1.10106359371
0.786165631214
-0.904737789406
0.469898902718
0.260155674297
0.356098713089
0.0625952244251
-0.544435203179
0.434072003827
-0.688814956667
-1.2005408688
0.275652514008
0.677546556472
-0.0940483094678
-0.267633386248
0.380885452639
0.158375897757
-0.887685018943
-0.334869072517
-0.221409474687
-0.228581420039
-0.206566370542
-0.298525669871
-0.24763678395
0.264337557212
-0.135938049613
-0.0311203637209
-0.663340095115
-0.239329209114
-0.272947218296
0.100939310261
0.0987357525551
0.549271801125
0.804276786162
0.187926392132
-0.530822648014
-0.376381612789
0.356729929289
-0.372886691919
1.62842125728
0.59520746525
-0.137935762238
-0.0335501450619
0.0245337633948
0.178543576839
-0.264385355938
-0.704571030401
0.369569758772
0.0503329486923
-0.00480662056917
-0.761620182869
-0.039770095911
-0.397329476433
0.569950586932
0.503231233504
-0.423689111224
-0.0906631871654
0.506074638775
-1.01531234544
-0.702424464394
-0.110590244303
-0.220520064766
0.293495295499
-0.750370238343
0.620757634436
-0.00358376126492
-0.608272352967
-0.0935465564499
-0.10498528466
0.325437028971
-0.65895991202
0.401519233868
0.492057045339
0.518203633715
0.606274174441
0.609527073
0.0892757266345
0.977823799992
-0.584169281916
0.709258172967
-0.369842110302
0.56833038898
0.643808317842
-0.79624502059
-0.739274253655
0.227985158984
0.300647865887
-0.464372121375
-0.0127337203066
-0.391043235606
-0.0240059934999
0.396278863749
-0.0657332810897
0.600965882974
0.433980923892
-0.167365641697
-0.542703715098
0.355312547868
1.08560848622
0.421873216908
-0.557234834399
-0.227940310374
-0.778449088976
-0.415531871706
-0.720755080853
1.20255170108
0.0436946318493
-0.407501260209
-0.804354238447
-0.408676663939
-0.424598101232
0.332149304744
0.112947045488
-0.648197467976
-1.08866969053
-0.0755237691704
0.41971401513
-0.143582251397
0.432307826548
0.0487537206347
0.382989974662
0.488835401113
-0.176801729699
0.608515026313
-0.0627484419326
-0.0171765042471
0.3403398152
-0.290617185306
0.392461466901
-0.293016290293
0.122221281501
0.685168354315
0.881402090116
0.387352577144
-0.197758230236
-0.933307612796
0.790877265668
-0.463754861888
-0.0577597889642
-0.350713806821
-0.376470501476
-0.779783653215
-0.807938084011
0.676682273867
-0.744102757359
-0.399882445603
0.580173428483
-0.637787463803
1.30581668152
-0.183412147667
-0.744476806577
-0.770143498338
-0.201724723567
0.904786676656
-0.372885370518
-0.113932084119
0.643298843777
-0.343284691216
-0.0389919746419
-0.425118845495
0.322011646608
0.36002749456
-0.364908074956
0.293912604827
0.0699110985352
0.101482501174
-0.820332266355
-0.0235202792584
-0.531053654332
-1.06918691438
0.541557442641
0.0544328480714
0.875312618363
-0.0927253904666
-0.9867101155
-0.385761948395
-0.994735836724
-0.382260279377
0.578066096275
0.132785462238
-0.070921724381
0.161691666815
0.121883314668
0.243141120763
-0.0390926844226
-1.01796378639
0.553089457501
-0.196105629967
0.4122349887
-0.342550463481
0.688817453599
-0.721619693358
0.502717861891
-0.00940386748181
0.437690233838
-0.0959719167206
-0.721755174255
-0.0968142258077
0.136032819609
1.24372140034
0.351815208111
-1.10350420703
0.437867025576
-0.982450829963
0.347719095363
-0.179784328727
0.161103584025
-0.157835593745
0.228977779518
-0.203768576859
1.20774975479
0.0478789869251
-0.185004823592
-0.324085034282
-1.23253358994
-0.722327276144
0.123997083402
0.70217293362
0.508427106956
1.59003869839
0.0226130878308
-1.26881033712
-0.20652629078
-0.948823821226
-0.85613481547
0.177109548154
-0.251975611264
-0.328058652424
0.442727661158
1.09064247788
-0.23138691052
-0.302050599165
-0.121011139795
0.0169177564265
-0.588281585513
-0.756349908511
-0.0957826441418
-0.276163355193
0.388699032376
-0.754732304153
0.576494035525
0.423025820946
-0.426863088607
0.303806076212
0.392659867036
0.48648830214
-0.570199896627
-0.711707571914
-0.564364336687
-0.800130142393
0.677474022099
-0.780106209713
0.113038448395
-0.897320500451
-0.559979971668
-0.20999377314
0.681254181168
0.530995286419
-1.30574716919
-0.0123697068387
-0.149685198599
-0.143821767634
-0.188482957992
-0.128724249965
-0.154708025319
0.0393168831766
0.179557814129
-0.776565737892
0.358651773691
0.0206968390744
0.104370487712
1.05587445622
-0.142584585175
0.432664420137
-0.530427351887
-0.119260886045
-0.15198258087
-0.0673934897381
-0.666088523221
-0.929483965331
-0.180164915306
-0.0924668902983
0.70890045548
0.270294327293
-0.34706441575
0.364641183914
0.71675618612
-0.369371861685
0.289595209363
0.0990821617283
-0.619100166355
-0.0718367371641
0.214720028513
-0.135714016784
-0.630606468721
0.379289839733
-0.295844432899
0.860108597608
-0.0666710793277
1.13498464479
0.391721174838
0.697558769474
0.54231241745
0.738045286651
-0.268794065561
0.371181955983
0.813866557464
-0.0938390859694
-0.272531520449
0.32887857554
-0.193066603792
0.0862130223289
0.249409156418
0.112887443001
0.57931101865
-1.03330195397
-0.0634157462015
-0.771600114582
0.587166656457
-1.27286450747
-0.423605264931
-0.464186637417
0.563607318383
0.370112046733
-0.480960693543
-0.349251201075
-0.257625852277
-0.293228077606
-0.6690703339
-0.442847536664
0.427418432229
-0.582411956414
-0.246002856991
0.203069969425
-0.23651583102
-0.00333722145529
-0.52237114386
0.17096434227
-0.117583604859
-0.178129338049
0.448547616099
1.12323989924
-0.361293224482
0.304442266089
1.15176459299
-0.327579121362
-0.242239124239
0.464599302263
0.0890166822385
0.616586589674
-0.606929270731
0.128982869939
-1.01002152896
0.100378019886
0.728886670263
-0.497999556066
-0.346831895555
-0.610652815387
0.668188720849
-0.591428622216
-0.0469396738289
0.731940098911
0.716449761846
0.84032422005
0.23263465561
0.223184284359
-0.714651385522
0.317112225067
0.305278335881
0.0293513828499
0.701087722615
0.398390204741
0.220811804634
-0.172346869221
-0.558556343973
0.524393740752
0.262206996747
-0.27549698911
-1.12140726545
-0.606558881322
0.278280156213
-0.425993623932
0.666169316172
0.0456538791119
-0.35659404603
0.0739891988144
-0.443866365689
0.668822051734
1.24778988626
0.232602401664
0.120018790825
-0.00780411075476
-0.210721350689
0.41124845151
-0.542405492291
-0.624602544423
0.599725649393
-0.410069535627
0.0387183856247
-0.661424894604
0.604474054668
0.21808695652
0.688843919718
1.07766093781
-0.279522274097
0.757208771568
-0.0384925914946
1.26462683261
0.149541827246
-1.19318452253
-0.195682189633
-0.730149922801
-0.103979707353
-0.798955541565
-1.44853328087
0.477403315348
-0.13241623805
0.692753840049
-0.758941299493
-0.192558576945
-0.521621430855
-0.735755334883
0.299876669148
-0.668018935979
0.0513141607397
-1.27171455406
0.23116805512
0.371965510096
0.0954201138114
-0.234557668531
-0.357826468533
-0.262750462205
-0.834844612439
0.0330970196021
0.513656422842
-0.789552591234
0.280376513252
-0.638512795359
-0.861184690851
0.103495378807
-0.491289399063
0.77005728321
-0.300841511984
-0.394903454619
0.0182253014591
0.375760003996
-0.557756076777
-0.5724821708
0.506288140536
-1.56535994043
0.973167122273
-0.498015427419
0.0141897398399
0.0437555028413
-0.116340729568
0.445766572978
-0.761006224345
0.621591283542
0.784353499887
-0.0453833144506
0.419220500287
0.249515007571
0.449122227336
-0.122520907119
0.0707205350446
0.820897083411
-0.146715863818
0.13654358282
-0.456506469913
-0.167706399874
-0.653667336207
-0.661224724156
-0.378178632588
-0.426537972311
-0.0345663961214
0.334108977208
-0.507298694446
-0.581854134807
0.140795695651
-0.458210044277
0.689979653739
0.0889687979881
0.363309706017
0.16009530777
0.737579195882
0.983044237422
0.0510242459126
-0.250899477418
-0.80341295178
-0.671159564776
0.811258206383
-0.382963755753
0.648483365284
0.822800494324
-0.853642456011
1.25909129312
-0.101574306707
-0.161816434652
-0.0693634328995
-0.642943429375
1.31435268345
0.74887295657
-0.375672200663
0.245960161828
-0.293820849224
-0.0094238792934
0.767790525075
-1.11327343085
0.719216572566
0.994743887492
-1.13370467646
-1.00918713945
0.848117671924
0.0736214322815
0.334453458261
0.573486666707
0.458521327707
-0.120350601638
-0.295882242709
0.108155889337
1.16923984521
-0.416874294747
-0.287846500584
-1.06684574814
0.0393013025778
-0.148810585882
1.73692348744
0.992016062177
-0.123037354708
0.734812388464
0.297787028885
-0.290410917302
-0.0177346986411
-0.742464037755
0.063526452254
0.276238376463
0.0451913769524
0.246074785715
0.158678357366
0.361317959421
1.09117095002
0.126440874853
1.15945064204
0.0187861550504
-0.471335992291
0.00646952897244
-0.480629177356
0.455451474491
-0.00463854777549
-0.365482073596
0.418533402286
-0.659571614578
0.165180617376
-0.502637421782
0.0490721192967
-1.19502076464
0.236027706502
0.552742157667
-0.15624076959
1.0830695952
-0.535962217056
-0.261206573387
-0.364033389556
0.229772587391
-0.459092688849
0.00221316031085
0.397102952909
0.147498764045
0.115032482152
0.248830575778
-1.02736033263
0.361821117804
-1.01554979564
0.255916275994
1.02707115369
0.94291942578
-0.357117743754
-0.0212864687438
-0.437496140726
0.957234408648
0.0334528728155
0.474967067413
0.371512283178
0.128001700256
0.916717248565
0.0044041386646
0.665651107762
-0.615444226129
0.349008038855
1.11273844962
0.387940110174
0.0719239075686
0.226735442095
0.0275985367268
0.0647157424904
-0.964153542567
0.239039430731
0.557295873341
0.564548267883
0.23542754878
-0.121404366424
-0.445730980441
0.459096448622
0.2508936608
0.375841835335
-0.523204786907
-0.775496050479
0.228852283298
0.433155302974
-0.350987826128
-0.981886467904
-0.112492731075
0.492122183976
0.171502293501
1.22695823107
-0.628225549866
0.0676505152766
-0.122269762507
-0.616832442849
-0.308641375839
0.602543651484
0.587190263905
-0.769292376588
0.0529527391034
0.977998981257
0.948142038648
0.355681786064
0.659477924836
-0.0909916626103
0.0660277702932
0.617557412578
0.713624865668
0.167078363813
-0.27141197987
-0.326276039732
0.230278733705
0.451874105786
-0.890333752111
0.453444589725
0.632045292908
-0.653970402991
-0.0141607187373
-0.39235586337
-0.0170965102128
0.474451120728
0.138497080938
-0.298818133905
-0.31070055936
0.314344854241
-0.0673287314451
0.983860726621
0.482896113325
-0.716193768867
-0.102352974399
-0.339008593802
0.397106885084
0.140497297257
0.605559551151
0.641841156183
-0.037286852411
-0.183694635746
0.105753841742
-0.0855143244267
-0.826838058803
0.6394967362
-1.14967680894
0.464570926342
-0.394108447242
1.51773454318
-0.199840018151
-0.721874840887
0.728448102302
-0.242287300417
-0.264131640231
-0.523273850811
-0.111166243528
-0.55132281647
0.0170917235635
0.244688629555
-0.187345379221
-0.476451554558
-0.508609554462
-0.896356789582
0.142165763215
-0.405312950975
0.505768934245
0.443906424228
-0.113088928319
0.187520256163
0.123560388111
1.07180279102
0.0723698729902
0.227729815865
0.896240195476
-0.198774935246
-0.0244934549646
0.726383912078
0.620020229759
-0.453436065893
-1.15302503738
-0.188514937615
-0.327424715617
-0.111652749489
0.155752122731
0.486061098167
-0.587896651869
0.0154134620932
-0.292768329701
-0.140510458262
-0.25261180221
0.332870805661
-1.39280865002
-0.389719185637
-0.324362345454
0.544148392318
0.281855995289
-0.509821186494
0.230842212027
0.849747212239
0.28829833282
1.18067986954
0.159135796729
0.343208994849
-0.819762692544
0.340259254364
0.54203732994
-0.249639940686
-0.358222484923
0.0358935587755
0.542144037331
0.368179950492
-0.0818111360828
0.528098409176
-0.98367478782
0.133831910244
-0.0363232785881
-0.433308081855
-0.399208482868
0.0351398054564
0.137616291805
0.640565932071
-0.366235485626
0.476477335563
0.660832151911
0.0897011018853
-0.143607032317
-0.260500231449
0.521471847558
0.253874859581
-0.666562823476
0.422263087984
-0.0583134079092
-0.611904177433
-0.0411106430305
0.513230359992
0.261941633295
-0.931295922735
-0.62018961204
-0.451592046526
-0.282793311197
-1.24996098783
0.328697768037
-0.264975548517
-0.170987758647
-1.24644617005
-0.86902491561
0.219349803191
-0.976120594146
0.51272838159
-0.40096290507
0.41531730679
-0.102799524621
-0.937372146333
-0.544091607329
0.099451087889
0.116711061016
-0.346647851114
0.445602992759
0.927592693291
-0.932782141105
-0.293240666658
0.516096277991
-0.0613787543933
-0.0332636559792
0.260919533944
-0.552510657925
0.138164834284
0.319755173896
1.05806431421
-0.031483296796
0.329211218389
0.0671331537551
0.278967300901
-0.487414496833
0.10376749986
-1.37512480964
0.290085488762
0.938281932292
-0.160900070026
-0.434508388324
0.440538711321
-0.106065891867
-1.18965509265
-0.0127947320384
0.123453710395
0.969670658858
-0.291883124163
-0.632791884848
0.366214671033
0.610422386664
-0.390368442411
-0.247355627256
0.0105387785929
0.185036449506
1.22914897264
-0.128103386874
-0.269290432899
0.252189279114
0.493961194193
-1.00892298392
0.355782288591
-0.446347362418
0.061764752664
0.13068325145
1.12150515503
0.596351576547
-0.501015307549
0.272915628659
-0.496427437843
0.421443924688
0.789711092034
0.572077321656
0.306943764989
0.657847965586
-0.102161220005
-0.327324633805
-0.567604114039
0.0575405692926
-0.398554240485
0.0769931165075
-0.992680903412
0.629068320668
0.0771189188061
0.117961789064
-0.92428584807
0.292563327104
0.491049176178
0.11309597174
0.0912297718823
0.603610225959
0.46576401756
0.174962373223
-0.0940959716278
-0.866683908142
0.670389970949
-0.295420175596
0.924547302563
0.581051901314
0.677898410461
0.29126621244
0.273309779112
-0.0347993822443
0.194353440791
-0.379319483257
-0.811028336127
-0.550757900687
-0.0255286067589
-0.0297409895618
0.719904744361
-0.850409870519
0.763070438681
-1.00885257494
0.825714553934
-0.237279705667
-1.00199230948
0.454666016587
-0.985608101306
0.887061790751
-0.824033869378
0.753541574819
-0.798251267268
0.413279212945
-0.50685818105
-0.73785633375
-0.308323835091
0.183629120279
-0.485731607027
-0.649647853369
0.518395184268
-0.194899396742
-0.563098957854
-0.338040306122
-0.774802448362
-0.457157308621
-0.907685159717
0.388309454586
-0.516594042885
0.402448418678
0.0560795431175
0.724162604429
-0.222603970608
0.0451114525574
0.364737498811
-0.550003724855
0.488573009217
0.447834792537
-1.01070945703
0.0650633563058
1.41872947453
-0.485884180134
-0.475646805987
-0.586726603849
-0.295089656664
-0.431971056833
0.0269734484669
-0.0042136642687
0.101442309281
0.234613359728
0.874068622802
-0.245235307928
0.24849832182
0.480759962477
-0.584516523167
0.454923450931
-0.221680641842
0.830141377114
0.410355852449
-0.124156535313
0.583398788174
0.0235808879359
-1.12414623006
0.665634590122
-0.935146564397
-0.780196492008
-0.283646672292
0.296231110835
1.33445354699
-0.150088034302
-0.239455827273
0.685671848391
0.572297189783
-0.958168074247
0.306494835864
-0.723376845315
-1.35816529625
-0.645908395697
0.488971476549
0.392700817222
1.55552959431
-0.00537718589182
0.388130669941
0.403472169508
-0.0565670781116
0.0871566534125
0.640304125906
0.166898299731
0.674669036863
-0.923294966796
-0.335097183965
0.0927176840749
-1.43672065486
0.728066864802
0.448896427646
-1.04922393504
-0.415147757136
0.408179323415
-1.26368277936
0.305406030218
0.538006908146
-0.640293021852
-0.685622157665
0.543700608531
0.603383452428
0.742505461622
0.173661229121
-0.222148140619
0.766380513722
-0.354532438358
-0.444400299242
0.333914965477
-0.0466244723819
-0.244306994256
-0.246018402357
-0.642562209398
-0.952263880061
-0.24343532158
-0.130474250562
0.458920173947
-0.339220474465
-0.251958150667
0.431486686585
-0.186391158926
0.212300094405
0.648315671234
-0.0776194049964
-0.26440252151
0.527239723466
-0.0132193288848
0.358920309045
-0.23853901072
0.157554893839
0.67368282841
0.958875922988
0.594463556786
0.134368760863
0.108442465746
-0.156420896881
0.163923702385
-0.201250246938
-0.321462129423
-0.292118138902
0.341630908712
0.457220659249
0.786752332785
-0.81277667838
-0.127151871563
0.397247792548
-0.147543232026
0.181702272039
0.377370857708
0.744070578287
-0.381569973083
0.0925565305255
0.475251548472
0.52509815494
-0.22688969481
-0.629348001132
0.47090023403
-0.271887049741
0.487706869164
1.03997147458
-0.132322393736
-0.763850029866
0.371823307334
0.160900454089
0.571448799846
-0.650124752906
0.171079524161
0.16696569828
0.00720053612266
0.740562451472
0.322502205867
0.0104725696926
-0.168749920154
0.227117050172
0.779561149089
0.419616889393
0.0456584842162
-0.689883668948
-0.974105743634
0.660468832216
0.112216922378
0.152556948393
-0.592599983962
0.153344749597
1.1158110926
0.158638131723
0.450965680886
1.15328772611
0.477770273171
-0.609499305776
-0.846869519591
-0.365400666478
0.0450195501817
0.0541291023611
0.0897434804959
0.177720052797
0.704924641282
0.250620921214
0.392914738207
-0.159876518689
-0.0198761505901
-0.149710278944
0.49830098827
-0.533055071636
-0.0255723882066
-0.867193127811
0.0502163608179
0.829548955344
-0.0275279042621
0.855986439682
0.838258481501
0.518472026167
-0.169931817112
0.324380076809
0.501125076934
-0.192318449476
-1.07339114901
1.01321565198
-0.331204391133
-0.570547770283
-0.040267100263
0.15986308434
-0.315001710241
-0.26171444279
-0.0897323746057
0.288398051059
-0.575980329565
0.343949819823
-0.398364408713
-0.644147560775
-0.883949334667
0.143230713145
0.246476812833
0.372743891811
-0.197336352536
-0.282941026278
-0.0511890462802
-0.326350182395
-0.652960199835
-0.427879549798
0.358836747078
-0.6456166035
-0.336320307149
-0.629498281081
0.424961015672
-0.0768577801908
-0.224109762742
0.860760257823
0.523847100886
-0.103809327183
0.532081966266
0.448349747942
0.676192326693
0.0448097976457
-0.726561018
-0.317810498207
0.526232377759
0.284631171406
-0.0497968399585
0.157618078018
-1.26420284209
-0.474933361389
0.226563878306
-1.01293990472
-0.434435351482
0.480856778774
0.292757893155
0.659177636029
0.493784954637
0.141837430009
-0.515746408224
0.0433805921107
-0.245675737397
-0.143966567852
0.579734402365
0.322176029618
-0.517076915927
0.383491725921
-0.818539170369
0.0687919668757
-0.658162807208
-0.290765457239
0.150396884023
1.00581513503
-0.793060148702
0.223702370056
0.177662178257
0.0735598053737
-0.539134276013
0.0772544916393
0.0958518452368
-0.148025846331
0.364919880609
-0.911529186368
-0.708687861663
-0.205890727924
0.0332806643497
-0.607814230601
0.664556787544
0.370060340417
0.0444327736437
-0.0195253135631
0.0276226708683
0.225642042191
-0.0767133924337
-0.165416005152
0.80877559522
0.689532462468
-0.217888686542
-0.290953737234
0.202027320485
-0.753318205206
-0.290223729978
-0.173170399652
0.0328818367578
-0.638566168087
0.393848061836
0.263783866143
1.26192763674
-0.115952411672
0.326596181679
0.775354239922
-1.2589346153
-0.442347564158
-0.155411993975
0.341734727687
-0.0978018391213
-0.138803730226
0.905654530786
0.617993142649
0.0472868355018
-0.290207476983
-0.435123737404
0.00106156714774
0.602395461684
-0.00541814606865
0.945713624286
-0.529354180353
0.132761245394
0.302457720524
0.21680957437
0.59764113752
-1.03445821201
0.185815076948
-0.270133264629
0.50626730029
0.784569785344
-0.532286662642
0.144853299866
0.248474252895
-0.048055457101
-0.736369911243
0.60047231039
-0.0773998774821
0.00935169390188
-1.124145093
-0.216004373712
-0.293279603974
-0.0603114142403
-0.278606341208
-0.477324538942
0.183265839798
0.447690820521
-0.8307662347
0.235388918395
0.391546644308
0.134451574061
0.716473685291
-0.621971236292
1.18489226352
-0.0543372085628
0.00222470340194
0.323970915912
-0.170281966982
-0.566268062041
0.186451777963
-0.353396680549
0.00324604839498
-0.397451320573
-0.415028140887
-0.652248075567
-0.329564315418
-0.230920373908
0.338022488119
-1.48184263761
1.18295895283
0.05423218071
0.046326055184
0.558003551544
-0.54680765155
0.87760988861
-0.106081096265
-0.420318284476
1.52527021138
0.0707415179405
-0.515847824823
-0.551524704198
-0.186982797185
-0.711050344833
0.82049430537
-0.441266141717
0.747618944512
0.208706632923
-1.40505298252
0.173948119962
0.540148206684
0.469106708995
-0.484125708686
-0.407064419468
0.223420944503
-0.20119733307
-0.787014906621
-0.811962081227
1.05914493887
0.457092780001
-0.157330969444
-0.323405844677
0.329771088709
0.455995851102
0.12942230963
-0.651415204523
-0.471658626786
0.594434601197
0.403889000578
0.304700076435
1.48403653056
1.02403300316
0.0334426559388
0.611316071307
0.0867070889696
-0.802113796933
0.788616828539
0.593320281101
0.489485814311
0.304102599932
0.428901529323
-0.0877237498252
0.217961615545
0.198411995546
0.105585691236
0.24458050585
0.942805060653
0.363884366592
0.263394256726
-0.374513184258
0.430513220507
-0.124132074998
0.274463411418
0.356422227663
-0.145670333232
0.461141432996
-0.687670326316
0.0923776525744
-0.915505761242
-0.166461909408
0.413820328664
0.381971017332
0.309328997335
-0.771434895557
-0.672345341259
-0.919435797913
-0.0366234562635
-1.21455403886
0.0597962812841
-0.447674552868
0.788212726254
-0.0964527610559
0.154239517126
0.310868534192
-0.062316974901
-0.352783617346
0.188505826328
0.562261511316
0.823713457255
0.709748474242
-0.251289595231
0.145862945666
0.159788402803
-0.709540311376
0.751193145721
-0.742272930059
-0.108810351716
0.573030714113
-0.153302681432
1.27848329126
-1.22660753809
0.0761940681253
-0.613984107223
1.23296037976
0.334156973046
0.440397032643
1.84643363449
-0.607233454236
-0.295502696208
0.838770081711
0.257159000672
-0.999925060555
0.169807635352
-0.286403256637
0.100185110462
0.467815406428
-1.18273517804
-0.483860621132
-0.233136229291
-0.161751204209
0.0871613323731
-0.804297351196
0.461144841274
0.223642145118
0.0628934920984
0.474963264836
-0.279768375371
0.478772971561
-0.791888480382
0.975416659428
0.187205377317
1.03046390248
0.717811289345
-0.471542858754
0.172347931229
-0.109064555553
-0.274995882656
-0.08940734936
0.837165284283
0.183135661303
-0.466031856096
0.708715929662
-0.93932352573
0.284904151853
0.216865811807
-0.482575612869
0.461654798995
0.240668180697
-1.01910816507
-0.435161274706
0.526170519905
0.865206171147
0.389377314806
-0.0536125974099
0.507311452032
-0.163820937967
-0.668932624819
0.313288432218
0.833430214617
0.322834735277
-0.221798044429
0.166393258171
-0.507928458124
-0.834138746247
0.0401059461434
0.461732108939
0.38395544066
-0.382513270136
-0.00740905064163
0.426704549343
0.287652088825
0.282512402184
-0.178523992188
-0.961402180838
-0.0795420394904
0.0305468216377
-0.390857665329
-0.382829379996
-0.717995316266
0.805744907095
0.31044841107
0.545771430153
-0.401168980907
-0.0177454106243
0.0800269642462
-1.17068456708
0.531565592399
-0.856464133987
-0.233149329822
-0.163467796096
-0.475394901908
-0.232658815256
-0.0518903315927
-0.718130095174
-0.256151650648
0.25033838926
-0.50367996788
-0.345424297767
-2.02902498147
-0.128540702544
-0.0764855277165
-1.07803342058
0.102197178325
-1.13202424768
0.682665737862
0.319024222218
0.216511167719
0.037920307531
0.51149264131
0.432518787369
0.753228143693
0.30028169507
0.50961238188
-0.024059915
-0.00792671228925
0.405181797462
0.335150912813
-0.418049487013
-0.235869117077
0.485554485842
0.27002251809
-0.40950218954
-0.484776984076
-0.396445993699
-1.3587144532
-0.22070934121
-1.09728321381
-0.373126515828
-0.179309517571
0.188006366677
-0.345422264394
-0.485134736452
-0.0531591960133
-0.76983455253
-0.558176085097
-0.504745606751
0.397217215219
-0.627135151279
0.46509945238
-0.0787690993145
0.258734484377
0.87980318858
-0.198956678015
0.781929004865
0.258930808952
0.119168731426
-0.256765683504
-0.567734060511
-0.452320957989
-0.386759629533
-0.0280360556716
1.18987402037
-0.0917819054654
1.00533335864
0.389371683196
-0.687919272171
-0.35456958423
1.58043606705
0.465641109725
-0.0516997063732
0.000106056158418
0.23602533751
1.34568047977
-0.603956857399
0.644034901687
0.869551652938
-0.12184675175
0.898297415436
-0.773031121825
-0.307642496984
1.00642078992
-0.162888024829
0.606560548278
0.562485536885
0.99420341741
1.21980571587
-0.25350955942
0.00683387889466
-0.350094561525
-0.445267001763
-1.10966714992
0.126117366439
0.0695135454607
0.807917924453
0.570245543377
0.48975298343
-0.161177130086
0.0114272862474
-0.599953953849
-0.0819587117972
-0.830467085513
-0.868036843358
0.306783722875
0.180183515753
0.0116451496346
-0.464649678824
0.0280743667407
-0.188288510624
-0.774300137483
-0.150170623275
-0.384340310148
-0.150643817381
0.547865818774
-0.367980957618
0.559712729756
-0.174641447607
-0.555923091805
-0.608124375322
-0.673835066768
-0.0120100509443
0.204107194004
-0.525235008222
-0.821463883723
0.209431564819
0.409650725056
0.279872355005
0.612725063396
-0.694989010806
-0.454156011919
-0.444004778838
0.304067109928
0.182820036936
-1.05069741476
-0.0763914296067
-0.696450218262
-0.639052010751
1.02731573233
-1.43057730385
0.0160930992172
1.7160708145
0.23486064203
-0.0598334357333
0.389219080423
1.52973098039
-0.127761287333
0.537033389178
-0.645887077162
-0.478509693958
-0.65825387373
0.438978733823
0.0288469544597
1.64646742656
-0.709067271662
0.0144036417722
0.593110621515
0.870967809274
-1.28661813081
0.561948683952
-0.628093073497
-0.0205696378453
-0.615773881464
0.054803523109
0.314363466437
0.520495668744
-0.0788018579296
-0.70828189508
0.519896260412
0.828785623479
0.518468944071
0.820735973511
-0.0115910561704
-0.357066529595
0.33441397756
1.18975658096
-0.259360871929
-0.224844893491
0.10789443615
-0.0927799083416
0.577271272069
-0.264768132162
0.0279398297144
-0.369300087544
0.541630056646
0.477608095002
0.798609361064
0.276255418041
0.962510175064
0.104756733819
0.0854494286223
-0.0449468209533
0.0949440778103
-0.0749715854029
0.209540435414
0.992109683678
0.209876263607
-0.323306130759
-0.305627703498
0.391051703269
0.394152571605
0.00609118659616
0.19963617175
0.144358426774
-0.100372105978
0.412618893575
0.525209851959
0.297467700655
-0.160598069075
0.57809410606
-0.229016462004
0.361675346282
-1.34688719698
-0.383995077114
0.544952014242
-1.06405748374
0.410368156831
0.429837235398
0.735907166271
0.835016438045
-0.242102328509
-0.0222349278038
0.0262048225974
-0.0028285593194
0.928789407884
-0.402773566969
-0.272672191505
0.980409429118
-0.384555410927
1.07551755563
-0.052534109962
0.0772250760673
-0.494176949953
-0.0398379364802
-0.326822321736
-0.106853709421
-0.0870742761526
-0.016610433836
-0.789572799106
-0.127385963018
0.32578101431
1.13272939265
-0.637484729266
-0.309354346533
-0.754795586525
0.319644795346
0.195702422632
0.360197105552
-0.284823722479
-0.118311352564
0.0172558324978
0.0596632769879
0.144175278205
-0.256250018696
0.218713782765
0.34151217588
0.388510403686
0.0876633712188
-0.772798293772
0.203330421895
0.341206144311
1.50852264363
-0.533116652439
-1.03737843925
0.258225699523
0.260366759045
0.00704271671165
1.49023176016
-0.845563113384
0.223058405463
-0.844714405483
0.147726477503
0.911261796521
0.658740294363
0.665575096672
0.705644762459
0.741801247513
-0.334278879856
0.633800877379
-0.121497437019
-0.032500141772
-0.628661758064
0.0847243329096
-0.0543067557376
0.0439120502937
-0.215257210931
0.665645982671
-0.360800813752
-0.192432581444
-0.0712394520054
-1.26134693679
0.438199028877
-0.922353721052
0.316396034963
-0.234367656424
0.495281854993
0.416196537186
-0.134985735465
-0.331867273296
0.274619883246
0.790042505327
0.27350031639
-1.003949473
-0.232500995058
0.363044265809
0.556100321799
1.30754661596
0.449471448912
0.100716234495
0.822957263185
0.736500917102
0.0979884523266
0.30593770346
0.863993476197
-0.041953059587
0.0140942780047
0.902969523263
0.0436747505217
-1.11113942098
0.0953192815503
1.1919495998
0.0319000082694
0.322945527691
0.121845496384
0.262900536369
0.406863506599
-0.562688868414
0.496891765515
-0.686708421127
0.0985521028476
-0.0113922844988
0.930177400733
0.12959815491
0.517047443249
-0.625142759901
0.676593368525
-0.370334152002
-0.171431818517
-0.37328115822
0.195586658559
-0.793817948019
0.284213412852
0.0158070113195
-0.289865575919
-0.313162268874
-0.648266445024
0.0399312819175
-0.588258206861
0.14037106195
1.05653072301
1.28209474975
0.332941888019
-0.285151804364
0.829321286314
0.0382103880468
0.488441182029
-0.0965535013673
-0.0447087190769
0.688878315879
0.113974545678
-0.636512989672
-0.233643572573
0.309859109647
-0.174081637959
-0.198743102804
0.839074888199
-0.0109176231222
1.16891977231
-1.11844056242
0.401527704827
0.470662710889
-0.818403621829
-0.27706816108
0.2486660051
-1.01353738443
0.0123943664729
-0.353137212333
0.529611901537
0.691771827677
-0.0647494737291
0.21197870108
0.195846709131
0.0025452123004
0.113262117276
0.83471699228
0.604486302262
-0.459230242431
-1.01095801581
-0.0768919866588
-0.396790767464
-0.346485709467
0.809248861008
-0.309599802745
-0.341990989469
-0.0436273597423
-0.165484715965
0.507407592996
-0.298222884998
-0.663054492599
-0.348778249005
-0.259607650601
-0.693918145902
-0.456689687802
0.652729785205
0.192702907633
-0.0036967094815
-0.222244781713
-0.443069958087
-0.0524938601444
0.335592398615
-0.192783624313
-0.249926266305
0.32273365372
-0.154069061271
-0.450686796446
0.959953480771
0.382915314543
0.234376038089
0.661389771629
-0.703979001694
0.0706815933811
-1.18177663663
-0.615544020245
-0.535848178351
0.419945678616
-0.0394300189296
0.624499575859
-0.740831614419
-0.0647484045185
-0.590961115803
0.518127829251
-0.602519528789
-0.276619423499
0.139098826251
-0.254260493425
0.986798422452
0.192657286997
0.131625074748
-0.572507609316
-0.00794437108882
-0.679163095308
0.361206627391
0.0554846890391
0.370809767313
-0.176384145402
-0.186377952234
-0.658304505296
0.856540496462
-0.143525982985
0.243595534148
0.820585310516
0.0694860043487
0.340099484278
-0.873939166309
-0.273828386823
0.41001855888
-0.575168060258
-0.757461917509
-0.754714192142
-0.223187997787
0.348969170228
0.993420934902
0.599518608525
-0.229897355563
0.317033894451
-0.0773036179903
0.168668956838
1.02625641915
0.643067332932
0.316108504502
-1.04726919283
0.330160937841
0.805348763294
0.947599543738
-0.217391423083
0.481185909518
0.251416063441
-0.306398689184
0.99845466085
0.451426449742
0.372375341124
0.497816942456
0.103962905893
-0.0219355884049
0.000840014803657
-0.185421693755
-0.207544353731
-0.450972078099
0.421517309326
-0.0232094961131
-0.419709457437
0.368500308524
0.155988427191
-0.819113488589
0.717897011875
0.478412589468
0.673618077958
0.316610997485
-1.2235586837
-0.39347086169
0.710158267083
1.26932350831
0.650559001786
0.824564872188
-0.959782204393
0.232840702413
0.180678313788
0.571478090109
-1.02653427183
0.174223601951
0.096717246969
0.275075831552
-0.0427696304417
-0.251289319699
0.302099983616
-0.36532245693
-0.305571949193
1.11383323377
-0.644765055393
-0.54942924502
0.938213927478
-0.122342647649
0.933846796836
1.01438806693
0.267276893511
-0.845416484184
-0.161732270669
-0.338207390803
-0.117923271012
-0.446539579201
-0.394759000235
-0.985119619409
-0.213915639586
-0.948819307493
-0.561167359222
0.0854928364502
-0.458571848863
-0.677645935768
0.310499944548
0.211930822287
0.478320766574
-0.60834273365
-0.450068675126
-1.13955126318
0.926217672195
-1.20423823892
0.105015315583
-0.914550744448
0.781491688279
0.581155020183
0.965348894884
0.444432866516
-0.758699564939
-0.599941208088
0.823632585286
-0.446214928637
-0.446521832318
-0.380559831388
-0.0105337353046
-0.532006358355
-0.61093573194
-0.324025859046
-0.247199064996
0.489057786549
-0.742262078526
-0.54480772589
0.767640351208
-0.16287864469
-0.37930396631
-0.487042175357
0.143874550433
1.03673542723
0.594349807177
0.464367038462
-0.531207326991
0.702134505974
-0.283515083
-0.0268950918564
0.443080562798
-0.0345114263913
-0.236199002505
0.547394777783
-0.0514592954951
0.191819244672
-0.0559456298054
0.00804101091676
-0.301263631421
0.525993311534
-0.539498597602
-0.349643451942
-0.175790726717
0.0718924200448
0.491535008289
0.613611402593
0.00390280329585
0.401562014556
-0.505812182918
-0.0914609478645
-0.698924527492
-0.324683634801
-0.897479241559
-0.401621956011
1.08711267955
-0.346327898
-0.1505900018
0.289783466541
-0.516893617436
-0.380147796983
-0.597704718462
-0.440748847771
-0.524281895563
0.379457356511
0.144080620621
0.793268175318
-0.00624494434219
0.0469293077238
-0.319351286973
-0.286345883482
-0.721911295475
0.190251718847
-0.745365341688
0.569726264765
0.0189376207568
0.0688954876655
0.561882336781
-0.653096945663
-0.18733001643
-0.330549576454
-0.537032731296
-0.247734295506
0.658175039226
-0.488005363143
0.613443174156
-0.397242041007
-0.451946150016
-0.286996698564
-0.758356237433
-0.627418794636
-0.477539000166
-0.161226062475
-0.537408576431
-0.0682273287149
0.556214222664
-0.34364429922
0.200254055114
-0.814942305637
-1.59858194082
1.00324315012
-0.250144529447
0.53682743409
0.228190613146
-1.15347643755
-0.42250576147
0.593786737652
-0.145937844632
-0.412172708537
0.502881431906
0.0220489490602
0.200147497813
-0.104056826343
-0.475625759722
0.383065055667
0.4950827691
0.443610435531
0.158955144562
-1.03414143062
0.0492396553485
0.450923933875
0.720855922594
1.07204042992
0.5789275282
-0.404114007154
0.391105719848
-0.256919824975
-0.107360548808
0.195386833122
-0.501676014994
0.302531061369
-0.393605832099
0.665478159512
-0.00493556617073
-0.430366886017
-0.383831100786
0.527625452915
0.600914032474
0.465897432029
-0.128336829283
0.272125943419
0.312927920247
0.0388363970504
-0.0507038503636
0.637057831438
0.0772954953714
0.0735621360084
0.0849217234745
-0.290695967148
-0.514624459705
1.20524603417
0.0746753020522
0.433170063975
0.0229509267778
0.184492800544
0.0796316996363
-0.429839969403
0.778099767622
0.0787953434105
-0.194384550652
0.451171401107
-0.737595327609
0.164589017594
0.215902522744
-0.0385956205172
-0.204306246784
0.0618747018227
0.499920385591
-0.0639455253468
-0.179113579405
-0.398540471969
-0.145221393541
-0.535116026642
-0.30606459073
0.141218798632
-0.990869012151
-0.126665702928
-0.176366849857
0.472476692876
-0.599749607236
-0.384919409916
0.316356657851
0.541546151167
0.489171601507
-0.0946240068475
0.0217015031489
0.453761621814
-0.00253035021602
0.224091982191
0.132636155308
-0.191687821026
0.821680074038
0.340193125873
0.0629994078683
-0.472771954121
0.620668613373
0.0332677881002
0.683504522148
0.542490407051
-0.121253716563
-0.00176526022921
0.686972756496
0.083149281317
-0.136778052387
-0.619274671241
-0.624694098591
-0.31963818224
0.0544983878552
0.415909383994
-0.433410210107
0.738490954195
0.85570155107
0.142614702209
0.19706407946
0.536659079527
-0.327492853796
0.280865148478
-0.34284045916
-0.18339939961
-0.596730796333
-0.273287738515
0.567927379538
-0.0163850474122
0.192088769209
-0.786251284021
0.346048221983
0.714146616529
-0.586677423788
-0.170081398338
0.386731231193
0.00717720920542
1.03037980304
0.231535075032
-0.553732050805
0.218040261612
0.621755836307
0.761284749179
0.919648031521
0.302289267329
-0.205036673497
0.438350709292
0.301369790359
-0.840227323006
-0.164820764653
0.514615316097
0.310617646122
-0.447046928111
0.87476201248
-0.656939048642
0.903598436371
0.909417894223
-0.184373723354
0.452446952539
-0.317621872646
0.627389264811
-0.2736836739
0.981771022774
0.0392440867211
0.85307994196
0.143224555422
-0.641689652282
0.538264302971
-0.565538911105
0.216909173206
0.241294957916
0.354698244748
-1.07568079751
-1.00018860238
-0.153896828558
0.036105945021
0.529414013193
0.686310837863
-0.42484062775
0.488525313899
0.837086271296
-0.110865919389
0.749536162456
0.227059829378
-0.0626952077106
-0.118736018576
-0.757195595934
-0.493341269967
0.603079128927
-0.169585274247
0.478906745255
-0.0752551443389
-0.240591728942
-0.907622616315
0.276920135914
-0.205780134436
-0.321344651678
-0.0340835380633
0.083434375443
0.384123275554
-0.555500760544
-0.245675081973
0.570368846918
-0.26891356739
-0.659301694625
0.456047517206
0.570464968839
-0.641994692639
0.49925501233
0.863734019676
-0.467802809427
-0.309428260441
-0.344354012092
-0.557794474042
-0.956995184348
-1.0840519825
0.471409729922
-0.41435418753
-0.050503410481
0.325964901592
0.201415462192
-0.549429105206
0.0784443188204
-0.73235266704
-0.182418532154
0.267517400598
0.0356109883267
0.402671054599
-1.11204895908
-0.612549464132
0.67347984211
-0.0996371507181
0.431095291782
0.544173388309
0.0851154793128
-0.0329081241613
-0.57430209227
-0.0824920893484
-0.581441230841
0.0395218585524
0.347593019778
0.331103550318
-0.231166851612
0.0542956192617
-0.423884076365
0.577492865894
1.35890132976
0.122452269938
-0.0450339182429
-0.961918923046
-1.36735440166
1.45533414814
-0.0675677167882
0.0828231023202
0.309350716237
-0.235733447205
0.35405388796
-0.54384580317
-0.481347560895
-0.588474579159
-0.850102430245
0.538596239437
-0.191156051886
0.318634517063
-0.133809175449
-0.260971099892
-0.137517283421
-1.10465257815
-0.322836522778
-0.119094382573
0.0703708469057
0.354294629386
0.953403909993
0.125707107843
-0.0981886171912
-0.569023443488
-0.857860659722
-0.380664461609
0.94551060567
0.679550066594
-0.859928915681
0.00480178046584
0.923716434222
-0.461531845255
0.218623144575
0.13171069014
0.0799918789482
-0.240080079238
-1.03815692603
0.390461499969
-0.619913521014
0.0706568416098
0.252321394288
0.450544776832
-0.352211270092
-0.118057166027
0.253294075005
-0.847143834161
0.922673991986
0.415827489896
-0.101866171902
-0.83473788394
0.223585872355
0.0593703050026
0.189849252155
0.67279783156
-0.0709852731566
0.244201260048
0.0666763851417
-0.515564989959
-0.343935450667
0.156295093952
0.207359574029
1.15692409769
-0.117975254549
-0.0542731837096
-0.123983418549
0.323929890096
-0.27206574463
-0.382820460129
0.668565633642
-0.0439346885461
-1.11461769568
0.295443031008
0.525820199457
0.401814228616
0.0934304998406
0.801797081324
0.485668723027
0.982322756665
0.414803864155
1.17060829182
0.420997592809
0.533327051582
-0.202991814349
0.037865960161
0.442762070968
-0.486040225335
0.608124018844
-0.417461194296
0.368331942867
-0.984501359473
0.19853975097
0.456232026611
0.877933978149
-1.20591953977
0.564805293516
-0.0172505283837
-0.17289764536
0.763931418662
-1.15577059657
0.0614089931827
-1.13946276822
0.0557619437059
0.428294923528
-0.00698467795275
0.23054002346
0.919794843857
0.285653648385
-1.03583932304
0.150922993491
-0.0421201434866
0.46204367719
-0.154756854062
-0.315287568949
-0.669816283743
-0.227372281347
-0.812449310775
0.600253865812
-0.332086546738
1.32080582765
-0.93318094768
-0.197832128425
0.191562108244
0.519778200264
0.145144174673
-0.141692932669
0.0748445764332
-0.771049854915
0.697060380638
-0.295436963404
0.218732599732
-0.160976433521
0.371647602126
-0.74351306777
-0.15963499452
0.810014674395
-0.134342022841
-0.0590650262999
0.00189415673759
-0.923381601179
-0.355432811247
-0.872975450739
-0.521835774478
0.17549871445
-0.0959530690712
-0.820457384582
0.0331371130303
0.0393536047607
0.106951529992
0.0606423972432
-0.400341517887
-0.0276168933223
0.898047537467
0.606032951506
-0.368096180164
-0.763485342327
-0.744731530291
-0.226381552692
0.285674942173
0.545934850395
-0.11497878684
0.819011796618
1.08324765969
-0.478107064293
0.0213992055948
-0.625798365163
0.549760984313
0.0633902686012
0.193979107126
0.238026767422
-0.417344963239
-0.223381822288
-0.150194701184
0.623155826067
0.38085437833
-0.523041413687
0.568417874467
0.183873551654
0.395112327833
0.0200099632131
0.00347538259645
0.636171592865
-0.652090359744
-0.176382882737
-0.991821276037
0.252766330957
0.0607554263947
0.461827509841
-0.165589420732
0.0462335958234
-0.566242157479
-0.217526711147
0.205131432796
0.386626612768
-0.156360438053
0.0120014701876
-0.473771693539
-0.307228536882
-0.246597797267
-0.483285149798
0.223255862336
0.171476552549
0.166373505867
0.236516514447
-0.0772114099263
1.33388220069
-0.593002895547
-0.227514578974
0.107624523212
0.356140266737
-0.859305683203
-0.414674865635
-0.394031492851
-0.657585492092
-0.405727126797
0.145764600269
0.657848279062
-0.0608665089423
-0.513783065033
-0.193946239905
-0.593140985027
-0.0494227995036
-0.171090948076
0.0711203255908
-0.187068319512
0.206290886041
0.561859821918
-0.214093135754
-0.235349334598
0.641193795851
0.592171343418
-0.200732422454
0.771684099348
-0.00243664120377
0.20432476181
0.24801577815
0.0909720862557
-0.401646250039
0.429029288402
-0.558563694069
-0.483148097931
-0.819251599248
-0.26267240689
-0.143335175444
0.0655900267729
1.01289324518
0.858496821109
0.253575407238
-0.183628860689
-0.0188768107132
0.625421340317
0.492002843222
0.408982056888
0.384655157953
-0.19107750862
-1.02829479648
0.72865465291
0.692850909289
0.00752122533021
0.608938315494
0.360864241585
-0.0938654947669
0.248900754027
0.388888948738
-1.2667615978
0.0556819507886
-0.654213981576
-0.365110320269
0.170628261862
-0.634964635799
-0.468572961815
-0.0739895063918
0.0535001516824
0.648548799489
-0.772626339203
-0.689262610639
-0.0584788182417
0.168581632846
0.404492709131
0.56804760268
-0.469152873351
-0.886108368147
-0.932721299734
-0.891680270175
0.808363677004
0.297534225754
0.292789820113
-0.515021031704
0.571326079848
-0.841132553139
0.307261592926
0.488934885117
0.410134480591
0.63156462698
0.503064339474
-0.424303669203
-0.337711484281
-0.266607434947
0.408892812083
-0.506678231321
0.215021675369
-0.112304155967
-0.502717273907
0.325372035865
0.305668557245
-0.495433545224
0.000767637523107
-0.266374546213
0.226010371731
0.73544297313
-0.726774647534
0.098063570394
0.293675121786
-0.791738816472
0.668254808222
-0.480803931059
0.304437929929
-0.228843646602
0.378103580715
-0.351188037349
-0.590086291252
-0.343640333428
0.837931772474
0.403944310537
0.311266570933
-0.0333274243378
0.193089022457
-0.349262180715
-0.331707189051
-0.996490415077
-0.265795492302
-0.0216226315333
-0.593550626417
0.65375331758
0.528480725782
-0.186904656858
-0.614195711006
0.585210990325
1.19847692561
0.163227995971
-0.954028384264
0.0157657767761
-0.0577438809142
-0.160025312107
-0.702619256949
1.08765338419
0.388808364015
-0.0188586730078
0.17785146197
-1.10619842147
-0.757182416891
0.226993132763
0.530698659052
0.1200318339
1.23305925556
0.422420166309
-0.180257144058
-0.163905007095
-0.390915703969
0.589402649895
-0.591595313303
-0.0657075298264
0.658401992493
-0.668296256631
0.564010814699
0.137342995054
-0.0174563004505
0.677138943806
1.28060671182
-0.208955437826
0.276646087657
-0.268242919912
0.354989000201
0.703900745961
0.463760448321
0.511342149384
-0.592554293572
-0.594774740945
-0.58802836719
-0.199801815178
0.299609723603
-0.472844643704
-0.092408369174
0.0557744221564
-0.336963693419
-0.208364334206
-0.199185311615
0.343247941444
-0.0940716942582
-0.392713246945
1.4227336684
-0.0388398667796
-0.0608262613921
0.0951185900084
-0.142438256789
-0.215025989476
-0.214958506804
-0.126742929695
-0.361045688991
0.418982736287
1.34966975153
0.0578882142762
0.0925006568025
0.0340715459888
-0.41622394312
1.12821245169
0.475131443059
-0.161998734418
-0.61067869628
0.552037087332
0.621963447257
-0.560520054211
-0.462298487149
-0.111029478809
0.458382505622
-0.325663382327
-0.328886559443
-0.898598560371
0.300129677717
0.149759049493
0.0992335612805
-0.459917888838
-0.175566909803
-0.728925816455
-0.179872361206
0.124636209979
0.926679785584
-0.273925683917
-0.415756295033
0.0720442012866
-0.136757859304
-0.766386522062
-0.230714253504
0.481966981548
-0.293500373448
-0.57886627751
0.134723022673
0.359694355143
1.26528727793
0.529421925203
0.596481487616
0.356801716271
0.259160461385
-0.365515447949
0.367458915315
0.1591672831
0.325392874981
-0.484315188477
-0.330670914094
-0.749240962923
-0.236841930163
-0.0663725915126
-0.625481053763
-0.0663391668034
0.62230990291
0.801571694953
-0.963408134971
-0.665542812795
-0.0782408429561
-0.137417278514
0.829969135009
-0.111988684445
-0.296083328802
0.742439462075
-0.240968508559
-1.20544226084
-0.338757253011
0.724673215225
-0.288046049619
-0.0821857691237
0.687298720605
0.191698490634
0.265300177377
0.548981388375
-0.470088418132
-0.150554630895
0.203393588086
-0.0180862668203
0.165839191399
-0.204056311806
-0.372691613795
0.0727697084666
-0.307392569013
0.180883844635
0.345517720745
1.24887761416
0.168508591968
-0.288052170903
0.568765706578
0.657291821103
0.0088194377235
0.594223544659
-0.392790191615
0.478233663181
-0.682917019211
-0.7014758096
-0.6723584821
0.302319552915
0.291625206543
-0.51554190847
-0.184463307658
-0.0973831601323
-0.399103933913
0.444012556417
-0.335972945048
0.00249651776574
-0.404555345975
-0.185945864148
-0.17285254629
0.650609973982
0.457150818046
0.831193336218
0.414814655413
0.180124933667
-0.249003804508
0.539583727876
0.0103667519442
0.064810261837
0.23131941959
-0.190408345315
0.865071683984
0.444052807806
-0.016152784807
-0.267703164144
0.151490910727
-0.238523642435
-0.0706906342312
-0.791927638659
-0.140501240677
0.460281199975
-0.0791303926541
0.42192037439
0.253981863018
0.190862136482
-0.525996596805
0.288701134857
0.260784224938
0.650638809359
-0.793839334751
-1.12859045644
-0.604625766188
-0.337913356291
0.424475776807
-1.72361672541
0.354692818664
-0.562722759892
0.418358687994
0.658653309547
-1.36218618219
0.0803065328725
0.394523927662
0.0978238492477
-0.0451199355418
0.601198523424
-0.375313192316
-0.584054499509
0.352269252819
0.241826560496
-0.210994799739
-0.214370226618
-0.888510369702
-0.418270043448
-0.535889512549
0.0108060160041
0.65218406652
-0.718593245414
0.315247618402
0.444209098534
0.844413103334
-0.602357278444
0.186684677742
-0.157674384705
0.49564666386
-0.106838986081
0.510208433708
0.628604863577
0.172400087954
-0.42202256513
1.18935534526
-0.312430620239
0.299463526143
0.0558010305364
0.56614536477
0.018284837685
0.0891192822713
0.0578206245229
-0.501783808138
-0.654467526609
0.671713852424
0.300980932578
-0.51742664106
0.333561278954
0.414528820042
0.650922319046
-1.32693840785
-0.700984551194
0.511638318976
-1.03372341879
-0.373989234393
0.237610590569
0.0637524957732
0.0742610105849
0.000780757427106
-0.201804609151
-0.223566343067
-0.635050313635
-0.0131825755481
-0.714480474965
0.900672729422
-0.426024740831
0.911980177552
0.814466213235
-0.380624292987
-0.479475216098
-0.925394010162
-0.425596577303
0.420417679632
0.242610060286
0.138082948934
-0.265138769258
-0.227239032289
-0.491150240883
-0.279604279067
-0.15299189932
-0.276131512949
1.09850136374
-0.252483876288
-0.826833210257
-0.38688204205
-0.879968949565
0.764086979834
0.199970746442
0.61831729192
-0.283234492653
0.638572799786
0.709752907583
-0.109943096539
-0.195076597277
-0.141846762515
-0.0920362991464
0.941136197577
0.120977457748
0.33420918067
0.658797275873
-0.284300232678
-0.439213151757
1.0209831439
-0.471636301125
-0.419806200299
-0.689082371616
-0.521495688811
-1.3171946252
0.0539559897034
0.760395591118
0.176612912292
-0.765606303644
0.850782795544
0.623391811948
-0.285278388388
-0.240447959743
-0.2214281461
0.25143397295
-0.900589827605
-0.0437776195121
-0.0373046417707
0.370694507403
0.225910031541
0.521756290723
0.359438020244
0.0198407075976
0.482732559278
0.796965636422
-1.0290995775
0.373944197019
0.0153305363992
-0.3463064985
0.599345278296
0.433115759824
-0.739632296836
-0.950923750556
-0.11264830966
-0.0645579371126
-0.847231726881
0.778235672281
0.390813866465
-0.0972538861994
-0.177455084421
-0.510778350734
-0.387608856136
0.123021012387
0.50186738761
-0.437272937907
1.31498150601
-0.40595234562
0.349537561338
-0.342553919775
-0.381847584346
0.735951431439
1.03694145916
-0.270353941119
0.038628014988
0.486115305628
-0.968992945284
0.777735173928
-0.214190160842
0.364916533101
0.815333936078
0.0124567351158
0.0756247952076
-0.463276354609
-0.557626209539
0.0138600969528
0.263007405795
-0.176848197671
0.433248011925
-0.111230534125
0.0160781775498
-1.10249998868
-0.473540879219
-0.847513556586
-0.65655614241
0.749728685979
0.0685470816134
-0.851897870862
-0.453658857329
-0.291358407021
-0.0227520509773
-0.0283718063406
-0.320211682392
0.384467122087
0.502299353968
-0.515418968809
0.146851953076
0.356608010026
-0.1267661529
0.186324174268
0.28512335479
0.631866389218
0.0564542484929
0.0563994526115
-0.0367106500735
-0.11529953624
0.0813717206038
0.397574110327
-0.141642145844
0.432604436659
0.0735089805577
-0.00211891871569
-0.321625168972
0.437543887425
0.39673995814
0.459910807331
-0.0963048137998
-0.981751438731
0.213217060978
-0.0495505957926
0.288440631847
0.234334814237
-0.0370657101223
-0.231463041315
-1.1334400582
-0.490352756798
0.217784400051
0.430547119971
0.77885305263
-0.421332368962
-0.876047019392
-0.845208300399
0.0661193312908
0.8636482013
-0.27320476583
-0.217240144417
-0.316300416708
-0.0493528184388
0.230391813583
0.699743399883
0.559889432457
0.857561818966
0.285251886093
-0.829959431257
-0.00836084086655
0.289635908007
0.71515156691
-0.355948705245
-0.823300658602
-0.0364065931133
0.551659162815
0.585474931954
0.401389448409
-0.522584259177
-0.060782327794
0.0622149318414
0.242274407859
-0.779710831646
0.324135519046
-0.566532121642
-0.310369235992
-0.581948988416
-0.0554569657908
-0.49698991321
-0.300686456452
0.713033561022
0.300356552253
0.0916533178978
-0.0647266629508
0.26142766467
-0.272330839649
-0.136324608702
0.788131432668
-0.245793861813
-0.304681736632
0.261605441759
0.475002893133
-0.304900812821
0.0516648997074
0.194747911422
-0.202476481752
-0.0205423154102
0.138611400339
0.209376943946
-0.0136042826932
0.820863832931
0.124650885606
0.0328139324759
0.333799748353
0.0975124765689
-0.306410809325
-0.45030362919
-0.54922940063
0.508181547617
0.0902585745536
-0.645384439748
0.723048439784
-0.479317236901
1.67036179334
0.234111148222
-0.0662727947291
-0.722324933293
0.326476633279
-0.0947538203374
0.634279426342
-0.458311648187
-0.201668843986
0.750136843115
0.426722962673
1.31590216158
-0.0677624022378
0.139906824793
-0.475436849847
0.0354996076381
0.0331267370616
-0.179891277899
-0.476874817131
-1.08434815442
-0.610351418491
-0.0522229883738
0.407408963801
1.06509763792
-0.532435699913
-0.262663073652
0.477274837025
0.41846829269
-0.165562243236
0.563635397678
-0.235885290481
-0.495714109758
0.155282821874
-0.0319204355071
-0.208670197165
-0.151457666666
0.727083944552
0.29230210475
0.355229934871
0.384112020418
-0.0472102781987
-0.460018040673
-0.490195629128
0.136817726535
0.375737822499
0.0249199553753
0.839950555811
0.558607455626
0.555026442293
-0.925248223884
0.762354105199
0.239048446908
0.618252243809
-0.0397124339282
0.167946702049
0.812602818629
0.217163674702
0.580259703034
0.121059907254
-0.280790719718
0.164044208997
-0.124166054728
-0.6110321892
-0.155902606012
0.103403939939
0.618499663665
0.209985425365
0.159126125921
-0.276289747406
-0.804202175046
0.00795376300241
-0.392083685656
0.124377530989
0.550328974528
0.282812828812
-0.403307183018
-0.144924632692
-0.0898975133236
0.0115625286661
0.00341052493434
-0.21458850599
0.646260236586
0.0747108452379
0.743296885949
0.505756311171
0.0673012626956
0.497508386736
-0.214056422471
0.33033670901
0.084171167003
0.252915346629
0.178074753885
0.700818826798
0.122907508506
-0.0399614313845
-0.248381172689
-0.789228136117
0.844803278569
-0.384172622862
1.38314861371
0.797465361632
0.988848966817
-0.437875863218
-0.553835682802
0.295489979559
0.253135758826
-0.133154111088
-0.924209006925
-0.523883417514
0.0503218363956
-0.326760304629
0.534978385171
0.0448851623629
0.139061175483
-0.162795436254
1.40457861023
-0.0491589683626
-0.234949637896
-0.380559416554
-0.991835733141
0.368149486513
0.340440913035
-0.509424149352
0.32795483268
-0.440571200234
-0.790967259337
0.147349966374
-0.251734289617
-0.543677800853
0.460768504215
-0.843969201436
-0.303535326413
-0.84888203498
0.318590247659
0.670146084901
-0.577480640216
0.68865161521
0.167255410673
-0.129754600398
0.645029953585
0.346248026754
0.379643875186
0.657138399776
-1.07089320137
0.0179676349101
-0.153424167906
-0.683290737153
1.62935120229
-0.610612982522
-0.235732773919
-0.426161536043
-0.183385050637
0.703695988741
-0.638346932559
-0.097245307055
0.526620884614
-0.152371429509
0.944744452002
1.04627228266
0.764998811394
0.240201152509
-0.138108457344
-0.259768032888
-0.628858710253
-0.753245953786
-0.672321554161
-0.678247501027
-0.0526102584601
0.458534090268
0.299289000466
-0.707063195327
-0.457019201589
-0.268582480371
0.943651903628
-0.164793243419
-0.401776366855
0.676184680383
0.738732509388
0.15407344602
0.420509172175
-0.195352168434
-0.951938627387
-0.864713923264
0.205946494539
-0.325243040505
-0.681970117125
0.120910556117
0.0234033336464
-0.339068617207
-0.100490353839
0.672693267291
0.261995532831
0.0161409502156
0.593565404537
1.36092083472
0.650919112292
-0.234937888568
0.235767740015
-0.68600034506
0.0309643381126
0.384394790931
-0.713251999031
-0.204372472799
-0.578882208085
-0.0939608987282
-0.412588639631
-0.166023733732
0.34981537497
0.437656052536
0.0541300853634
0.294918721044
0.823836238007
-1.13743571236
-0.00186337484713
0.225539975852
-0.753189552829
-0.380768588881
0.0226559368723
0.49526001502
0.119432095781
-0.521221764484
-1.19785941001
0.0953718136011
0.0110708120727
-0.228980291125
0.570642262281
-0.277621876892
0.0832537690481
0.615943411589
-0.445002247983
-0.499819274834
0.200106745747
0.0428237072897
0.31753727135
-0.474929891969
0.271880688419
-0.15973515519
0.498248438036
0.398335056425
0.275489396688
0.62190757058
-0.105502566312
-0.717323513233
-0.19245669415
1.06263171954
-0.921859034564
0.399409438889
-0.0732192965215
0.0440281760771
0.473571028379
-0.183600854756
-0.19190036175
0.724177826211
0.000359449448572
-0.212780759527
0.377258705755
0.0368235490438
-0.484182463415
-0.123870564019
-1.11923872888
-0.276270374315
0.511934891796
0.562618659523
0.00347544024129
-1.29713266874
0.0168159296105
-0.903924148533
-0.237332792267
-0.949601916213
1.07339846152
-0.00157413865453
0.0548376738507
-0.599824129944
-0.526987788074
0.0407747146911
0.0158467269768
0.0765026028985
-0.117553801961
0.795741692325
0.0136142229069
0.183161622901
0.201024833192
-0.00502892565726
-0.104796899729
0.222530046102
-0.549396812343
-0.890379903736
0.233620210388
-0.945763364544
-0.303726732473
-0.314601362775
-0.30605421166
0.117998091928
-0.575069716291
0.762914174622
0.393774482589
-0.781536875884
1.32719066503
-0.83935503492
0.53591426827
0.316659226524
0.414181268364
0.467929442567
0.319439328985
0.0817136424647
-0.592870336239
0.180383615793
-0.302923425437
-0.375845067646
0.324216958562
-0.0828010893499
0.664757350073
0.974107551451
-0.442739730509
0.663880287552
-0.107711674428
-0.348860321638
0.456590312428
-0.0544592675587
0.0606717243827
0.256651333804
0.000599747478678
-0.303292753558
-0.274155433474
0.524598684838
0.0816754399898
-0.569737185557
-0.655260145985
0.671566632486
-0.30737004561
0.19975134973
-0.423637554054
0.0107558087562
0.169768701838
0.207378387701
-0.317050710124
-1.37908929731
0.196901708166
-0.840653112443
-0.484835072201
0.217639466927
-0.243191783966
-0.733685439195
-0.877461798386
0.362785667628
0.654192943729
-0.139794705555
0.436338703316
0.35098535654
0.190759526321
-0.0916097529925
0.581754622761
-0.0182854375134
0.520036471171
0.763534286089
-0.648960155923
-0.521793121248
-0.0861102818881
-0.928192290244
-0.285986510442
-0.0773923478999
1.2167844099
0.0268055980437
-0.336270693633
-0.0987191655974
0.383566744394
-0.230921530952
0.276461605726
-0.694111509468
-0.835941541097
0.0131958312905
-0.144068972731
0.571516039018
0.609257415266
0.822124614338
0.285130278562
0.701579072633
-0.0689773178754
-0.500038436672
-0.213376909102
-0.511960243061
0.893879078517
0.855758141268
-0.258638652874
-0.663792317223
0.0889014543735
-0.715141816526
0.000492426728698
0.325052932228
0.0669047881359
-0.373968880076
0.496560263865
0.0838196104466
-0.446183898044
-0.59594428902
0.62198628269
0.833712973421
0.079719604357
-0.87365476743
-0.439129734381
0.558497399339
0.527725333415
1.03421584458
0.13934024424
-0.309847519304
-1.4016901938
0.807299915776
0.502605994522
-0.888042228854
-0.172215342294
-0.501542683057
-0.541036201839
-0.210888371521
-1.14170408883
0.750454653896
0.101152442785
-0.26149165937
0.611134693882
-1.68101471293
-0.0267056970183
-0.538330872231
-0.0748066739483
-0.1394224266
0.181814057909
-0.479859834117
-0.291806836053
0.318348484692
0.342747553545
-0.207723975625
-0.278147113898
0.181840502293
-0.203124118974
1.01593073233
0.256368821895
0.0840187336011
-0.538080199259
-0.61891369207
1.10469763531
0.40307297372
-0.610643999101
0.433879640673
-0.0569975105587
-0.0260713510846
-0.317294956094
0.0377811450974
0.565103484665
-0.0666665822491
-0.497992132283
-0.910526880653
-0.322350135457
-0.542495731853
0.108157923062
-0.142438553215
0.0936385930634
-0.717195153698
0.162885046913
-0.0704034096416
-0.0909602790279
0.661595179857
0.360512155519
-0.300001871252
-0.0636045580294
0.437637174314
-0.260659027595
0.296834738868
-0.0722855390503
-0.45493434105
-0.0661501848298
1.21551242335
-0.0556791092029
-0.268630119348
1.50973404406
-0.117535550652
-0.218021672112
0.915056679416
-0.235550202661
-0.526329216497
0.0922092280197
-0.0247738660771
-0.0812742577286
-0.271723938153
-0.231808555788
-0.376586513137
-0.699708783818
0.188277819978
-0.653333687499
0.927091163094
0.52305755362
0.607819869656
-0.539525692151
-0.225425704101
-0.231884687776
0.381722873748
-0.637210047977
0.106636114305
0.507459621156
-0.357479107875
-0.168641913388
0.339169023518
0.0864075245405
-0.530878205072
-0.408180641534
-0.366143978263
0.478126034057
1.72893276709
-0.763819982704
-0.651723508646
-0.481453743075
-0.279753346496
-0.309629986944
0.61102776953
0.450725120377
0.0301750063787
0.147102393389
0.0300189346122
-0.32267023196
0.12028472901
0.466529851425
1.11580529235
0.0572585116089
-0.256960992704
-0.349268009627
-0.0520082379777
0.148711629001
0.00594901928931
0.233658216008
-0.606916346166
-0.182107627083
0.25518075089
0.688444170487
-0.0667836616739
-0.665046848174
-1.08247933439
0.709758477298
-0.48784808285
-0.217858264433
-1.26325879776
0.598162803436
-0.802216423743
0.784572409525
0.38074695256
-0.647471631647
-0.651967418466
0.46011358657
-0.000868092393982
0.0805959727466
-0.697069467774
0.804131198374
-0.0284917419702
-0.102050692438
0.377284594556
0.0247683249193
0.643135270356
-1.11921694561
0.270492643736
0.341969722836
0.0836724151328
0.850278843833
0.0370457490915
0.401450474718
-0.526208920937
0.148875848224
-0.42936106558
-0.475438295578
0.902658432109
0.324082130428
1.02372316212
1.04821339749
-0.544141792389
0.0882442201982
-0.169262022887
-0.113092540452
0.270152933413
-1.03795876105
0.951897320649
-0.310494656158
0.573175938458
-0.602014757244
-0.300363727796
-0.32398167841
-0.0776844333769
0.231078473568
-0.465025170451
0.000934380168859
0.221772879049
-0.0163326608807
0.127931944241
-0.207639222903
-0.630931182299
-1.53728027407
-0.299600497102
-0.736300148435
0.0711259634262
-0.101759023095
0.66091643098
-0.231349979698
0.0143348335363
0.282810843067
0.0687516166819
-0.19151104262
-0.358741250497
-0.00175794212295
0.0671010968012
-0.510437555619
0.889170164735
-0.553926809177
0.168686762969
-0.316524289438
0.73860031605
-0.222615960783
0.11127696848
-0.75575072542
0.644805585427
-0.393496444354
0.591728341841
0.570930840013
-0.0123324551092
-0.00511647632843
0.270248031746
0.543723340974
0.5346971664
-0.113898648977
-0.495849600833
-0.126408947281
-0.753044078106
-0.0848127872342
0.0784260274648
-0.647591037116
1.21115633975
-0.352409479744
-0.447627613167
0.387803283299
-0.547745379026
0.0316647485665
0.13452855866
-0.394763054691
-1.04125134761
-0.370887662238
-0.779217027062
1.40379539548
0.133329365482
-0.195271330656
0.214573572897
0.702276172847
0.669763062309
-0.915863648935
-0.242737404336
0.120072304801
0.745004983497
0.502848457311
0.0884355376688
0.904098645884
-0.332885650451
-0.608919607605
0.306836230377
0.653160680594
0.491024853638
-0.597361851469
-0.290828123669
0.779415027673
0.0931643871088
0.143082542611
-0.604067747516
-0.166064077364
0.606360789799
0.258391444893
0.477547364124
0.424847849367
-1.03440684904
-0.228288811931
-0.0559358000455
0.154059042804
-0.572045577699
0.262277583562
0.315417288918
0.371097014324
-0.0385513301866
-0.323078611125
-0.412401126749
0.213728270608
-0.268246013128
0.380734874078
0.194895491548
-0.583818547246
0.538723504623
0.376427381236
-0.0709478532152
0.576203070059
0.862090524944
-0.0420590953119
0.058943422371
0.0649404185255
-0.0436017969937
0.402120178951
0.25733010802
-0.215512838792
0.324536049787
0.113849318149
0.498385254781
0.502918885552
0.28019612995
0.255853067685
0.0956082834448
0.331602895327
-1.03460395866
-0.730780409996
-1.11662033606
-0.770917494877
-0.41542075102
-0.27749567363
-0.506394808539
1.13770558587
0.928583871621
-0.216630941998
0.376508290601
0.523194994711
0.511286422467
1.11015648263
0.179858492881
0.181562867761
0.598721177171
-0.42415476397
0.663777990349
0.126789352518
-1.48673268584
1.04005916313
-0.19105501656
-0.75877550409
-0.100007211781
0.5167914857
-0.221521222074
-0.147352903767
-0.330455192062
0.775107280211
1.23908599721
-0.349779058848
0.0646933169114
0.291283708638
0.216257542417
0.136332046195
-0.549919843807
-0.448050868381
-0.222094435916
-0.318741483164
0.254547342759
-0.773615617099
0.149731933671
-0.963725760682
0.47797316504
-1.14490383394
-0.523186087796
-0.443677781846
0.116171928207
-0.381690388636
0.956008437411
-1.01492580616
0.474460823024
0.236063759992
0.175793407052
0.0964468661037
0.180715658316
0.189568090176
-0.0111971270919
-0.38646799249
-0.220035698021
-0.151265930465
1.43263066046
0.760806108339
0.18208604636
-0.464690463131
-0.247413838083
-0.31971289489
1.15400406106
-0.170567719889
-0.561740398773
-0.198275066502
-0.0915529270977
0.509191193909
0.327206538729
-0.338802584672
-0.0653646248458
-0.114563792776
0.0362738729469
0.181937112674
0.309065560681
-0.267029428128
0.561876586506
0.569528269343
-0.315978317113
0.413819744619
-0.698910889969
0.101130122758
-0.392164779957
-0.207601622436
0.952986352217
0.321910000277
-0.11253603555
0.621631055754
0.6428887064
0.656653054683
-0.702633573839
0.89993337229
1.08629680704
-0.288604465469
0.785258578411
-0.585989989855
0.372704229689
-0.0356309009445
-0.769847555533
-0.633315885992
-1.80686954536
-0.613665352702
0.77182365735
-0.406784586799
-0.404931886447
0.696084663082
-0.155112122149
-0.54475590394
0.406181011303
-0.0991031231676
-0.00406342357565
1.10485671908
1.14937048422
-0.128560511457
-1.31148660871
-0.466743923162
-0.6150607131
-0.056526838609
-0.123069175663
0.7326372439
0.496058658143
-0.117334705277
0.0575727295595
-0.679599893401
-1.01491937404
0.203775501614
-0.115053075713
-0.0561277148735
0.420713846025
-0.30508947548
-0.404537054302
-0.411561915564
0.523973469296
-1.2331183661
-0.0617394822699
0.195535291308
-0.380764678786
0.265534517581
-0.361948591375
0.0968554446224
0.0287329134239
-0.233105496537
-0.124096242778
0.000706685177915
-0.114729045657
-0.29284379884
-0.191426734689
0.225626560589
0.33499127734
0.529989864102
-0.131469364176
0.313448583571
0.145007504651
0.283120502434
0.105502484396
1.00461777326
0.255676243128
0.0056116754256
0.216674073503
0.131785860946
-0.634022388177
0.430310641925
0.322334523599
0.00065095492722
-0.206702149957
0.0987858921857
-0.751034544535
0.611063714907
-0.137375793118
-0.0563595541466
-0.686283347674
0.280478987308
-0.301092937122
-1.1344453626
0.082537681247
-0.486879231151
-0.785350148819
-0.280174703141
-0.114347256436
-0.169474804364
-0.347328108453
-0.157140674405
-0.225740534969
-0.452740164592
0.109370704715
-0.0790631728631
0.169143575169
-0.211309671858
0.0613535831154
-0.502270752294
0.180596747351
0.101772023707
-0.357637257037
0.317815188806
0.165458976721
-0.129005604084
-0.901006823802
1.09550488807
-0.419305509777
0.6693098406
0.294506169557
-0.797643285695
1.20164202595
0.837656595926
0.738287174448
-0.509893840127
-0.63078853867
-0.7690092711
-0.739350754937
1.21285176952
0.339765555765
-0.866863519357
-0.504097771191
1.39127699199
-0.0268647733025
0.381875353258
0.546127888112
-0.00921987208977
0.227147690223
-0.351983004948
0.225796591779
0.182617801721
0.152763394937
-0.460991350175
0.0592648740303
-0.577691403948
0.694733414971
1.09591750996
0.209563026223
-0.2219994538
0.0917813616184
0.545525521039
-0.529887312481
0.623071532341
-0.0734184544831
0.524580579549
-0.495549393087
-0.673883801264
-0.230566953269
0.0588802144571
-0.52836232616
0.0583830240842
-0.916282787907
-0.101011656015
-0.893364324129
-0.119718177883
-0.201954806504
0.0635344397804
0.393132225131
-0.0749267315584
0.970514602543
0.0856633135094
-0.275010480339
0.784090240579
0.0560059745015
1.2607405637
0.0512216619677
0.260124538089
0.107295728639
0.133523866186
-0.673165006081
-0.248527075063
0.81109745953
-0.0352603297524
-0.701233156609
-0.286601421332
-0.84504071549
-0.438781351257
0.716462216931
0.104534165131
-0.895377817127
0.196083104464
0.294659943728
-0.241288364141
0.524414182123
-0.357696549595
-0.25509461996
-0.362990750907
-0.841560603499
0.589299573549
-0.236220692581
-0.135639227416
0.151162359649
0.447763055776
-0.647981872386
0.330795174869
1.28498574982
0.911331263972
0.0674783815813
0.296183217653
-0.583067142348
0.0926276998487
0.106242980295
-0.420066679479
0.102903654226
-0.591034244152
0.0247545744303
0.777498812905
0.691366264078
0.137224619116
-0.459565808354
0.376140334827
-0.968252033319
0.654914051365
-0.264935109572
-0.268629707702
0.710179519676
0.22036007366
-0.36062695207
-0.404844653421
-0.365886880281
-0.456339575488
-0.698503495776
0.0546796191227
0.0619009220819
0.0170615118719
0.303510237916
-0.278901092876
0.102182770036
-0.639462496105
-0.769962547625
0.730685535073
0.131516055434
0.0054028444412
0.790444830486
-0.40652508919
0.0420046154598
1.04127373572
-0.547279490894
0.275619676522
-0.0378772708315
-1.32887683237
-0.224310236263
0.592621745996
-0.0100637506452
-0.178049679439
0.111166000913
1.37772985105
-0.947990567727
0.764526224795
-0.610499171718
-0.42677224689
-0.898558471396
-0.953611957424
-0.647078571646
-0.183225674335
0.643841534774
-0.609915909715
-0.604459876486
-0.792021805128
0.553809071877
-0.209304529108
0.561507746324
-0.990489851473
0.535438483125
-0.559318260883
-0.749549755912
0.110713151993
-0.37025822543
-0.127495614371
-0.845047775403
-0.248902063139
0.572096664837
0.840090797131
0.844592090902
0.0233527716654
-0.475289024922
0.646180176328
0.141980806393
0.466825564683
0.0878493792875
0.249251777902
0.0830557930845
-0.795146757108
0.374624094054
-0.152200088641
0.178965610093
0.615938562162
-0.230442624007
-0.307614488872
0.427251346891
0.864931748601
0.218485066349
-0.388990836127
-0.188944546588
-0.676252249125
-0.191058040277
0.559433472418
-0.334883787253
-0.437774085063
-0.395823121861
0.918229319737
0.199692565122
0.0168695317189
0.590450830845
0.0688923101408
0.10410712147
-0.830302467949
0.703374338583
0.932522218379
-0.363840959005
0.211675669975
0.0962069758923
-0.0112836185699
0.339548488151
0.334120700239
-0.632942269379
0.511059683492
-0.055438381135
-0.295839498885
-0.405997554222
0.379055895007
0.27634459825
0.347323862844
0.101438431309
0.604267506151
-0.301695017493
0.491397731787
-1.17991540966
0.235333915762
-0.441501917535
0.0854382998814
0.0218660714111
0.409268374463
-0.025835759049
-0.929750268439
-0.308636620706
0.083162246663
0.246053227116
-0.560500632772
0.00195097193859
0.411622667402
0.154510250998
-0.712630570977
-0.352360700546
0.0582396080123
0.374996966232
-0.189412581098
0.190403691848
-0.419886978846
-0.0337503505954
-0.235785819919
-0.584966938211
-0.191824246256
-0.0990678339887
-0.277339047228
-0.364775543562
-1.00650182878
-1.06098926125
0.339049853799
0.508838693315
-0.489655027702
0.702070922046
-0.300941739065
0.702330071898
0.00877900217933
-1.76982462485
-0.491245512782
-0.338357676514
0.122065297008
0.349682531488
-0.35741116903
-0.023324733269
0.563701333483
0.954381190642
-0.108134882607
-0.0491166981778
0.306073326676
-0.902290336921
-0.738111596962
1.08986998617
0.0754455949197
0.0248606874384
-0.827340393665
0.138537218079
-0.678939112027
0.455223578174
0.372703818946
-0.233464431416
-0.418469839083
0.0410089103546
0.245260038974
0.408338738633
-0.475781802559
1.28469315779
0.265104190376
0.0294275406548
-0.73606129912
-0.708512000477
-0.166663370657
0.696597380278
-0.542409384891
-0.615081179549
-0.754227472853
0.103904756387
-0.449477187694
0.0537380453712
-0.209318913822
0.95051515847
-0.110411111314
-0.404487262983
0.252185404036
0.582623375955
0.790413975511
-0.40329539041
0.844011376876
0.378574279703
-0.186695282536
0.400249964329
-0.345701764763
0.814572249068
-0.401668969138
0.595532712066
-0.541928237249
-0.136155395046
0.743408476549
-0.131848208684
0.205004931328
0.63585141512
0.145016408563
0.459930046963
0.00449913785518
-0.246505858165
-0.407594210417
0.0278695169739
-0.373724557585
-0.902828299137
0.0369076071552
-0.661370519196
-0.784879044855
0.547672426872
-0.704228063833
-0.0244451770815
-0.220765379703
-0.8083912891
-0.892041347358
0.795300086646
-0.389166228923
0.569153578024
-0.467242079495
-0.789841914488
-0.32233178995
-0.239742385581
-0.27146205055
-0.00249572520325
-0.18373513836
0.496980022529
0.0743828541538
0.152904259763
-0.349512994635
0.211873298606
-0.394973560282
1.11249205343
0.256539500136
-0.0369235749387
-0.209260965108
0.889048515826
-0.180067413589
0.369198353389
1.88853836808
-0.365467437244
-0.768607177096
-0.256140583837
0.259206317618
0.485492790082
-0.727583654003
0.234176197107
-0.49768633875
0.938000818629
-0.398827359338
-0.0926344333691
-0.616347826297
-0.00413749477477
0.184024052081
-0.452362521214
-0.134550313365
0.0572638212943
0.178619777187
-1.23862779042
0.480846018604
0.587926884605
0.36860755166
-0.168176817585
-0.133543663257
-0.169984291116
0.4896755297
0.628298946326
-0.350510998631
0.334232322471
0.194436074215
-0.0210568877075
-0.262101297933
-0.446906940734
-0.134704753894
0.357989516823
-0.633520537482
0.292369381179
0.295138932485
-0.00190113536423
0.350053899207
-0.176932188872
0.33936081003
0.370852190668
0.0314698039867
0.226724456765
0.104381283815
-0.946144309655
-0.45026011774
-0.361108978333
-1.26492972764
-0.514184957136
-0.184432369966
-0.211835943456
-0.255274145197
-0.226544273509
0.319102722242
-0.483766704608
-0.714351531861
-1.00457283953
-0.516414535994
-0.24869980615
-0.798225501009
1.08544553799
0.681452312917
0.183260236774
0.0160497927933
-0.528193078742
-0.0286349223023
-0.668020696146
0.0835484050232
-0.118605768337
0.4235986539
0.159082932418
0.861168350607
0.910170878446
-0.708529234993
0.673705468632
-1.30229514339
-0.266813708352
-0.423856564036
0.325725955821
-0.980644516835
0.196896425019
-0.37172698534
-0.532842794974
0.509323800513
0.250465914454
-0.112849636466
-0.330262298445
-0.712124678324
-0.29496264764
-1.02151652356
-0.0179033299756
-1.25432459091
0.728427452499
0.650883939773
0.133816925383
0.0177403984627
-0.635440288019
0.392237852554
-0.892832610994
0.553100686033
0.893814878371
-0.402428573163
-0.759942443714
-1.12509931449
0.663431156749
-0.0236878377235
-0.498272316559
0.134989566132
0.147720627586
0.479905431505
-0.21070937539
0.392126832409
-0.784258653181
0.194175160527
-0.8725317754
0.00234361862493
0.371031062838
0.555956253851
0.0548791813649
0.448208632277
0.17813183994
0.294366474372
-1.48736863594
-1.41688782868
0.719586727685
0.336964895294
0.206197511271
0.627314063038
0.0330412250277
0.0101297408722
-0.915388813261
0.2034914494
-0.400621031969
0.0287774173476
0.171030433191
-0.227214200451
0.355353275008
0.224499055671
-0.780807660996
-0.0798118287089
0.880699168373
0.570528006931
0.798124538624
-0.00258848257121
0.15324271801
0.19926055108
-1.29999034455
-0.117687573821
-0.242604396425
0.276322373144
-0.823984491175
0.0117692234219
1.66685410992
0.126895743078
-0.337325619449
0.838419096154
0.135216090193
0.683609241003
-0.202771725813
-0.774151351372
0.928351573078
0.608032270433
-0.685087377212
0.108500568774
0.51220284502
-0.140263139801
-0.74465372454
-0.254427484098
0.120189372775
-0.0745754852541
-0.453413579594
-0.443771449212
0.207377431808
0.343934486066
0.100567467557
0.279629039385
-0.296870546047
0.752816211211
0.170599359844
0.724589711771
-0.394177905798
-0.531324709261
-0.739162471239
0.306465372903
-0.548001304785
0.337842187224
-0.1855125616
-0.330816676813
-0.455110472805
0.000966351945626
-0.654195634282
1.16476097524
0.163279177642
1.7022394939
-0.510358306043
0.395533425597
0.426298229641
-0.22499451984
-0.196171136636
-0.459089549877
-0.336393410083
-0.491211220562
-0.162847719425
-0.0987396222426
1.28780615669
-0.528544259689
0.290411589686
0.637853606395
-0.435832929789
1.12941836417
0.657450027994
-0.169522875787
-0.106632718637
-0.352851422571
0.889213518004
0.54747852658
-0.313472493948
-0.365776804194
-0.655825186202
0.747708843225
0.381889542773
0.160653884906
0.447276941947
-0.162555355869
-0.126850649445
-0.499229119144
1.39894015917
-0.331397675616
0.384050057276
0.092898190807
-0.386791617346
-0.614331945771
0.0288432333109
-0.171793306576
0.746076705741
-0.440448810316
0.27849382939
0.362401405792
-0.555021435373
-0.0727114200281
0.455842001
-0.0662269017109
-0.370709436113
1.03034155133
-0.00228627017506
0.285663260332
0.534026965082
0.214738063289
1.32358117696
-0.101000220409
0.55627461683
0.134122515364
-0.0675910532489
1.24130338337
-0.261742272029
-0.413543034198
1.0637030823
-0.208550891866
0.783782051782
-0.152701261162
0.0664357762218
-0.709552387414
0.37357992822
0.329134671152
0.295721668446
-1.16462839978
0.469164245084
0.0311506826386
0.539233493157
0.796073924048
0.246980528993
0.0243643476342
0.290154175218
0.186371361607
-0.94512102088
-1.28974761935
-0.0581356219297
-1.12753283113
0.242114959501
-0.284969136627
0.882579762892
-0.524917364633
-0.232770177562
0.052659494662
0.538212706087
-0.0578178981944
-0.692502154782
-0.822178395206
-0.799274143191
0.525069770581
-0.608309646688
-0.437734558736
0.212925397096
1.43753401532
0.14193880365
0.206620349833
0.495494964304
0.275999009034
0.178201496266
-0.301375420629
0.00356019320582
0.660848894126
-0.102867731234
-0.0558836062078
-0.495150037481
-1.02880373685
0.478167323176
-1.03740281627
-0.0373887242569
0.558641017745
-0.00683223339563
0.0790006585519
0.200227079256
-1.01116517942
-0.514737026522
0.201619858202
-0.159922132733
0.017574140872
-0.907666929836
0.67802033817
-0.456208248176
-0.0668387848238
0.380349519584
0.184433177716
-0.396408291699
-0.452007271409
-0.115176570498
-0.97135332889
-0.946327027324
-0.175623450115
0.284026306911
0.309958191333
0.135384595105
-0.383987354813
-0.0579408264033
0.544695454565
0.665195001764
0.17200899474
-0.0332867640768
0.221654533126
-0.43256132157
-0.342415327129
-0.368843729449
0.421403225292
0.533179428825
-0.222096424438
0.308825859976
0.618508210844
0.0616092035322
0.571646844425
-0.456190031368
0.222228080539
-0.628800597112
-0.383699339103
0.367642583136
-0.00614787395385
-0.244862837777
-0.164321078461
0.697813084613
0.0356849830966
0.0437482825534
-1.22413133188
0.676328242317
0.662878466992
-1.08635979756
-1.15509809223
-0.122988880209
-0.0655747365739
-0.149501624547
-0.211101766275
0.37597346738
0.227901124585
0.549500194132
-0.0547182876838
-0.229944445283
-0.73229067657
-0.340177034629
0.0412868078065
-0.144794085891
0.353138249334
-0.331589975363
-0.271816380562
-0.154804680626
-0.0365622478559
1.18588398365
1.05123090478
-0.136069767269
0.937789564708
0.939703179152
0.273034965851
0.105096843515
-0.287511319679
0.324352606968
-0.875898164583
0.720080728429
0.343463291563
-0.18575384088
0.618462756256
0.148618276011
0.326322245418
0.344553187717
0.0531876234234
-0.0431381829473
0.286626627828
-0.284723688607
0.52210077581
-0.416850114395
-0.0467582953852
-0.366599744409
-0.00941636836436
0.08782671649
-0.16296899774
0.642424407127
1.13863013806
0.142983116071
-0.215356699861
0.148337387488
0.042984766112
-0.114956076238
-0.43549223221
-0.385098517332
0.370169095991
0.659622217846
1.22726555843
0.343316368712
-0.177306158854
-0.974576498632
-0.848936029919
0.80645787394
0.16539314606
0.478475864699
0.0320924051953
-0.580015712711
-0.453531015661
-0.843720779999
-1.0229061506
-0.366616037424
-0.138243181575
-0.361835942099
-0.239895890157
-0.185369765664
0.569949739123
-0.0149131798498
0.754782311834
0.641467866637
1.4140096142
-0.554275164936
-0.0498719489134
-0.819373931261
-0.506810134744
0.00276447976391
-0.578445098485
0.136778541009
0.0461582497133
0.741947025281
0.00199230191856
0.112718340088
0.0957285342925
0.596080839856
-0.23334132417
-0.313727995129
0.444996343948
0.342946241851
0.0155235707419
0.0910271987231
-0.262399474934
0.564616575224
0.0405778063121
-0.249449657401
-0.452879434628
0.356145161957
0.138022446145
-0.812464813591
-0.993888313856
-1.1070991918
-0.213453806028
0.788157337272
0.643008353329
-0.896799325981
-0.337202400143
0.100875544531
0.398119520117
0.101102651996
-0.296848943931
-0.0857802699936
0.678232546224
0.536487235318
-0.16467434107
-0.645083753703
0.651405572599
-0.339993764919
0.111013648095
-2.082444578
-0.759913364097
0.174222252393
0.314468651037
0.0796955492925
-0.108637117025
-0.34392926203
-0.0566024897099
0.578940830137
0.127833572652
-0.178593654513
-0.08639024526
0.644386301431
0.331504903062
-0.357845755025
0.482454527912
0.0180980074409
-0.361921661069
-0.343164472332
-0.170256437157
0.156421772799
-0.343659694676
-1.29035708459
-0.104582236261
-0.0439956562664
0.759991686074
0.210931910643
0.483809385485
-0.00585507811656
-0.724689684866
-0.371736481769
-0.0626129187777
0.538185659169
-0.170786943934
-0.11364958117
-0.795028336274
-0.620950382369
0.3321534428
1.00636402645
0.725337431761
0.904384140854
0.16957808371
-0.353288564539
0.948522419899
-0.518412800802
0.166275797987
-0.489851234183
1.03876461354
-0.106315126889
0.164054807107
-0.118849428421
-0.462310148558
-0.371297228722
-0.223316534597
0.685955832335
-0.0796605847337
-0.191685662133
0.15037292236
0.453460706956
-0.463873320436
0.0947055142421
0.226593108974
-0.549710243176
-0.00986677523156
0.592605381794
0.424416372227
-1.02646237981
0.33376382104
-0.373523337315
-0.0625300123665
-0.255160108053
-0.332779762271
0.710181632951
-0.387046085124
0.646607035595
-0.3707780952
-0.237058400142
0.576870029064
0.899638288111
-0.943718813212
-0.0344906047463
0.868500318452
0.267671087856
0.93126425387
0.0312983391758
1.34973864567
0.638566971515
0.490571989461
0.315072012442
-0.0275950438608
-0.19916456292
0.171388071357
-0.645061107501
0.543492762728
0.340453831173
-0.140406530672
-0.639445145614
-0.109715321611
0.00096006110761
-0.035707482688
0.391304295586
1.3288844291
-0.445352913967
0.700328683695
-0.0922786916131
0.161491956129
0.575948235903
0.734755033977
0.261896458021
0.466291110478
-0.787332841771
0.840474431481
0.358483027646
0.710585009177
0.299056696968
-0.435263760347
-0.415164478221
0.227582614275
0.664306902143
-0.23276357804
-0.00932955171023
0.439113282158
-0.972300261325
0.310682812005
-0.301198694804
-0.582983250048
-0.0572428472617
0.0901867816316
-0.290512880078
0.551413099103
0.907246203471
0.739274760824
0.0572823008211
-0.15560967389
0.258227197615
-0.00476590189772
0.415231310863
-0.352020214304
-1.33773959856
-0.239512836591
0.986317632536
-0.255303561972
0.24096528666
-0.741558044619
0.0410559095841
1.25367373
-0.0973206358488
0.76163221839
-0.284006298761
0.596161902639
0.353532387064
0.272761209741
1.22667218932
-0.422291468392
0.169964982129
0.980140548697
-0.970748139587
0.482908617766
-0.330698801763
0.639418809982
0.312548601289
0.28378829468
-0.592351851115
0.156016369258
-0.383575635324
0.396420825851
-0.481469384594
0.39408689742
0.08022425191
-0.989215618158
1.20655521412
0.277711090143
-0.742117560952
-0.306628173914
-0.735389751207
-0.0506369504033
-0.732322529989
0.236992500881
-0.0156581385122
-0.20929722723
-0.18895030134
0.153281476469
-0.348465409255
1.12303570991
0.246361818513
0.0256467391211
0.392896513155
0.156115582424
-0.162760494832
1.14393078555
0.335295321165
0.0535142323855
1.10608905377
-0.724192382967
0.519789911428
0.0269722654618
0.751045897747
0.584902469459
-0.273474030317
-0.0711588953468
0.051242673688
0.277787853788
-0.0295710475647
0.633212641902
-0.603933041434
-0.210826021889
0.252460130606
0.0185106912347
-0.022311563131
0.443723650141
0.187472179395
0.351880018648
-0.103718223621
-0.840038491136
-0.21056031722
0.0386259272937
-0.16401054808
0.000842959260493
0.82141939849
-0.120437525482
0.126998563963
0.430005892536
-0.0606321361624
-0.350010059874
0.140356228919
-0.154111556162
-1.0642357276
0.470724866586
-0.131714055121
0.949013375851
0.25970803785
0.764285336242
0.593613699135
0.72658562809
0.218784274139
0.274357900024
0.547997256341
-0.0428875149352
-0.375455189272
-0.324015289297
-0.198934009851
-1.44447894256
0.325596288093
-1.26833334844
0.561637731595
-1.54443971148
0.0736266322428
0.568032216909
0.296501853454
-0.107011602394
0.198907424057
-0.141018286075
-0.266323543214
0.784717763102
-0.385618495205
-0.199778066612
0.215993734909
0.786215689508
0.568879102215
-0.782371288678
-0.832805808041
-0.222494764251
1.21082799228
-0.223063852027
0.181660360367
-0.168652547524
0.604811621439
0.190133555454
-0.433104894581
-0.0494162405415
0.130071897564
-0.557970515117
-0.861356276295
0.256215768086
0.441494850209
-0.410362809843
0.446732371425
0.238359991228
0.123868914174
0.434774654421
-0.731134275878
-0.153011178822
0.136757559204
0.753362826471
-0.848100905737
