0.83948889004
0.769868849696
0.0948987860582
1.64156185134
0.00124052532
-0.20758089359
-2.37518829769
-0.593774455963
0.684205295806
1.71847474659
-1.71531116781
0.714779766317
-0.466421229777
-0.680307994868
-1.66997119105
0.701133653
-1.70075089103
1.027064458
-0.203504079315
0.0471010250639
1.0249045229
0.827074168061
0.944989856004
0.369672519398
-1.3903395312
-1.60621102539
-0.589852850357
-0.822032341904
1.13944203218
1.3423563283
1.21211335801
-0.987430976036
-1.18588075908
-1.08233221799
0.479972256056
0.705712623711
1.31195468976
-0.662970487623
0.313071821753
-2.13398622437
-1.37342326869
-0.0568534019723
0.260263712416
0.740255179613
-1.36234547534
-0.56474524434
1.26616533196
-1.57719380406
-0.686930642811
0.921237190105
-0.0111100297487
0.10824384756
-0.524912118183
0.752340375942
0.493288082922
1.87113161368
-0.920201267794
1.21530363276
0.685643564534
-0.793552586349
0.293558437077
-0.716516305782
1.70932777232
0.724520857134
-0.157391026946
-0.873253201852
-0.313228430463
-0.96818838823
0.400842491935
1.01769748577
0.251933896591
-0.0045564409941
-0.746226347221
0.237416845659
0.32833219895
0.260183110701
-0.181299568807
-0.904598092861
-0.518816427726
-1.55198533985
-0.161744392734
0.82103227643
0.430241824155
1.52539214517
-0.976727820924
-0.473195076637
-0.439309441393
-0.632313026015
-0.125055509893
0.332029994101
0.525958177184
0.780219381703
0.734334599739
-0.919170882401
-0.313903831366
-0.160657530208
1.23832618668
0.72034029706
-1.03820892974
-1.25766202034
2.3310644252
0.220418833754
0.254000494071
2.08921834521
-0.176982552295
-0.403545207542
-0.83609378775
-1.22298632613
-0.566801619051
-1.47357497919
-0.404889863917
0.133365869263
-0.462099701316
-0.863947252277
0.691669717832
-1.63409293206
-0.208900970195
-0.46932943624
0.960738065375
-0.00163498626298
-0.714242451561
-0.907713972702
1.43277688209
0.168292120017
2.18260443978
1.27258573572
-2.11064539568
0.0247212466114
-0.127039525257
0.949127521496
0.347480632293
-0.163689058048
-1.89374776837
-0.345816030026
-1.43621331347
2.06713770667
0.353731680717
-0.786803678107
-0.14588222631
-1.16058376303
0.613810936176
-2.35283584547
0.589506419528
-1.49693499455
1.13586437144
-0.148775187819
-0.616918362692
-0.938634622274
1.56732968501
0.0321968789158
-0.0442587961728
-0.895021377264
-0.56254109052
-0.857853112901
0.805185607008
-2.44084703986
-0.900786366106
0.255210355365
0.917937630867
-0.0181239753075
1.14027568707
0.640209479387
0.495211014906
-0.96076540452
-0.427821312243
-0.0358335477388
-0.575057972259
-0.47705998528
0.134474905489
0.397337190056
-2.19740766372
0.0605194464848
0.0550176467298
1.26370712076
0.814490975031
0.280612773348
1.20223945667
-0.49911528383
-0.0381578846319
0.141130524292
1.10578147262
-0.00863151250122
-0.621699510788
0.348012928925
-0.466206527472
0.722537297841
-0.0157001722834
0.800881186225
1.92535260856
-0.52557745449
0.383066291745
-1.10728089833
0.168362298848
0.557911881995
0.655343048539
-0.471060400184
0.275965417788
0.891922326842
-1.48980847047
0.716131909687
0.984313396808
0.0133859817114
-0.821762597823
1.15723025897
0.52067879842
-1.04335027357
-1.13356643722
-1.81011977531
0.310189912095
-1.42427473507
-0.43761960866
-0.509846066406
1.03804148455
0.773273845113
-0.962217035129
-0.239398590326
-2.90607890557
1.26492548724
-1.21468563231
0.949511020488
0.856801537222
-0.177612250085
0.515244307073
-0.420893622063
-0.504120313364
-0.886722293064
0.174519577258
0.216803151407
-0.772643940528
2.01905366296
1.27994433503
0.352032918188
0.464455454998
-0.0729592528146
-0.201273280781
-0.138567848061
-0.348899568101
0.0394366573272
-0.73920113117
-0.247278686032
0.539188205571
-0.156488115408
-0.208772390652
-0.357861097386
-0.910739526743
0.718766176339
-0.53106634128
-1.18699841474
-0.440164898513
-0.77200130807
0.256118464989
1.13715070808
1.06925453091
0.722745792945
0.0510428116036
0.813090825648
0.348747707885
-0.674289390597
0.50871187413
-0.544956168876
-0.453454134638
-0.128307952938
-0.957526212578
0.522175840781
-0.507372838356
1.13816035911
0.575451119716
1.82520395355
-0.22892989095
-0.612968192166
-0.0597927571433
-1.10739876638
-0.464468487
-0.301259998762
0.135582562043
-1.01115042386
0.434107741864
0.823224039177
-0.516632509964
0.267382180939
-2.33391175012
2.3339099173
0.0086894625809
-0.392984783482
0.158742748731
-1.05871892354
1.55777476021
-1.16487236407
-0.872549405942
1.28475818626
-1.41300937922
0.545931732608
-2.14939744878
1.74652750379
-0.260534968885
-0.191009816109
1.6764111289
-0.263149741674
-1.5499684734
0.0941553000936
-0.195125757386
-0.145303425657
0.44862964993
-0.555711436766
0.0808608820192
0.0663401732166
-0.402583621922
0.035466504704
-0.707028047187
-1.06141856416
1.23340309856
-0.957809768663
-0.273013972815
-0.295406174208
0.856978292387
0.158846985787
-0.702842185145
0.607107684026
1.32815345571
-1.28573750728
-0.469921802664
-1.1114928562
0.670783865315
2.33121802806
0.552847484763
-1.16426063168
0.502699096739
-0.0647870389317
0.987372732605
-0.257637202604
-0.342500245826
-0.404681378061
0.563194111485
-0.485001144602
-0.819757850321
0.442534371727
-0.998989031234
-0.268906188575
0.415166261808
0.899609738549
0.302031301403
0.145387416949
-1.08110811819
-0.1301161858
-0.015614071678
0.019441605472
1.71448796504
-0.455753873782
0.402125921197
2.99093257124
-1.39856262619
0.719720255759
-1.06409974217
-0.201307452622
2.18929350663
0.897197624212
-1.46986852323
-0.0791144557453
1.40199406703
0.754634345903
-0.600924483897
-0.560458330151
-0.323942365207
1.67708086601
0.78603195304
-1.48511807044
0.225790363587
-0.740581543831
-0.282742815546
0.123145813077
-1.03382908702
0.320020669438
-0.313328508714
0.470483935536
0.930688095677
0.881072428027
1.04368572588
0.420320769798
1.15243599689
-0.906989930863
-0.298426836063
0.74353504289
-0.0200131896031
-0.0876990682827
0.843610823362
-0.291198116785
-1.1573599309
0.69711758287
0.924273416157
-0.293070565087
-2.04372804959
0.26126192174
-0.269003613245
0.349381556265
0.958947940935
1.96386107039
-0.804994761006
-1.48690589076
-0.500484095362
-1.21132724046
-1.30858597534
1.79585080825
1.16152149193
-0.255136966439
0.842761017419
-0.929216974198
-0.35745910868
0.940173231665
-0.784282981796
-0.549158483857
-1.12648328237
0.141728402695
-1.53956106339
1.24421398522
2.24163966953
0.501932027999
0.967540263488
0.551777470509
1.52794723666
0.969867845762
0.588261774938
-0.174302357572
-0.536473497413
0.198271086266
0.598193214504
1.08708591661
-0.151927579416
0.600226135281
-0.403335828038
-0.51123922062
1.76444699109
0.310562495622
-0.562928395238
-0.0594121388973
0.454579035057
1.05791979569
-0.12480672747
-0.538886377677
0.427762316535
-0.2596284852
-0.738379003207
-0.317158015516
0.518707123583
0.379658123417
0.536988190294
1.18296779775
0.861280301925
-2.23289909755
-1.14733581592
-1.31045624644
0.153326555621
-0.59963514182
0.00817832513032
-0.271758454876
0.21423043773
3.78705463713
-0.663856062992
1.35757456209
-1.20943795716
0.2893225431
-0.215232118156
-0.322900607878
0.0825853698388
-0.634572061015
0.531620025259
0.916578265072
-1.48013372768
1.42014575945
-0.934127513617
0.941647084372
0.716213830991
0.240494995459
0.554497781045
-1.75416281978
-0.202925821589
0.178135859756
-0.913190773675
0.610194544748
0.0856489246265
-2.5859599651
0.641865737199
-1.44339462572
0.254934278964
-1.04306597497
-1.37188455972
0.441661154775
0.229600656933
1.78626695208
-0.453315678045
-1.5099583665
-0.777157541624
0.965154128478
0.10097001172
-0.230014868223
-0.00856957474257
0.16166270551
-0.763976132096
0.0632447534344
0.258261444509
-0.170576349652
-0.599821178828
0.931304438643
0.194782881494
0.529356503129
-2.11066959386
-0.589944330272
0.316460909566
0.149570432727
-0.128896763154
-0.376855625327
-1.20779998693
2.80916247949
-0.601095575915
0.684713385055
0.258453466358
0.667392027031
1.32373984337
0.182561212182
-0.0755985045214
-0.885918518378
1.1969935406
1.50265818995
0.823127770439
-1.13142219174
1.55368667326
1.21826681935
0.143918016917
-1.85961840467
-0.0747194242796
-0.364348496192
-0.564626766706
0.428911537695
0.327027011498
-1.27229383365
1.97384518535
-2.94254130901
0.305489914993
-0.220917670217
-0.65311475321
-0.608131590336
0.00594134895502
1.41027551424
-0.776743139209
-0.910040296959
0.852637290563
-0.238339282249
-1.40883039726
-0.697331029581
1.49476053323
-0.11019214237
-0.659030041192
1.03896953734
0.085134654631
0.100921255012
-0.0168238662066
1.3384251089
-0.133023483468
-1.19764688018
0.311867843811
-0.789721081227
1.25355815439
-0.0761712415011
-0.197581869409
1.83976605356
0.404275298409
1.74594082894
0.112472433258
-0.0372080586046
-0.989271723442
0.412725068725
1.35566987378
-2.98011531804
-2.24898516885
0.564278594515
0.063780682693
2.57448205127
-2.38655604394
0.580986993994
0.798980218892
1.08415847335
-0.380016448052
0.206281501623
-0.742226260651
-0.44389123878
-0.0654197385126
-0.90963167621
-2.2584917458
-1.33351927905
0.966108886367
0.469772230379
0.0797004865951
0.625256220383
0.375383039667
0.0617762139906
0.334714653572
-0.314808059802
0.571917391418
1.00511564386
-0.244250145977
-0.365531595537
-0.625324268625
-0.710749942421
0.511408122488
-1.16011335125
1.56805853051
-0.470186773658
0.795662911943
0.14662944623
-0.0223858480086
-0.496971808427
-1.63919645835
-0.040977065863
1.52362029669
0.371994867906
0.901019303388
0.519161386473
-0.390186672432
2.27897709086
-0.755558075301
0.639148318394
1.2315926669
-0.0722972778932
0.989585648114
-0.893658711215
0.359919633968
-0.919488728657
-0.534574803905
0.76656883866
-1.8772993915
1.51863283724
0.88125897654
-0.846116042557
-1.54731538029
0.269267547499
0.694613391994
0.962501971003
1.69587299942
0.721612403629
0.567167598768
0.188362846969
-1.33514725044
-0.869905613663
0.533671337268
-0.335407501594
1.27373581741
-0.17575890542
1.88294073202
-0.00216967838649
-1.36598975077
0.89061808988
-2.26608336347
-1.05948158784
-1.0891350631
1.32700260884
-0.0296373349498
-0.788143216369
-0.987061066249
-2.10805690813
1.14627650539
-0.749701606398
-0.195934265705
0.152015904358
-2.45082632069
-0.118582428611
0.68730490595
0.641923445168
1.09565666288
-0.0346450847817
0.797943822155
0.172801203929
0.504651264818
-0.769116529633
1.04380376071
-1.99903060575
-0.252937075651
-0.00609726809773
-1.0175298929
-0.0170951333216
0.00861230302414
-0.261721124383
0.199642341675
-0.366137278233
-1.32769234018
0.304620929768
0.387681337228
-0.820110319112
-1.52046261054
-1.61944838168
0.472352049699
1.33370146284
0.0641805269144
-0.769450315889
-0.517744786432
-0.154878722763
-0.0169626218931
2.1961080276
-1.63350164687
-0.0234883337605
0.0464858772544
0.386721045615
0.643625760718
-1.69064710135
-0.529347266621
-0.423366923225
0.588125990934
-1.08974443
0.416987937529
-0.981846236743
-0.471435591794
-0.354931418529
0.343522264675
0.523390819455
0.178624923707
0.187038102856
-1.20084342979
-1.19591702466
-0.388894383084
-0.112476212675
0.577099757092
0.823388966609
0.207819242347
-1.33455028866
-1.04449965837
1.67000837433
0.445793336884
1.33507341622
0.568578537318
-1.27026104958
-0.956683033403
-0.240772247502
2.06382679645
-2.19181637995
-0.134931579945
-1.06107713178
-2.25949018144
-0.145199516042
0.175562416369
0.130415155296
-0.519188823547
1.05609263727
0.198759639143
-1.19597929466
-0.177846353268
-0.570078431224
1.15544965149
-1.0244678325
0.959619585119
-0.641322924701
-1.38410711023
-0.341736985638
-0.558512341904
-0.647080604065
0.103642781191
0.931993561924
1.49214437319
0.793771510358
-3.05607731563
0.580559120901
-0.12101085767
-1.45497775906
1.13326298755
-0.780718974501
-0.0437076491504
-0.0192048962587
0.0528126902508
-0.685152782915
1.25795488344
-1.86823355825
-0.724908351709
-0.165691245144
-0.570837416071
0.211035737117
0.859235214437
0.564266631671
-0.214148963053
0.348554877729
-0.725723568392
-0.0117574170055
-1.53430495874
1.52196789973
0.486051349703
1.34769317737
0.215824270338
1.80679537323
-0.818064637895
-0.0490619805519
-1.36512589187
0.0722846984189
-0.625135520391
1.60452590849
0.8905821323
0.241366064762
-0.557733117705
-0.156424670348
-0.125032517726
2.08630435026
0.74535584192
-0.350731050709
-1.00241637545
0.224489670039
-0.725223982814
-1.28180204386
-0.0778072198289
-0.0620501528731
-1.59531502677
1.16732300957
0.255357465367
-1.83526313503
-0.581298724546
-0.157344517006
-0.932541495785
2.0848063174
2.42184084843
-1.0254986036
-0.317857964299
-0.268257288917
0.869592084136
0.245808199271
0.0281921895998
0.963390269519
0.267807231331
1.16283457904
-1.49625343203
-1.66859417805
-0.483382658471
0.13680796645
0.106828949825
0.499144447888
0.905918856521
-1.22600432726
-0.425848263136
-0.226581231337
-1.73014535873
-0.500534993896
1.02302421499
0.450273306895
0.190840981662
0.94799141402
0.459284062472
1.87515166684
0.385189743266
-1.00983500488
-0.156748557836
1.91116735928
0.443079323165
-0.204231452068
-1.85128641193
-0.106317956922
-1.99466842324
-0.197750646892
-0.125331726133
-0.411296241608
0.965798960849
-0.879796518889
-0.681163170495
1.00792390904
0.623251335779
-0.40250943255
-0.534327031124
0.193992900498
-0.369539937099
-0.716452369537
1.52962861879
-0.256469126263
1.98108177097
1.87518765092
0.602962352924
-0.529089470378
-0.327219964607
0.18172118406
-1.43032716382
-0.116376431497
0.790933808171
1.41824878249
0.168682698385
0.820054484106
0.247829846058
0.704684398368
-0.124426560958
-0.655332838262
-0.843627067856
0.761576418547
-1.62301801454
0.470711236324
-1.87143578112
0.479009651447
1.02852896202
0.918036900665
-0.705869526594
-0.513852221795
0.359523538315
0.348704372816
-2.53259604854
1.22352326643
0.24896484585
1.14212728677
0.624794108617
0.636179107615
0.364977842969
1.09530489041
-0.387946535403
0.326697185717
0.524302797512
-0.0139672572845
-0.322231117348
0.687664126299
0.163649742375
1.45579154829
1.88943160687
-0.897496092569
0.643690892494
-0.0167404429736
-1.51595240005
1.55797319874
0.193575760147
-0.810566356854
-1.44652860566
-1.59615972244
-1.43973873485
-2.07511072713
-1.08827599886
1.00586451361
0.0865162023221
0.36006166922
-0.851761292647
-1.34382106933
-0.401312101462
-0.266448901818
0.174373337744
-1.89377313292
-0.920951354637
0.210344764843
0.0455800076611
1.13578010124
0.154331622111
0.183387788203
-0.166744686819
0.410352240974
1.23027779347
0.539208501462
-1.45775359773
0.348975601066
0.495060922997
1.36366723218
1.05993645748
-1.4778937801
0.095232683395
1.58982923315
-0.522849483549
-1.39558866798
0.954825839419
0.677425503261
0.491367818509
1.39472359246
0.715257582545
-0.231358699539
0.147808705063
-0.192450999494
-2.26260079485
0.0425676407752
-0.903190278542
-0.225690440039
0.35206989039
0.318105553388
-1.0981110445
2.39121024244
-0.793805237609
1.33805659733
-0.329535781396
1.14489298812
-0.50322422897
0.354970020555
0.0648836693669
0.342759343761
-0.689180759281
-1.2871217212
1.32119050407
-0.981438048779
-0.916888924743
0.0212416805314
0.744843083089
-0.931269260583
-0.215091583557
1.06682325046
0.999362345235
0.702214160456
-0.229768237663
-0.300696646603
1.05185807152
0.155157825376
0.574921550475
-0.0607961152427
-1.25314794317
-1.12198680021
-0.420991752117
0.639731011621
-0.378100730916
-1.05650330299
0.585341937858
0.776655004065
1.42766860986
0.249041322893
0.0486592464879
2.12492759969
1.31241385037
-0.435689007517
1.69428524711
-0.0533262020649
-2.45322582997
-0.879754428751
-2.35736647187
-1.30790128072
-0.131340975433
-0.541009125606
0.0625777556258
0.628728332832
0.266616274898
-0.166486293451
0.744568894008
-0.664621315146
-0.517182872007
-1.92236982333
0.605367775141
-1.25130838753
0.743693871576
0.235132304179
-1.06761876006
1.15325291879
-1.29912723
0.655473177012
0.633674794382
1.19190433444
-0.475917540516
1.0086423513
0.22225132574
0.664695542616
0.242573623646
1.05004166199
1.80425509236
0.841529649307
1.04153896538
-0.356310689201
-0.581402146757
-0.752517363009
0.850501718718
0.552364336892
0.61407476661
-1.20340121046
-0.0484691629799
-0.940406279617
1.08598356591
-0.52724696011
0.810198246376
-0.268231114581
0.620319882707
-0.902208384403
-0.286864321033
-1.41576384059
-0.498775162337
0.301206715516
2.18280468438
0.588237141235
-0.858002952057
-0.695897362052
-1.39369340236
0.779153156853
-0.445289524384
1.12820960697
0.547313608677
-1.00385958477
-0.190859464561
2.4060501997
0.574587763317
-1.7511116881
-0.586680089919
0.592352370965
0.635719766357
0.407998526912
-1.54615076731
-0.14575993598
0.430307453683
-1.45303668341
-0.975965222035
-0.713086657762
0.599082383686
1.816881381
-2.16718944296
-0.597871736873
-0.77703097104
0.944310962061
-0.264179995368
0.240645575581
1.36279296162
-0.19176655336
1.3983412054
-1.29472458896
-0.430906937678
-0.416161635216
-0.401163100806
0.681705982918
0.379513300674
-0.429944304005
0.715914890868
-0.711906150904
-0.47761510922
-0.672045985006
-0.214723492377
0.0254573153049
1.09995728304
-0.302197282639
-1.01426200893
0.140063343466
-0.283470408783
0.0487232525597
-0.352805537916
1.00335254907
0.345116860262
0.967628024985
-1.98855456342
-0.0899597140704
0.392477406118
0.609695439867
0.440972670541
0.468582917178
0.649102490657
1.95080981015
-1.66768828649
0.672993488432
-0.916685017283
1.22217820261
-0.511148621277
-1.13791968182
-0.174105991701
1.77510492691
-0.303256317434
0.120224517342
-1.54750889242
-0.0523401055218
-1.46162681637
0.306152311631
0.370182908232
0.0592105662307
-0.592578072575
0.352836790632
-0.21715300179
0.0836329244907
0.938902515666
1.11794950155
-0.303088049774
-1.30856611017
-0.937894025807
-0.0218632193191
-1.20922005538
-0.879742523541
-0.159606141467
0.407038976131
-0.086645717242
1.08920247869
-1.76284163623
-1.66925485323
-1.01657071042
-0.238039435369
0.677036243339
-0.655341288633
-0.169361343502
1.40658510517
-0.219862182762
1.38920956629
-0.326640652206
-1.40924827643
1.34856570922
0.833948754235
-0.613080279663
1.19165751194
0.599600556705
-1.52254561396
0.572353133382
1.48129308485
-1.16947092584
1.11681144221
-0.913718440382
-0.995325386121
0.233344126568
0.867957724523
-1.91052780406
0.763840020153
1.57733251839
0.959489997022
-0.723862459866
0.455009662204
0.0984171320024
-0.751682264427
-1.58957156414
0.161081524564
-0.96819615591
0.397577178219
-0.682634970107
0.236901830956
1.37408812915
-0.19447854043
0.0903145280158
-1.15397389122
0.450355189513
0.713684465777
1.1879249922
-1.03910353161
0.367523355675
1.37154910355
-0.235715738245
-0.94989319719
0.597197927237
-0.151134259
-0.949376531022
0.556640797751
-0.168184609486
0.933995199362
0.46657476626
1.24330431366
0.164951080706
2.28640639993
1.82193514805
-0.452687642058
-0.32560749803
-0.143526005058
1.37467564314
0.116150032778
-0.236257185137
0.485889274897
0.0880710993037
-1.18429438893
0.173353755448
-0.571146809438
-0.453039304863
-1.60125470013
0.595896117962
0.821344598907
-0.398367669413
0.135809995477
-2.05604573697
-0.586566432414
-1.8539566556
0.370735914839
-0.957835506649
-0.407028464908
-1.14376353382
-1.97294695686
0.272548253191
1.44173448107
-0.466814466078
0.102881524327
-0.245692770175
0.705607239362
-0.680749028123
0.40307804812
-0.0108930614553
-0.492142266255
1.61549325567
0.399709447226
-1.34159493298
1.64456445147
0.376209276049
0.37342684936
0.987383280732
-1.5253261612
-0.736343225895
-1.01555253989
-1.46854731749
-1.34786849561
0.286684371004
1.00270086877
1.36646873467
1.05922712708
-0.463332523419
-0.317372110889
0.126696454541
-1.61099404458
-0.0410492667812
-0.055343012298
-0.366520151723
1.30228869507
-2.26801975008
0.723329948189
-0.0114515862023
0.807924504493
0.617314621802
-0.132749561823
-0.51829824576
-0.608377990181
1.20738111948
0.226164334965
0.954492610218
0.511046092923
0.281905592127
0.932258676596
0.0439986145204
-0.713089243525
-0.0659029430387
-0.0400748328325
0.765993416486
0.704563486654
-0.564782011215
0.891778867686
0.430781512283
-1.41477616512
-1.22550139501
-1.33752835511
-0.280329069354
-0.714330527046
0.980795707144
-2.19632185902
1.18528591947
1.24951355404
-1.81498856872
2.20758789525
-0.375665209833
-1.12758498135
0.179236727325
0.281541356402
1.18203926185
0.379841233936
1.51750095267
0.270607909533
0.282477813895
0.970828444924
0.899829647997
-0.405853695959
-0.821184013861
-1.20805964948
-0.558670130824
-0.437698228005
-1.01513927754
0.332679555025
0.463274015992
0.291144691918
-0.618907712513
0.455099372702
-0.621873712079
2.09220780808
0.619573858135
-0.248169522727
-0.829466271507
-0.663382671387
-0.186972451971
0.38124681066
-0.92302402356
0.796887955142
-0.0888874298916
-0.800400276997
-2.69034438596
0.821119290125
-0.853526744345
-1.4346435625
-1.31391330942
0.419500414752
0.264604093406
-0.3161346519
1.15619731043
-0.630388332891
0.572894489689
0.547815804585
-0.186057978319
-1.67875412182
-0.695861591542
-0.759553813736
-1.70811337648
0.770721585833
-0.875581696901
0.02556441263
-0.552159828401
-0.871955797978
-1.0603773376
-0.595259102623
1.57772016923
-0.93362010717
2.7268894169
-1.06839908167
-1.81962557444
0.484033824938
-0.434812643047
0.404875831283
1.33139592871
-0.348993405047
0.845657546375
-1.62662601628
0.644894815816
0.65800931598
0.277527283668
0.484175323561
-0.747626022735
0.180850732135
-0.837893473452
-0.898864579762
-0.824931883263
0.564327273313
-1.04553864228
-0.715179154563
0.219200494023
-0.0791433609418
3.17042385935
-1.42209074566
0.338703894125
0.460422689513
-3.50632679322
-1.42071682941
-0.964996497527
0.961845471325
0.532746165771
-0.242851898265
0.198637341597
-1.8993814962
-0.937345052452
-0.499247676457
-0.660534936426
0.826605607044
0.604500489025
-0.543331562048
0.534430597266
-1.63940007725
-1.08895120379
-0.449758749543
-0.344732186718
0.0838273694403
0.244081258937
0.271779461673
-0.76036227035
-0.779238623045
0.769223412342
-0.740868235149
0.273535466398
0.29678382628
1.26724568995
-0.0724617574803
1.33806479779
0.557340935322
-1.06440334147
0.995388757081
-1.99624005739
0.987339707429
1.45324638422
-0.100062423768
-1.41687064781
-1.35474771125
0.279516896644
-0.612740869687
-0.606156215064
-0.930606318764
0.460746485473
1.19305822832
-0.172113698511
-0.996811909172
1.20430569996
0.720769989986
-0.406334995228
-0.0305074004963
0.0932506701367
-3.1232162299
-0.322030913026
-0.45012892489
1.41073273212
1.8804103283
1.29374013496
0.538085006151
0.131562451735
0.04686625373
-1.52752852746
2.34663969218
1.75107601482
-0.992384166517
-1.23797457679
-0.115650781054
0.434361348461
-0.0399555313161
1.31319675092
-0.410936448331
0.177875203322
0.477149985665
0.467324559255
1.07925411895
-0.746174702294
1.15860699575
0.548444224686
0.640921913698
0.339221917078
-0.816516172313
0.418393717744
-1.04021278871
0.960675246477
0.0191752105331
0.354757907625
1.02739924429
-0.627842803733
-1.10691813757
0.20720735365
0.369360105087
-0.145883655162
0.276664468898
-0.341527367757
-1.11368905418
1.22792641146
1.58266378837
1.63888923386
-1.50075024204
-0.592523549266
-0.577296597044
0.765796023775
1.28943264283
-0.10811283348
0.371316824943
0.253459143845
-0.482911446417
2.55074062505
0.460859230672
1.01918695789
-1.40271719346
1.04345785968
-0.354261496562
1.46155554489
-0.595052956119
-0.704537201166
0.778090937852
-0.394351918814
0.081571707084
1.39104547677
-2.13801359656
-0.557165278703
-0.383468127979
0.876196469613
-0.241756467778
-0.0319602661024
0.758555931179
0.437527294631
-1.70938788882
0.379291704154
0.000487502827941
-0.470992079256
-0.223036829986
-2.06018039273
1.37416363637
0.0924597445417
0.419963763415
0.138183618647
-0.230685722568
0.244269742326
-1.36674372103
-1.50652542773
-0.126220177118
0.216172488096
-1.63461520249
1.96934915389
-1.04072205673
-1.23128865246
-0.991293939191
0.407976194037
-0.19026715974
-0.175655525043
-0.251652377207
-0.00761360657183
-0.417638880408
-0.711561178556
-0.849641152927
0.0231110266288
0.31444483999
-1.29562127368
-1.15928335988
0.769036735969
-0.626002135693
-0.00891903101552
-1.03312789392
-0.877542473276
1.67493363343
0.0918123110302
0.0983402217456
0.731226996798
0.104573542198
0.782189568242
-0.0578908468365
1.05921827878
-1.29495947229
1.6942255966
-0.32342215031
-0.34651313637
-0.187962569655
0.201837360019
-1.18240173742
-0.600802295476
0.783722002509
-0.423413782026
1.42343022799
0.613546569012
-0.0499707229304
-1.02478575507
0.251083671117
2.01072898445
1.47850965804
1.3248675313
-2.4646673045
0.242801620624
0.496966732633
1.57247558117
0.0992928862974
-0.0980487919649
-1.01317092346
1.58151673363
0.122642604405
0.850179246294
-0.249616577671
0.00694898815508
1.21561058025
-1.03259841023
1.41537203362
0.59941889897
-1.04285119499
0.645930537201
-1.24625307946
0.605793734453
0.598713820481
0.856535988095
0.172456269984
1.89247942424
-0.833257821351
0.56774119821
1.09005481684
-1.69164911271
-0.388731503349
2.42819892963
0.0894695761551
0.829767040973
-0.0365279605977
0.552862422289
-0.622991091105
-0.1260903483
-1.94357694422
-1.11661224395
0.955003950126
-0.341355274542
0.867887165157
-0.634599214278
-0.0154863177075
-0.799165234347
0.164837015521
-0.685306902957
1.53220559664
0.175402215794
0.490055799871
0.740535541425
0.122622900106
0.631133887609
-0.0741020652263
0.859091266232
0.0924520292917
0.470221891885
1.01613316217
0.0987906779169
-1.77268471915
0.542928361244
-0.134813172007
-1.25110316122
0.700632600623
-0.307786649713
-0.539216424963
2.19298565759
0.138522322574
0.850115056417
-0.049709305349
-1.00140878839
-0.909890560071
-0.34860702134
-0.351376019593
0.879530957509
0.225394422926
-1.44431764891
-0.854106183938
-0.355505429021
-0.62847136638
0.239010236723
0.70091341203
-0.0278218994248
0.158722721244
-0.111696011656
-1.13863036043
0.469328066529
-0.0244669232037
0.838663952137
0.437678951468
-1.65652247127
0.349898271578
0.701351308874
0.974183009258
1.70932853996
1.23980095963
-0.696056566968
-0.95417886816
0.0770581658325
-1.08491329415
0.122033452981
0.285337216394
0.111568314379
-0.147475695204
-1.38025459238
0.551878116433
0.962246613463
-1.17474304943
1.16352949187
0.11064276184
1.49345947021
1.18906924164
0.0969537293202
1.66715130189
-0.199477214846
-1.52125752263
-0.595790708214
-0.963925109904
-0.180244069692
1.635566852
1.12594205253
0.770408088856
-0.0113626568351
0.823468775581
-0.545678582967
0.00967635607657
-0.76652241836
0.262418919703
-0.763421922
1.09777701246
0.0885591184449
-0.657629693359
1.91355897213
-0.0613067074699
1.66038538271
-1.32639324611
0.770414042294
0.118625486365
0.303986081689
0.394926999986
-0.376790221447
-0.312429573824
-1.60673119093
0.0818586797407
-0.741673842609
-0.190948858936
0.733906756967
1.36057954749
-1.41811346679
-1.29799410993
-0.44654303787
-1.86859032066
-0.64457418105
-1.07145403709
1.07985154771
0.718876430592
-0.737405873648
1.27256867169
-0.592424825013
-1.44537553714
-0.305898354688
0.141481838292
0.807107487679
-0.00345311251583
0.418588061517
-1.12921332812
-1.62123999318
-1.77963332053
-1.20937919377
0.839139034878
-0.100619582102
-1.33501474652
0.622427608115
2.86690048542
0.158483614334
1.71383794069
0.408297210564
-0.0258145451433
-0.131370302116
-1.66816763402
-0.317050642292
0.466449487116
-0.271670435077
-0.0648292551949
0.170474315967
-0.118537024111
-0.500252172834
-0.388536881738
0.530078924187
0.871493932237
-0.0178129494728
-0.643608839404
-1.26300594708
2.27319320675
-1.02199658663
0.773632112258
-0.149648024912
0.090269654394
1.94806216362
-0.857171782093
-0.709070289436
-1.55317885873
-1.30532256877
0.257742141304
-0.34164891959
-1.93913243374
-0.0611931028973
0.286438578039
-1.09017621799
1.39225720531
-0.636416946057
-1.29602308359
-0.438702257441
0.28022951718
-0.666320260928
0.572883162868
0.45267900891
-1.23948736421
-1.01381948609
-0.568478369985
0.988895703595
0.531065250254
0.331139826477
-0.180870467994
1.66309223587
1.03586276761
0.453022812983
-0.0853445051997
0.532329344731
1.34902936919
-2.59657098016
-0.436300169743
1.06942521565
-0.322182495221
0.877102559721
0.407499108474
-0.0584331224126
0.879891909883
0.118790880572
0.825765311722
-0.23844147008
0.450613529292
-1.4080376144
-1.08036354055
-1.70169433722
0.716930193946
-0.414320432494
-0.647213095435
-0.534347234581
-0.918433115507
-0.779552818507
-0.0627855691575
-0.323112975637
0.690186557862
-1.08180174915
0.627915825944
-0.826804373405
-1.11814895092
-0.995046405155
0.949372670854
-0.659604360982
-0.69118143341
-1.04295607062
0.150443707732
-0.262660594372
-0.224934195243
-1.01990326522
-2.27164693624
-0.15905660956
0.661691615704
-0.0794731251636
-1.67976942037
-2.36860894363
0.741298023997
0.646002791055
1.47844563192
-1.07238291448
1.42881579914
-2.32010008618
-2.06744174728
1.96276605498
-0.0835357776269
-0.413593848941
-0.536918995041
1.01167903839
-0.706995815682
-0.470286667242
-0.487239135711
-0.425399853279
0.622238238197
0.571512706391
0.700584666425
1.01986800005
-1.1091316561
0.107866968829
0.526125300671
-1.56233361025
-1.51045577314
-1.42576931212
-0.628433519565
-0.793676934143
0.777349266682
0.554492066795
0.676265849197
-0.92037047926
-0.440700419808
-0.00145761558349
-0.038456510977
0.288303706919
-0.821828348784
0.857439736311
-0.770572185359
0.445084453441
0.618439745567
1.17439311639
-1.35328239299
-0.819307011416
0.93010812621
1.1942313608
0.719447652602
0.777004482149
-1.10138882925
0.106231689241
-0.0490952687107
-0.904197266719
0.793069953406
0.737416937966
0.24069836391
0.554444377688
-0.30205021721
0.336250347135
-0.457217059451
-0.216653469537
0.672141060731
-0.111596902099
-2.48034085815
-1.09699251584
-0.347379036858
0.865731235237
-0.678754110817
-0.5707762163
-0.14482249635
-2.53076437932
1.56704678791
0.846321124799
1.21893068337
-0.0254974075716
0.512687635674
-1.46089492026
0.181895630988
-0.50771670324
-0.519352280449
-0.352787076138
-0.851267285221
1.05404469862
1.44780713125
0.178344957627
-0.608529331338
-0.333643050407
0.536007761557
-0.233173990607
-0.426073533266
0.52111920364
-0.719434219053
-1.16644373373
-0.798591345992
-0.741735835202
-0.442153429886
-0.273916673772
-0.0974356798404
0.313402675428
-0.988976095243
-0.905453643441
-0.263047346883
0.0804681783133
0.0732723877615
0.356645309809
0.623920957569
-0.0011680549181
-0.971107968472
-0.168395869317
0.124571868994
1.37601468907
1.35337327637
0.372653279248
1.8345621299
-0.115809415835
1.46116712913
-2.47787439738
-0.637623777866
1.85415668551
1.99616098696
-0.592949312487
1.77955724697
-2.12748633822
0.224876402911
0.655551891506
1.53085796776
-1.66232564322
-0.978976450366
1.61184702509
0.0626452875514
0.0477941697893
-0.693645045401
1.00904147481
-0.984428753688
-0.645306150036
0.262914965817
-0.0359797013083
-0.197714032886
0.243894298087
0.240349393276
0.484674374692
-0.813229701101
0.149519046684
0.532939895395
-0.221984800155
-1.95734691256
0.353557395414
1.58562486512
1.57085555445
-0.37949277361
0.88507535826
-0.974907099104
-1.69427820107
-0.542003349898
1.04204665148
1.01466242118
3.15361345279
-0.304814285121
0.806390139197
0.252924561571
0.837019633409
-1.27030349631
0.942668844609
-0.227505511086
-0.353174391225
-0.199329634609
0.745808206884
1.72019750439
0.252577038182
0.451597775656
-1.4527237006
0.447765842549
-1.34829510643
-0.851968345098
-0.479035829842
-0.456322641258
0.0367559257081
0.542704670344
0.70679340447
-0.0682668178596
0.484734702547
-0.102171606504
1.22663431614
0.448741130314
-0.428262052207
0.260444917742
-1.09932467235
0.263751654328
-1.30213707518
-1.16847972836
-1.25445315784
1.05691179225
-0.522998958741
-0.826739084785
0.0173296298485
-1.12587761807
1.05116231158
-0.983362262642
0.574124799378
0.268043187988
-0.52998196844
-0.194224066204
0.329806738463
-0.98073681974
-0.829148666228
-0.0986722200319
-0.66197591702
-0.379132577164
-0.173489497296
-0.414841050567
-0.644724529581
-0.37241158631
0.0792006927414
-0.282042025664
-0.360680146767
0.0286398040938
-0.441590420492
0.343817609096
-0.877276559967
-0.673231924245
-0.410056015396
0.692487060278
-0.715854941689
1.84715437896
-0.546497942831
-0.34330939907
-0.641650782416
0.126944618241
0.0253664100132
-0.0697863099431
-0.814267649429
0.0290481867862
-0.736784937396
-0.914607583497
0.068175291038
2.38735073302
1.48163316488
-0.199900603933
0.455012498147
-0.00501527109061
-1.0210493649
-0.41564869983
0.0280712248009
-1.39298724016
-1.8437125802
-0.555518114943
-1.06773558785
0.898102463285
0.0238922310095
-0.732388764344
0.847482130609
0.862802330824
-0.0678783693208
0.256737211896
-0.937481662573
1.88722518386
0.864228837868
0.352923931054
-0.183678390284
-1.07050837193
0.0118480892776
-0.744220461122
0.0634251899808
0.125245675092
0.635383286981
1.89249356096
-1.08377211928
0.30603622116
-0.996040550751
-0.483362331518
0.337275878162
-0.869534403837
0.358869212098
0.675227511146
1.03273501828
-1.1272386084
0.739213492262
-0.0569280749984
-1.94943945509
0.855307353146
-0.19143191077
-1.28205429917
1.37554397178
-0.391093257768
1.38884910305
-2.27678802982
0.619748233186
0.670841064779
-0.405829933005
2.01248876235
-0.0403286473003
1.23079170885
-0.632405094614
1.31774050667
0.277592445212
1.08507847265
0.693814032548
-0.4948765056
1.20549783688
1.53815567637
0.133549739169
0.732177157102
-1.31623669013
0.00357233624988
1.11985042096
0.243494339069
1.44386405486
-0.277039351967
0.589256424759
-1.24469878226
0.629320256606
2.41369359552
-1.22356407632
-0.454682592294
1.38437458289
0.882904596211
-1.23444294046
2.56160078893
1.31571361644
-0.795443610816
0.556844996089
0.253065230814
-2.08620692306
-0.420020960064
-0.405486224984
0.703205191565
0.790976536394
0.580326277702
-2.36557075715
1.02382710035
-0.528410400326
0.084800018806
0.279006680311
-0.908924163032
-1.2600592252
-0.535596685621
-2.3737050205
0.184479014818
0.214054349867
-1.91705830901
0.511476797591
1.25295751958
-0.612661129447
0.83588687687
0.168397419532
-1.28594482105
-1.415668512
-0.827736300161
0.158539284743
-0.408116970117
-0.730093853576
-1.43040865155
-0.562701438406
-0.165954397568
-0.548290886531
0.677566215572
-0.396863509589
-0.0559306878833
0.22133250438
0.32673617173
0.492647037139
-0.366941905634
0.354238336267
0.759709385191
-1.57941402704
-0.230638983287
0.537906323174
0.180167072593
-1.28639968724
2.61423448572
-0.556209637408
-0.75148014057
-1.16634967928
-0.0301439395589
0.167046250207
-0.292820344135
-1.20566712233
-0.294350835703
1.0641372031
-0.167594458034
0.388831649214
0.630653409541
0.470135342566
1.75399219418
-1.09146862587
-2.11885422452
-0.628377919388
1.01464772048
1.95900322054
1.9701105804
0.046709597625
2.91977405333
0.0249033706396
0.160624483441
0.771323240133
0.544656681892
-0.785471525268
0.953963653993
1.48505095448
1.16013934162
-0.308940564079
-1.06676410241
0.418496903832
0.0232711664693
-0.56994039454
0.749201852531
0.284438634403
-0.244104999671
0.636650172824
0.175623691483
0.0259499642327
0.862017168093
-0.214881946667
-0.0610762649943
-1.25244017416
-0.249247420381
0.497115424692
-1.38958635593
-0.655969085078
-0.503210165602
-0.875219465077
1.40746435474
0.460712451942
-0.0574798299203
0.572444222859
-0.698365321363
-0.141857250826
-0.129714430431
0.658356825884
-0.072242318776
-0.730497225749
1.12614897285
0.285388034252
0.621153451968
-0.225991720453
-1.07991803389
-1.07370855299
0.0339940400494
0.45910539047
0.331756492135
-0.459813717035
-1.14158370435
-0.508345402436
1.86380048612
-0.320121212813
0.149993011047
-0.53628700059
-0.0523177639747
-2.3599353631
-0.186196752904
0.070174386693
2.13537429605
-0.778015281752
-0.823001216741
-1.56208092437
-1.00300252298
-0.638226444507
1.10793371532
-0.734451790215
0.258223576849
0.767951761679
-0.866644455837
-1.84995508933
1.48524922829
-0.873629807328
-1.03777383968
-0.415414331823
-0.953762093755
-0.221283358662
-0.266091714438
-1.0708104213
-0.732443153007
-0.301295903569
-1.29888826135
1.57671096047
0.241294695016
-0.144064119762
-1.18621707507
1.04722635215
-0.275761643192
-1.03972604876
-0.0650751726989
-0.917157409721
1.67825977453
-0.300306005016
-0.998302437874
-0.181773153786
0.270134968683
-0.0180937458934
-1.60597279207
0.333756641948
-0.0478643935718
0.535911189931
-0.0349482392438
-1.26982606757
-0.608330504784
0.949996065828
0.587819390562
1.32111374657
0.285554235354
0.568167633228
-0.00595334907049
0.317836274147
0.427054475531
-0.91073823344
-0.225030493348
-0.149101981736
-0.104390596851
-0.346286099675
-2.29965602071
0.280264797128
-0.33406162988
-1.4480744595
0.778214129175
0.0461595209232
-0.0286640406321
0.737251277354
-1.94225722429
1.18979386034
-0.930122372558
-1.2213543242
-0.621994654904
-0.777333071249
1.10105997739
0.17672972365
1.34428075548
-0.145103333747
-1.33750178365
-0.157141872882
-0.741559365185
-1.64381200725
-1.82966678363
-0.00406689965502
0.373251707282
-0.844321957303
0.859319225352
0.524339810556
-0.0628117729828
0.396805186353
0.152314837114
-0.452420917948
-0.799505148389
0.592452115245
0.306257937258
-0.293949795189
-0.764161373846
0.656611122158
1.29649894208
0.0689101137782
-0.0365852713361
-1.42873017181
0.46994938871
-0.380413517959
-0.712710631323
0.379797641183
-0.260015902493
1.82291150691
-1.1630562764
-1.28790230861
-1.50642699768
1.05848228684
-0.170693310497
-0.277294736144
-1.21989956859
-0.824988626435
-0.312827264036
0.33714092572
-0.0990409893211
-0.987153486567
-0.0934480973695
0.624779236471
0.401617166983
-0.229005817749
0.33430949601
0.723720810909
-1.06486545627
0.624513385787
-0.133507923893
0.110264579531
0.292949854826
0.995738809453
0.109437024247
1.17519452363
0.688112603082
1.09049326797
-0.050881013791
-0.751014252286
-0.819419793525
-0.717486014096
1.46576227376
0.129441409301
-0.519851823256
-1.21926787759
-1.33939863439
-1.54608419118
-1.61792121962
0.0792010618161
1.00062486405
-0.869933289389
-0.563284764663
-0.399890949039
0.437401233033
-0.404801192116
-1.40227898123
-0.839544089589
0.223536589772
0.790684979923
-0.32260626136
-1.28674130771
0.522046537923
-0.357968692018
-1.02139233654
0.0639879961285
0.470750119926
1.55686966045
-0.239108720201
1.99496273628
-0.377169981801
-1.32198079539
-0.85049363594
-1.08829745638
-0.719609533108
-0.209213014092
0.98555759058
0.0728932769811
-0.564437418662
1.37970227711
0.0682747415019
-0.565652761957
0.0985945978523
1.17645971162
-0.394397398767
-0.24301537854
0.922474518082
-1.47050454902
-1.04367715386
-1.1315315138
1.58855214754
-0.514946637035
-0.393603486051
0.163007474135
-0.555193843644
-0.850722524803
-1.08361444403
1.04374564483
0.562037692702
0.440068752029
0.748465288002
-0.756482099562
1.20406317959
-1.08581427795
-0.15388647678
0.307594632521
1.21236871686
-0.404406267837
1.46544377691
-0.370003595084
-0.216388403272
-0.340886731865
-1.33184285976
-0.101284225796
0.677250217255
-0.834679951603
1.80735916749
-0.409914420462
1.15912641868
-1.10452347943
0.900753275102
-0.43089374136
0.30259399025
-0.18134467829
-0.046309223231
0.685551040675
1.08359595641
-0.277372649791
1.04881739425
-1.49800669084
0.576823610151
2.07005419087
-0.496225646424
-1.77345708244
0.17024771395
1.34358445925
1.22909388526
-2.00751671145
0.575734780713
-0.356934369837
-1.96464665614
1.33676832431
-0.0705335936796
-1.24319993889
-2.29550932565
-0.161389794834
0.174763471447
-0.401311608309
0.437923519155
-2.96008176536
0.273723226377
1.15524166667
-1.16941558542
-1.34734197225
-0.717134563439
-0.0156853937038
-1.00600285638
-0.0114375071129
-0.841556456696
-0.533308330131
-0.584571129001
-1.46583953458
1.20614324816
-0.515500798114
-1.00379851038
-0.340927266882
0.45868045809
-0.302461011253
0.500825433854
0.925207650986
-1.39077573935
-0.245966804791
0.34492046623
-0.616155582951
-1.71596994695
0.23599305136
1.70295962907
-0.264725756446
-0.601113295975
-1.03570742839
-0.536082817931
-0.154073127345
0.097962686281
0.300847459841
0.611919161716
0.306697860663
0.999307738877
1.66990995747
-0.968461241609
-1.19326127413
-0.381506246218
1.47843349688
-1.45414806431
-1.56110861652
2.41984949362
-0.858938798793
-0.157332026002
-0.900332015176
0.371264872894
1.91783707646
0.137356701276
0.776109636122
0.121873054268
-1.11597650937
-0.289327323578
1.2963805752
-1.35209056054
-0.77547177472
0.456080110822
-0.302552015668
0.761727099949
-0.511154610884
-0.310947591974
-0.0281087724245
-0.70935643421
-1.48045730913
-0.292858594516
0.354521051708
-0.0125676528407
-1.61640964087
0.559294861647
0.366957097165
0.743478126464
-1.89400444926
1.46988420933
-0.704226841514
-0.206899944485
-1.57386485901
0.627727104395
1.05568298023
-0.0234726387042
-0.520346237028
-0.350679021002
-0.302161718302
0.37330004712
-0.0530362468347
-0.714161947298
-0.913147345001
-1.83151174859
1.13123971734
2.26008567305
1.28474622098
0.0547780560644
-0.773152471779
-0.714349268113
-0.0811603028825
1.23077300095
0.967295774963
-1.33038356264
-0.21730418842
0.852014811656
0.960385648141
-0.831936161525
0.313783291461
-0.276448138514
0.148026731465
0.371529769691
-0.237456294532
-0.542215639873
2.03188753838
0.353096728601
-0.220797311376
0.16641522945
-0.204400759799
1.30526476819
1.02403069361
-0.0200495278946
0.711888155205
-0.37147866772
-0.691192158967
0.055378685559
0.766326808032
0.0441700012696
0.379112100347
-0.0832425577549
-0.353276087915
0.329674219656
0.150216949566
-0.66422928949
-0.130980471903
0.178975455588
-0.900689018055
0.350789939071
-0.768389741564
0.827903800477
1.26583002387
0.846338080849
1.55185925187
-0.957348496838
0.401992456431
0.513024432015
0.277854536332
-0.0984338692686
-0.557293542679
0.577030600603
-0.305542258558
-0.489370105684
-1.32957077859
0.512718917019
0.868441347326
1.80217787168
-1.21961184284
0.232831933155
-0.396080659928
0.337733030625
1.14421768443
-0.271551821461
0.00840768419333
-0.623108394505
0.365262257409
1.30089772882
-1.19341166026
0.151324191049
0.712166516212
-0.633680546606
1.10180727355
-0.951566132556
-0.543749422018
-0.232238485376
-1.14218604658
1.48607914028
-0.393689846688
-0.157211739375
-1.4882303666
-0.608591585249
-0.615536598166
0.513071013618
0.133253752919
0.558873176669
1.39741986855
-0.238802957394
-0.928853586334
0.783882191906
0.192315198203
-0.600684715562
0.470183567632
0.540225082262
-1.77790810851
-0.742368190585
-0.366369149113
0.484086609976
1.3002366847
-0.409398116225
1.687936241
-2.01171958219
0.913357466418
-0.498024422334
-0.0881357542393
0.623731481448
-0.455076073859
-2.07420389004
0.315627221223
0.187159730573
0.909324194908
-0.572955397739
0.0476527550154
-0.347818103162
0.668413310002
0.215558653685
-0.371491417516
-0.144661734404
0.290659251698
-1.08900217482
-0.132229570524
-0.918111585462
0.8500646948
-1.66789011269
-0.86707335289
1.50012607369
-1.7097181376
-1.01264404449
-0.964563217125
-0.707196951529
0.181153519239
1.18433425555
0.107320554555
-0.330601130768
0.183789811535
2.8739344364
-0.266287227841
-0.439415517386
0.42608540073
0.899077404084
-0.505932988232
-0.380532610322
-0.900011938025
0.620766159223
0.64857851511
0.626852254375
0.360261684783
1.26552087743
-0.362318058561
-1.17233555818
0.434259042002
0.726436703434
-1.10430181676
0.433348453618
1.6683677984
-0.387293063637
-0.862554849822
0.128959638684
0.797901957884
-1.66006283518
-1.4371326179
-0.122304537645
-0.426212924433
0.914557166262
1.12286176822
-0.502243455258
-1.06768906871
-0.00796019711804
-1.80233281256
-0.584886868637
-0.83705530347
-1.26124310898
1.56844290923
-0.962350123339
0.16155884431
-0.374558965029
1.21702875306
0.252775198741
0.492791577466
-0.903524599421
0.215954934219
-1.15095406603
-0.0829350871567
-0.546681461157
0.41275980178
-0.127134736639
-0.644842636739
1.75692085437
-0.258339566605
1.13207163999
-2.14755730357
-1.80443981374
-0.839529173178
1.61374243386
-0.396658906502
0.340266788209
-0.468951046768
-1.67726703986
0.19306878668
0.408632394933
-1.58173505179
-1.39094024508
0.156363606789
1.32067678931
0.381304726237
0.236719982486
-0.239622376138
-0.446668370565
2.27156098549
0.321691277654
-0.327073675349
1.42049803925
-0.836008335523
-1.47130435154
1.43350551823
1.47692116165
-0.0414714939257
-0.679674230653
1.46716399254
-0.158001404568
0.875119771052
-0.953446472824
0.0662304354803
0.881909860485
0.648311263192
1.04534920258
-0.528765225293
1.09436404493
-0.335952825904
-0.42456094329
0.295252593541
0.475125681234
-1.57938795415
0.148845118916
0.936673293243
1.90898660571
-0.914863468523
1.35810051572
-0.283532515389
-1.37467519612
2.27917302122
0.255779857803
-1.45489009614
0.266317043534
0.739061219506
-0.818237222025
0.318172817824
0.664273793973
-0.169191967961
0.285738775862
0.870703148766
1.49899124439
0.986990234203
0.880710512391
0.502759466615
0.333202541997
-0.125037736973
-0.75733789468
1.13846736197
0.0906970426597
-0.123826176416
1.24868092649
0.950706856436
-1.61737397561
-2.40349374545
0.106681166104
-1.31147029441
0.301432762433
-0.933914115098
-0.827161630769
-0.579902934513
-0.326437843562
-0.21976775639
1.95138325557
0.425265020873
-0.740478360682
-0.51473331213
1.2991319279
-0.230101171145
-0.18826980296
-1.81255657747
0.825817292496
0.185296444475
0.427881211791
-1.54745599346
0.346197487285
0.126720203782
0.0337545921869
1.86136229625
0.104837075733
-1.16149401676
-1.90345129274
0.623454343897
0.418423731504
-1.49197702248
0.446424683856
2.00934303521
-0.889849260815
-0.40594989814
-0.723657480185
-1.15904516216
0.161012893553
-0.545495730905
-0.857895077815
2.69307887806
-0.221354328471
1.29596409681
0.314006063474
1.47671183689
-1.57865659306
-0.0295876382845
1.41297223722
0.357306713711
-0.259200528722
0.856488928979
0.189160653243
0.56275702602
0.291373963911
0.993576634438
0.785712553008
0.397800124479
-0.313526035265
0.694872460844
0.700447265615
0.364196863219
0.199556222263
-2.45290464069
-0.205055420396
-1.09368038601
1.27248651611
-1.09440731382
0.231871988273
0.0257110788005
0.938410630874
0.471939675587
0.307955615265
-1.32288462369
0.599013661719
0.585256954387
0.608169410032
-0.681539267363
-1.12237544744
0.250002344359
-0.949754505686
-1.77209099275
-0.0493693811287
-0.0825766974852
-0.618105533205
1.28090771522
-0.287237770109
-0.154126656697
-0.194809375918
-0.641584408231
1.34271825219
-0.52186947277
-0.999420088475
0.674169208102
-0.393373184228
0.909141924036
-0.249842825039
-0.30927442205
-0.833946361499
-0.465633147105
-0.797092066566
0.0525519147925
-0.852451244923
0.771758393626
-1.30948208635
2.10931991033
1.69975007993
0.246682266902
-0.476780973941
1.23148523069
0.407152687244
0.347137930056
0.101613947871
1.07782501301
-1.29350443128
0.020260548388
-1.01764946212
0.751226723012
-1.42924620572
-0.586352660979
1.3992786609
0.382722688691
-0.425132300757
0.626828137222
-0.529029550102
-0.537295312417
0.743859772158
-0.0637708080309
-0.615996317483
-0.234510732871
-1.19646452989
-1.62099804072
0.1103634903
0.263772224877
0.109490946264
-1.87768375755
0.182713177756
-0.706160218404
-0.031136932571
-1.02488968782
-1.72632472804
-0.299441117004
1.00464985374
0.183296311288
-2.55716928141
-0.932846669689
-1.00967599164
-0.508627557021
0.436771877143
1.01657545062
2.18932155071
0.631514124719
-0.860401919542
1.0961726338
1.45609281548
2.57310066512
-0.923253079949
-0.38945955002
-1.22816754113
1.49644386103
0.626575202718
0.728324977507
-0.980525670448
0.522917018058
0.82410647383
0.268930919521
-1.35331811049
0.838542621206
-0.0833286697585
-0.306941067114
-0.107812910733
-1.20672302183
0.0336531165231
-0.590403866257
-1.27288878335
1.13430792832
0.702820360432
0.0663709898609
-0.460716426179
0.941289679938
0.170113809551
-0.107883297504
0.705939887405
-0.24149112809
0.275064982574
-2.63586158094
0.0817068149873
0.0630864606983
1.21502808514
0.325638874247
0.536981984853
-0.340960427321
1.59928463051
0.0346649470104
0.254519004867
1.56931506801
1.2160436314
-0.572625036329
0.842439840537
-0.349923273452
-0.863947289242
-1.27100108756
-1.19434714
0.4881955284
1.10560936112
0.255948732283
0.20744584254
-1.11685810923
-0.363648589142
-1.00012318017
0.272171275376
-0.764572342025
1.43027198864
2.40803201928
0.011064322705
-0.247680365564
-0.802870094142
-0.407829523789
0.440106387837
0.603528058136
-0.0289832053262
-1.15882714745
-1.55106773309
0.372599631912
-0.752733452065
-0.368599285857
0.958571321941
0.993651806837
-1.13755887106
0.366238612212
0.646936702805
-1.30599937048
0.868022127178
1.31431832776
0.810784052009
0.724278219275
-0.37752459088
-0.565196743556
0.0629791284896
-0.28685322088
0.444390127639
0.345232576708
-0.810240226279
-1.2338480866
0.430464190397
-0.693819382408
-0.225999560048
-0.067932286601
-0.657680197998
1.13968486004
1.24312546126
-0.424609391641
-0.494211566823
-0.842185214136
1.18423337509
0.491023577368
0.28152802293
-0.292995351692
-0.379730583445
0.187899182464
0.0972109698556
1.29939444099
-1.04181434221
-0.753994968477
0.0394744436598
0.203938637778
-0.616010494367
-1.71311392725
-1.06854545158
-0.235067638577
-0.0970868142094
0.257621378601
0.693719633225
0.470018181184
0.492150977932
0.283112034633
-3.20787029637
0.74682780745
1.2861081058
-0.121743713937
1.81455173187
1.06461362265
0.881968505705
1.5301230252
0.161307181604
1.68489737368
-0.847735419868
1.93990327954
-0.690913868778
-0.620729542045
1.92593946206
-2.07411169529
-0.516684751781
0.673099672067
-0.685082711279
-0.726463319882
-0.459336754351
-0.572057594551
-0.477272393176
0.75620541681
1.73837026485
0.201303228464
0.214566210978
2.87941966862
-0.0426407287048
0.372083322934
-0.930350786995
0.435437778149
-1.10307046033
-0.495687701101
-1.30734739011
-1.53851059956
-1.11632488648
-0.989778298233
0.0434264284286
1.22420775241
1.33462348593
-0.0888525199279
-1.09306035307
-0.354921231457
-0.100359108621
0.161699577949
-0.641726232393
-1.10297673422
-0.257392355288
0.236663496827
-0.65384358782
-0.464039506402
-1.84677673873
-0.523743142657
0.82582064044
-0.723160299947
1.50295240467
0.520882141164
-0.0108210518224
-0.363908877196
0.28669823587
0.313355577992
-1.66298977444
0.770629765032
-0.245326689082
-1.93642967213
1.97241059212
-0.0179181605008
-0.69415458291
-0.260832255596
-0.952588944199
0.509698941235
1.17576053935
-0.858968137037
-0.800992750545
-0.388998279179
-0.739779584298
-0.45856060136
-0.0633004820357
-0.0391245413664
-0.534942421625
1.5398852376
-0.726624792506
-0.590390296941
1.97750711435
1.01722075566
-1.0943543349
-0.738289028512
0.169209304119
-0.793956128533
-0.0522496925939
1.74114752549
-0.213914915249
-0.798932837444
0.559049205028
0.218107297918
-0.387490798225
1.70563276156
0.574888904514
0.0196341119545
0.310406614372
-0.418961522065
-0.402483089613
-0.225190321085
2.01486947688
-1.69315777419
-0.236658693596
2.34844441818
0.566098777682
-0.0811462391316
-0.563951126515
0.733291359122
-1.47573074438
-0.527973770687
-0.983491143985
0.51466788438
-1.38826905381
-1.12347995466
0.00841020469306
-2.55824678386
0.452937222473
0.212136009615
-0.324864005148
-0.359000147459
1.17552951127
-1.51541018185
0.161754863588
-2.39417447259
1.72377790132
0.853484683139
-0.859219241088
1.79862525139
0.174036493797
0.0553749495023
-0.184679633634
-0.425391581943
0.450940395338
-0.597925056508
-0.521980390683
-1.15029804872
-0.423420978103
-1.32986481978
-1.65681553581
1.66785663286
-0.917118798543
-0.135754389537
-0.254951849886
0.630609559797
-0.116360607795
0.000935328754212
-0.760965069052
1.8992617135
0.0803012500726
0.588849022611
-0.0694666933515
0.539940614263
2.90160966466
-0.587984458406
-0.928727396184
0.248467258209
-0.352573215828
-2.04158862167
-1.24044224175
0.673659017877
-0.610473546752
0.193590837649
0.553429958644
0.853929775162
-1.38653255011
-0.0241000983753
0.589614955883
-0.365958055839
0.871187869859
-1.07255041121
-1.02156060612
0.54758458726
-1.52595230478
0.101840914287
1.78026537789
-1.37473096579
-0.7932755669
-1.18717612717
-0.84245992358
0.0955104223946
-1.41042690031
-0.37986872054
-1.36637903037
0.84612743154
-0.137436253942
-0.849677242278
0.548496174742
-0.782100037833
-0.735690904335
-0.72651995807
1.70433399254
-0.693757077821
0.538082527447
-0.347166366092
-0.00885126101968
-0.14883313244
0.339425696061
0.329501382885
-0.794371471877
0.43216971802
-0.764446074416
-0.24565753137
0.725563774435
0.978979389309
0.349039835791
-1.42309370872
2.50978265586
-0.565807271615
-0.758038500131
0.316252583852
-0.424109741221
-3.20845061213
0.261533987045
-1.57304605708
2.21217752803
-1.0476961263
-0.504137910418
0.39443530555
-0.551159179394
1.51018971346
0.351186684368
0.526018773936
0.680142741692
-0.59213502185
-1.06156150268
-0.055953346789
-0.508918097463
-0.954137759627
-0.602253686058
0.941792397139
-0.883730711302
-1.56564924978
-0.510008869182
0.606045024317
-0.539833156207
-0.537645860651
-0.133116992359
0.307220475023
-0.921803994061
0.959278389412
-0.472561985697
-0.221489707952
-0.547146197507
0.689362045428
2.44475501278
-1.65874974346
0.617689096908
1.34315231125
0.362328918733
-0.499127955343
-0.830402944475
0.321251145993
1.2451088388
-0.0556795571276
-0.608960913375
-1.17536963951
0.52897061469
1.08567199416
2.28452310704
-1.21366658066
0.839528467941
0.632777271106
-0.379368224344
-1.23454723863
-0.859659465702
-0.0153170231885
1.91252416173
0.711561198999
1.98574693355
-0.197057966741
-1.96818015143
-0.74073046013
-0.242749170822
1.22258487801
1.03677240679
0.243317600719
-0.539220195539
-0.611381019158
-2.00590994619
-2.96752619372
1.14330879328
0.78890848943
0.321011741313
0.0749236151965
0.232010612392
-0.0458057864067
1.03936548803
0.508990710239
0.409736093864
-0.235655284233
0.154611174893
0.519872925827
-1.70062352274
0.625506577675
0.905276817924
1.14409834921
-0.25310502107
0.504848796969
-0.0989493298328
1.59652660075
-0.742634482324
0.782949983135
-0.668033629664
1.38637457106
1.94319555128
0.205703976053
-0.13803855256
-0.793903128639
0.304077166512
0.639579611566
0.0628201634182
0.35819607373
2.07684210862
1.52555935517
0.539276856544
-0.361416051076
-1.17540752189
1.02074502796
-0.0115894625919
-1.28498807778
0.639349135738
-0.17353978651
1.57855121991
-0.234266054029
-0.621946465846
-0.924254129551
0.68626878583
-1.76190838578
-1.17900595549
0.870497881953
-1.00798954781
-0.0425462693678
0.0606909208553
-0.194025450917
0.666629243975
1.34965811582
-0.405733254428
-0.961238318949
0.936406363243
-0.0760114260094
0.678664573043
2.33025578341
-1.40656823333
-0.739099559601
0.317619282382
2.33524702575
-1.70914867462
0.486045825061
-0.171781069151
1.56938006099
0.926999103571
-1.55566812962
-0.108794188093
-0.968779269697
-0.570044114866
2.13470104291
1.05426487686
-1.04457024608
0.467488102706
1.15042019597
-0.107136190368
1.22621000394
0.675975844487
0.324023215009
-0.198131933621
-0.560496361681
-0.600189451337
0.237202754996
2.27920075718
0.93444772579
1.03700713889
-1.65939713155
0.905841825835
0.184734793595
-0.610804269982
-0.824427183416
-1.29980939273
-0.327257420096
-1.17296545966
1.16516143699
1.33750908617
1.92621292448
0.905862646901
1.20859024845
0.0030226816575
0.0636994487794
0.611064768535
0.0219082703079
0.494053344296
-0.455777581551
-1.28267712953
1.00497899247
-0.701949622204
-2.28699726219
0.88462828808
-0.26476059647
-0.380906868953
1.24649521379
-0.363869263205
0.337094452643
-0.775920480914
-0.0812667922778
0.802913207987
0.441534272648
-1.19261370018
-0.89226833282
-1.77754672938
0.286175505319
1.95506045426
-0.398564282719
-1.29472747549
-0.806051331453
-0.78041903179
0.376961583652
-0.472654665353
-0.52025006633
0.972687913942
0.206423601815
0.723878629935
-0.471409493615
-1.4338226142
-2.17406543492
0.748661197656
1.00839863321
1.24018262241
0.997617286663
0.198705790811
-0.222450718528
0.794881501861
-1.6023938061
-0.152799579579
0.0756234511604
-0.962647283615
0.642117656606
-0.219583226552
-0.721966368346
-0.643230292958
0.476695825216
1.02453143001
-1.15432494655
-0.34327795351
1.35977955532
-0.968448362811
-1.94593648173
0.790725618806
0.648943345153
-1.11259997255
0.885799573024
1.15192956837
-0.443006741138
0.595551072344
-0.359559735511
0.428558043744
-1.67432138808
0.86243181635
0.881469805201
-0.0785264282919
0.713207921887
-1.81412112471
0.621390877998
0.0511431602033
-0.137145679816
0.596943597849
0.280107173159
0.586504506719
0.642546719235
0.531571475155
-0.40776730134
-1.53001706145
-0.142708498455
-1.03073451105
0.899121121138
-1.10918392124
-0.873593671169
-0.678253498052
-0.699463755061
0.217057205829
1.6843139087
1.51739100194
0.692088849918
-0.97948271894
-0.657724938054
1.07577828165
0.757595475522
0.769389311073
1.8353150414
-0.202733418128
0.398917570488
1.96813826168
-0.0552237758898
1.37388469573
-0.167941812247
-1.50929898787
-0.0589717718464
1.03860141571
-0.555402717936
-0.15802480353
0.0776853437045
1.14297856041
2.11184904425
0.1417923412
-0.323787595548
1.33240517982
-0.785593967237
-0.118417562266
-1.01930412672
1.4299583907
0.468284727584
0.466804311187
-0.603472479373
-0.40021454948
0.361688044846
1.1863054985
-0.296186905886
-0.193125371788
-1.59537694868
-0.86446641752
0.640443280305
-0.576198673675
-1.97130064642
0.0655826494957
-0.971945648187
0.134055233184
-0.200868644756
-0.114035792397
-0.633424801516
-0.00463729939176
0.508498528322
0.539182218163
0.462160394248
-0.773341933239
0.692766317137
-0.0949619962874
0.356822099228
-0.88758997263
-0.852400672387
0.550311582933
0.0822322638398
-0.0610487830401
0.707683888855
0.483229902011
-0.630593879468
0.333580863698
-1.28357511427
0.715783099035
-0.262360563671
0.441405351147
0.292788435512
0.1913837568
0.292883522887
-0.371651277859
0.245026436725
-1.07336986285
1.2338370523
-0.070117009104
1.02944020226
-1.02504155168
-0.890475409362
0.393852799486
-1.31662841564
-1.64735639716
-1.08570507842
-1.81973098579
0.195761174407
1.23075373285
0.380689552248
-0.198417426417
-0.401937384512
-1.78770609763
0.394093317049
-1.52010245673
-0.0295685569666
1.81268259673
0.00329822084567
0.382574231395
1.44539797537
-0.124942437738
1.23948989747
-0.269511232843
0.193700134423
0.809532634242
1.29919052598
2.08319363046
0.00497385270893
0.836865164891
0.370457578249
-0.703959341073
-1.00697580851
0.441170321518
-0.287534863509
-0.106142336756
-0.246072951288
0.182371355206
0.607199545825
0.812284376641
-0.178643790448
-0.154860109826
0.438065819376
0.530911056383
1.35915002254
0.394112827123
1.44364904383
1.07129709246
-1.43699247518
2.64346021898
-0.214723416053
-1.22877863503
-0.0132978651452
0.550082057071
-0.522858644911
-0.123586172674
0.0579307627176
0.224242899912
-0.0145575710686
1.27151445563
-1.18920713409
-0.974363366856
-0.238695674472
-1.63616912397
0.521883257281
0.840296726432
-1.29791409915
-0.98289973588
-0.666684336852
-1.03129033723
0.565580621171
-0.802111631198
-0.70914874906
0.053024961994
-1.10153917501
-0.326591353075
-0.693649249769
-0.190122383685
-0.0864154159778
1.09735887333
0.312102037086
-0.640138395633
-0.540283424826
-0.991727306018
0.196346786738
0.750275283552
-0.987794434801
-1.13444330999
-1.74414990239
0.360657749855
1.08694523628
-0.678639950374
0.224917367733
-1.91910061808
-0.779331345402
-0.0812339951535
2.38717185353
-0.0728759673896
-0.870870507223
-0.293093050968
-0.274371481804
0.610028782244
-0.827978552861
1.13000620282
-1.41898146967
-0.746353322423
1.66421046145
-0.663892948375
-0.734643241274
-0.127667709529
-0.276853944281
0.103302046667
-0.804794849054
1.04823395148
0.567177959113
1.93685253773
0.682209230158
-2.08258081729
0.710092573892
0.132633957819
-0.173129634997
-1.06155955642
-0.010509417133
0.337080819482
-0.383995373775
0.822263793765
-0.613609397627
-1.60370450407
1.11972061549
0.436946407351
-0.927240286324
-2.01454110028
-0.315647818082
1.05560607715
-1.03743401852
0.325008215266
0.858467633023
0.186485785447
-0.670952791045
-1.16463830005
-0.68042517115
0.199933654813
-1.93922204922
0.00162491045065
0.907106700936
1.15679478939
0.348810368482
0.237500632958
-0.470547443021
0.537222278701
0.128689663682
-0.250021248146
0.891762344682
-0.705996402868
-1.429630736
-1.06929009121
0.825415299179
-0.106076950341
0.266407340288
-0.804361691486
0.669201459432
-1.04559243813
0.616292298002
0.00907594246891
-0.35547712591
-1.10664088361
1.08557142055
0.753583237374
-0.623537691693
-0.603450778979
-0.23617765832
0.0479836943324
-0.03384304974
-1.77194481489
0.252739003899
0.878440650775
0.396452609004
-0.529199690392
0.563298213029
0.336986638085
-0.77836252508
-0.976373502606
0.521619119324
-2.5972434474
-0.0709445336638
1.29063406174
0.71328242059
0.115019952954
0.751052700926
0.413605853477
-0.77090310343
-1.93273234271
-0.39052756531
0.510827962536
0.135359915714
-0.550328783662
-1.55750906337
-1.04018404979
-0.963019698236
-2.22546212734
0.0282375839737
-0.421155116607
0.705263320634
0.777359807186
-1.64083536059
1.49533908392
0.954134457492
-0.273236444091
1.62202478107
0.863637192736
-0.601820062974
-1.4874679013
0.530251969916
-2.47113768567
0.898452122468
0.964179821744
-0.863517027166
-0.886373327077
-0.460263265287
-1.59171433126
0.442933695285
-1.16586699622
-0.290281628217
1.01900291176
-1.60353977495
-0.216526818382
0.552478501558
-0.391743387483
0.292928925229
-0.545638782047
1.10692914284
-0.64951924008
0.413158028021
0.0280637357377
0.285562166351
-0.0945013306229
-2.27234133813
0.0152728556964
0.537110203473
0.820225768586
1.40122770634
0.881984047422
1.00760146054
-1.19444584346
0.655690583176
1.49188772129
-0.496506332464
-0.244626135065
1.97602826459
-0.71572957575
-0.060161087026
-0.909895122237
0.735386840501
0.829733855104
-2.3125496881
-0.924164887597
-0.405140818401
2.27159883206
0.445990071036
0.119384367439
-0.319869443979
-0.876955389595
-0.0208067493852
-1.00811125755
0.386835264509
0.174781893479
0.484972495242
0.883198734241
1.31510872788
-1.16301307985
0.909346424963
1.75455382284
-2.07158909649
0.418045353749
0.395762814109
-0.697287742014
0.594337262036
-0.768121169621
-1.40978602298
0.380803618798
-1.36088980861
-0.609231422231
0.087014787357
0.392959934267
0.400406697652
-0.895255897236
0.792830612411
-0.166875855114
0.764423868326
3.03298697041
0.876899892254
-0.0459847335447
0.473031424853
1.57593682874
1.55195592596
-0.109153263722
-2.70032651494
0.599303352204
1.88266101789
-0.508966290006
1.09964076971
-0.416048818216
0.981104408109
0.679151608836
-1.94533909661
0.914082590382
-1.81034268827
-0.254856437038
-0.464310674505
-0.567036807744
-0.478170037383
-0.433634650886
0.166519897758
-1.72199280951
0.853496543612
0.741146449108
1.42348920267
2.29813059143
0.386948235559
1.10919229258
-0.592940308784
0.0431895029358
-0.831444588442
1.54711479245
0.457012202993
0.650173279239
-0.176093764636
0.824101001234
-0.234799807434
1.05457268898
0.117691510485
0.963151438256
0.865750882673
-1.04827563148
0.10611582832
2.23689027562
-0.0841511199779
2.32160351774
0.827849964487
-1.09917976653
0.900562947855
-0.417979380959
-0.99606016973
0.763864005866
1.9507020045
0.757523729274
0.62926392184
-0.134670342983
-0.791297550493
-0.556934909974
-1.18191715249
-0.111663862336
-0.162291212656
-1.02859195621
-0.317478429026
-0.295571895631
1.58769325031
0.6255087261
0.19467097343
-0.276248955078
0.509604357658
-0.527449406372
-0.251165674309
1.82700864391
1.57263900574
0.0391820811327
0.652162345161
-0.0228673955478
-1.27229327178
0.0391360101163
0.153429682241
-1.46401594387
-1.68905265909
-1.54330680872
-0.344761007032
0.729751234136
-0.251964859184
0.0711671253072
0.152208695385
-0.175084415915
0.327491772015
0.681746646594
-1.27554547809
-0.125328880698
-0.772132166214
-0.596495931451
-2.69461313138
0.373750946853
-0.32811890435
-0.803400613194
0.790099382626
0.257863657295
0.750996235901
0.496376883286
0.020099528487
-0.802662000177
0.760603548556
-0.174099274969
-1.62991421678
1.25110780985
-0.391517538245
0.454112117259
-1.36239980135
0.0472554910887
0.0975267695045
-2.04608432972
0.26933741145
0.483047490891
-0.894241146005
0.220147320606
-0.921569691211
-0.190614731981
1.26335593047
-1.61870362478
0.033150302534
-0.537266133894
-1.04260604845
-1.57541470054
-1.26576051555
0.995926146147
-0.786805256895
0.0833535760754
0.29388515242
0.922841283232
1.18774168619
1.15088298111
0.343183229419
-0.530775861386
0.480248639015
-1.42101098337
1.68449036743
-0.0998224274331
-2.27575528068
-1.71788281701
-2.62161392401
0.518072294116
0.212688977329
0.0672249533706
1.01100419749
-0.128007180118
0.130401280442
1.46158370042
-0.302217370514
0.31866269792
-0.631905804627
0.338475202997
0.418481753809
-0.793310276626
1.23128142422
-0.109252049147
-0.905720216845
0.661184963729
-0.751467697432
0.073996872341
0.83130657052
0.784669300058
1.79759582949
0.404273187947
1.1453488603
0.728971212967
0.378711057331
-0.103195794498
0.555650794389
1.0595183988
2.90284183524
-1.96513558447
0.570765921054
0.968794302621
0.0545824358703
0.461653980415
0.476808954184
1.65094112656
0.192416165001
0.212628594188
0.65960340141
1.14202797143
-1.53824468114
1.76996860117
0.189998242681
-0.240903874062
0.441738513903
-0.290839254807
-0.937457910697
-0.670265246837
-0.753154761927
0.332379145345
1.43404233493
0.554733379713
-0.297661397464
-0.7687191489
-0.320562126622
0.00437405105482
-0.291888482125
-0.89482193245
-0.28128991511
1.50422976531
-1.42671088699
0.0171711576429
1.46720423077
1.26931027164
-0.650783082383
1.98769641998
-1.32795235791
-0.596265848361
0.805182983178
-0.139366128707
-1.79257131879
0.98513749387
-0.740516061874
1.11052783053
1.63235156928
-0.49839798797
0.324193305145
-0.342576530552
-0.568070692283
-0.00948976976755
-0.625852177016
1.69801057555
-0.606732493607
-0.733384485128
-0.101724244309
0.582127635263
-0.460236838338
-0.605932383494
-0.0361313745423
-1.09345651791
0.331586439432
0.187770874349
-1.3393758605
0.522153245001
-0.893729763829
0.315919128969
-1.69067496781
-0.177842015174
0.990667524152
1.4848691337
-0.953603977785
1.77239784265
0.328344634294
-1.26003080117
0.343912159862
0.416844531001
-0.57236599725
-0.268620116866
0.995439543925
-0.971437994683
0.170927703028
-0.39513722835
0.520583761656
-0.302878032933
-0.689755640877
-0.606742692064
-0.962572944571
1.28329353277
0.121525123989
1.26091109503
-0.828571495626
0.104166516154
-0.458228891901
0.89934141952
-2.07429227703
-0.409054593448
1.11498270596
2.01531909819
1.46738690196
-1.8826124814
-0.874468398925
1.38482149417
-0.712240969395
-0.652360906672
-0.490862483651
-0.989527996721
-0.909839714719
0.931290103107
0.370177442806
1.33833709094
0.574514423391
0.749555279028
0.12607139092
1.45113024414
-0.815403008054
-0.119424095635
0.81973662158
1.39735263245
-1.98597942249
-0.562968128733
0.32938158355
1.11922682373
0.347390094278
-1.61168496787
-2.23892509039
-0.489182143326
0.840229935931
-0.624750760745
-0.193744158678
-0.670619290601
-0.0373529314149
-0.674600385654
0.241048059626
1.55372502883
1.70446830822
-0.803204872797
-1.02389501096
-0.172486400588
0.67911784331
1.03995024588
0.622405867934
0.407313132239
0.774298084495
0.978232541188
-1.86250279736
-0.563350815576
2.15252851446
-0.369536531572
1.29269217302
0.58358457012
1.09743679147
-1.60861341944
0.326707154418
0.274487759051
0.650504229284
1.55730239813
-0.33102717081
0.332326359455
-0.354991788873
1.25007760124
0.185332569734
0.395260464085
-0.0134871395044
0.732044863222
-0.271874558288
-0.430348894694
1.79137143319
0.865020065947
0.981463661302
-0.197093976083
-0.306517044022
-0.892499578001
0.990374653889
1.45428502449
-0.429681302259
-0.0784195341868
1.29017621945
1.15448620074
-0.0786506714951
1.07986986431
0.267884261559
0.851007426772
-0.606348889895
2.50899583388
1.92286547889
2.42149075387
1.58495096982
-1.83257260236
0.34378277075
0.619276191454
-0.0688227048032
-0.327629136794
-0.789237126873
0.846833230508
-0.426843306334
-0.757819704182
2.14889105684
0.909232243112
-2.5058962425
-0.0936694716579
1.0710491579
-0.074576716614
-0.469876196043
-0.0113775874106
-1.69050828614
1.17284257317
0.464952546795
-2.351674627
-0.365747844921
-0.849108377052
0.00422307017101
-0.399549223902
-1.62497592992
0.651444183972
-0.113070030929
0.200495456098
0.269186587827
-1.5594098642
1.16526955283
-2.06294322516
0.584745782537
0.801344176837
-0.149991570557
-0.264620460668
-1.25291814299
0.0858791657071
-0.67487165724
-1.35464854069
-0.414466911213
1.09182604594
0.404797899804
-1.12294490933
0.205512567151
-1.6190376722
1.85906808792
-0.998934734367
0.24262349435
-1.619315219
0.0660225599662
0.0707298281485
0.503586599267
0.350568632763
0.0463573479577
-0.317306877247
-0.289359102724
0.203853922378
1.66048638827
-1.38277405848
-1.14148115553
1.3440843475
-1.4312418532
0.258674710237
-0.567044087722
0.0966199400048
-1.80388039054
-0.817610522414
0.809306238567
-0.334357011969
0.0975839023139
1.42528231099
-0.928614887085
-1.25092013421
-0.130761676079
-0.272147273221
0.0275265967062
-0.0145199337404
-0.812312292638
-0.118629995876
0.430551553193
1.14844680276
0.198847876774
0.77374519757
0.0738474806646
-0.422291081318
0.62440819025
0.60017276305
0.794910947951
-0.666031544917
1.8514331254
-0.948104772411
-0.0298007805067
1.92385915513
-0.0150682190946
0.287743478877
0.148466769055
0.264284795416
1.60687062326
1.3021525899
1.33655639341
0.231313291735
0.0704511044257
-1.05205849995
-0.554949557121
-0.0589037805065
-1.19022619652
-1.25350752866
1.63055058576
-0.414607026213
1.12133654235
0.663121428639
0.37450060321
-0.619918946738
-0.21607131098
1.25904368357
1.33454505739
-0.125441541549
0.956837924942
1.07260842566
-0.522034622775
-0.0678556578079
1.31631562825
0.343252651071
0.548184414041
0.850580047534
-0.861390969539
-1.19740641677
1.02332681607
0.181806582305
0.267946768771
0.449423368464
2.18451964456
-0.352874748131
-0.318742753496
-0.337661765778
-1.0172989776
0.754007343598
0.0846552487701
0.202128858115
0.341861521356
-0.110547612454
-1.92807684534
-1.18367377088
-1.49556817675
0.454479366616
-0.614552102046
0.366300937404
-0.107146504582
1.22071744123
-0.438368340479
1.10891310863
-1.01370649275
1.59199453416
-0.201164612428
0.435366391223
-1.28040703858
0.882125585908
-1.20290192238
0.111656471958
-0.49454313918
-2.06380831249
0.882215435276
-0.887234487639
-0.721139667421
-0.561441364189
0.379050283226
-0.130627917554
-0.0858118002801
-0.446581585913
-2.06307364645
0.517809713763
0.00679341461544
0.30386389263
0.37064850669
0.45728731412
0.569148990225
-1.13533558373
-0.299176448722
-0.909429613276
-1.76060641225
-1.60601186924
-0.583003787618
-1.47478171236
0.121240122296
-0.451306584109
0.845406872512
-1.66255259795
0.857861936931
0.133010905457
-0.904728886452
-0.602805097078
-0.540476647091
-0.747226070776
-0.765169376779
-0.33838702685
0.0702853321954
2.17003045117
-1.0563841038
1.17412514335
0.567414806773
-1.17271352117
-0.144746936247
-1.13098706914
0.251004250408
-0.19743679214
-0.896081872064
-0.255580462234
-0.79656264106
-0.679700924803
-0.66901185421
1.77845645725
1.67995648844
0.14830284346
0.0316786462574
-0.90944799587
0.170702474196
-0.556233162042
0.105144508923
-0.517637134765
0.889673555052
0.4188012037
-0.955392835619
0.309969804643
-0.185991878182
0.455096265401
-0.662892845427
1.83466336929
0.786744966391
-0.252877110635
0.0203766713171
1.22910565566
-0.505121918044
0.370005850695
-0.258784515706
0.197259587151
-1.11135664579
-2.47129045957
-1.74986657037
-2.1503669525
0.868714857911
0.512237045627
-0.800341656672
-0.972336138902
0.782846473317
-0.772317590868
0.852082326803
0.512177324548
-0.643748611425
0.167570040355
0.224472625582
2.52365503586
-0.251061637513
-1.33993522064
0.582218199574
0.360388866003
-1.15374939089
1.22803515056
1.16348499175
0.213979324589
-1.04487493194
0.238856566559
0.971266874669
-1.02772867607
-1.30805247795
0.0532314187378
-0.267419603925
0.993539563043
0.207883080437
2.72599295668
0.707202370721
0.100115714018
-0.967490953045
-1.23714552569
0.000506718248915
-0.682372671665
1.29745353294
-0.112171321588
-1.25654093886
1.45275242677
0.272456973945
-0.625731464057
0.496447265797
0.264218104922
-0.598694927192
-0.852831233133
0.62342982458
1.41408530827
1.10984449168
1.57670640605
-0.257642001801
0.857337675653
0.519092916029
1.21141041736
-1.05214626247
1.11772049393
0.897389101267
-0.263225693903
0.688231304347
0.052649418288
0.613499610409
0.692249464456
0.702967673519
-0.369203026827
0.27659235405
0.707353433333
0.134031843263
0.993333903337
1.51320034517
-1.40586640352
0.100036921357
1.58583404307
1.40717362448
0.393198496094
-0.405045995889
0.662953975862
-0.75047435551
-1.59507255794
-0.740928250433
1.47011805129
0.658783488896
1.21731491515
-2.05614335252
1.67357679791
-1.08304229176
-0.57478101311
-0.562019443282
0.920514164966
-0.888208035019
-0.548128695306
0.511395721257
-0.509190884678
-2.15049978304
-0.793485414615
0.509777781082
2.04391429556
0.494814071595
-0.971478063384
-1.29966451489
-1.11715093209
-0.45187461693
-0.793499632405
-0.284568364668
-1.56275769578
-0.357727070092
-0.43484433516
-0.923639461419
0.845146617678
-0.375720342263
0.542273238364
-0.672257418189
-1.31277653604
1.02983587879
-0.140063908004
-0.801927801036
1.79473244245
-0.106506123993
1.74132650886
-1.94912843748
-1.08456553501
1.00336299372
-0.196978399807
0.309616541499
-0.101545592183
-0.827201097689
0.894429607879
0.408232560621
0.996966760181
1.19451948205
-0.0783524955331
-0.398490692373
0.992196774922
0.363620958212
-0.683656661546
-0.589171984129
0.924761572671
0.360974209981
0.920705384944
1.7051785861
0.227041170188
-0.39008949155
-0.270943328805
0.712786925038
-0.395886395087
-0.78272126507
-1.58520444626
-0.952443861473
0.827282466517
0.856345261794
0.0140000746132
1.50279907856
0.81260781644
-0.336222542373
-1.47242590178
0.371045262137
-1.33915886242
-1.19260146706
0.641809608416
1.01657102234
-1.29493266061
-0.192007741768
-0.0512081729119
-1.09254976011
1.43116110797
0.442864788258
-0.112037444454
1.07163093851
1.14908322682
0.335101661646
0.684848327437
0.841327810296
0.193987265842
0.263790604489
0.755997935089
0.921455571793
0.594540806234
0.0863070157116
-0.649260629818
0.419899229848
-0.207254531315
-0.156118979804
-0.729434225976
-0.849968631595
-0.713844890062
0.228394985516
-1.29849563362
0.218283409077
0.867923798624
-0.116195853417
0.840458237047
0.308142924799
0.0511999179664
-1.62682272817
0.680297568284
-1.85325649709
0.766108717485
-0.928538544117
-0.0751054495267
0.517558349856
0.827596222749
1.00339449972
-0.0777503279071
-0.129969207754
-1.02203590113
-0.600174730031
-0.157807471465
0.113289873031
-1.04531618487
0.965574750886
0.90840616025
-1.27148357581
-0.470165857037
0.96529892563
0.182106295534
1.19765024666
1.25060329321
-0.382641272014
-0.796239331955
-1.14815755205
0.19303787912
0.94891268389
1.54552052989
-1.12552074325
-1.17678427006
-0.640461282298
-1.03466307206
-0.447971378181
-2.69321238583
-1.3847030732
-1.13980234168
1.280952602
-0.0437737912916
-0.217013591397
0.704741830677
-0.353956257321
0.578984640785
-0.808941014818
-1.50610751011
-1.23370699043
1.32100461688
0.793022408254
0.371372537156
0.164515775657
-0.219172986662
1.47718876764
1.33050140987
0.178423926204
1.13500779062
-0.604538412727
0.530661477988
-0.757555215855
1.37148734953
-1.21412356579
0.767112493208
0.606365950718
0.217160138535
1.63023432058
0.779760783035
-0.780537815226
-0.863209920057
-1.37142933306
-0.770135312362
1.08002993912
1.35368065888
-0.151925852653
1.05070316794
1.04551489055
-0.402573047963
-1.59623264376
-0.70378557071
0.0376448195809
0.195021383402
0.46342028249
-0.0801243920936
-0.698845810489
-0.624382453831
-0.182526406536
-2.00749423092
0.347897049571
-0.0722096840383
-0.79364655953
-0.346730977311
0.121052631797
0.821223774395
1.09389599339
1.11427473501
-0.139441721521
2.23538367671
1.17092489718
0.246796044692
-0.0582864955044
-1.23347475067
-0.565292737535
-2.22443240942
-1.18906452783
-0.732820207209
1.54985590933
-1.65479113567
-0.659895181239
0.852080651357
0.327302810116
-0.757183155513
-1.35214145841
-1.29134926643
1.41790732659
1.06742176476
0.064428439001
-0.053309102328
0.107577200685
-0.73853375712
-0.792253281014
0.563476588607
-0.0244789019117
-0.690710306293
-0.776131870766
-0.0399982984062
-1.82186925035
-0.780245678701
0.762899090364
-0.462108034056
-0.125403588648
-1.08915582432
0.0718987763714
-0.216725190268
-0.622206017396
0.158058442767
-0.400049652174
-1.1720553092
0.378635677131
-2.23377423047
-0.625525213645
-1.61378901264
0.863215028048
0.522766568862
-0.780749043161
0.379458582687
-0.154545169547
0.0874063092769
-0.687325889523
1.15596297427
1.72465229411
-0.992864338037
-0.7661461437
-0.670224076788
-1.31254123745
-1.02455716136
-0.775220260249
0.231945846991
2.08729829061
-1.16883721888
1.30894860924
-1.9352107158
0.065682099378
1.26998731225
-0.77292171871
-1.28690672731
0.614991103241
-0.000330578016944
-1.95714098291
-0.486199072148
0.47085563328
-0.737578075615
0.567114458148
-0.408315125473
0.902682634573
-1.42154952353
-1.14055833337
-0.760557980483
-1.03752107754
0.756107382782
-1.06410968932
-0.783548246347
-0.306896577387
-1.23079229129
0.372966346792
-0.365427563027
1.43945607736
-0.718898639205
-0.214081537239
0.358187155804
0.620361017158
1.45933161129
0.452947218609
1.42484960048
-1.097772399
-0.507515139494
0.839242942918
1.00555351238
-2.86333419648
1.11562942977
-1.44582260372
0.604858047641
-1.2270879603
-0.408896991271
1.45233632978
-0.546465398415
-0.648967255023
0.470109999002
0.997575381544
-0.232578375345
-0.40799569154
0.0457975817469
-1.95451021798
-1.96306444633
0.00903077483113
-0.597705419401
-0.169683665381
-0.719795285979
1.36902835526
0.246872654472
-1.16467222
0.493312596615
-2.39658905066
0.67133276702
0.419111554484
-0.203769730202
-0.389586094867
1.46459050651
-0.885243630949
-1.53588010359
0.585476076173
1.47062748036
-1.35743734243
0.439739555711
0.681935296567
0.155209883276
-1.63399382471
1.09995865731
-0.226235307059
-0.564297468885
0.497630323273
0.19409695659
-0.739031479888
0.136238440213
-0.33861449698
0.171943078314
0.570785912705
0.408558815159
1.18805428463
0.0307796201428
2.7292641058
0.169206420238
0.87594143686
0.719103098021
-1.555921295
0.851377734516
0.400610640333
-1.36444764411
1.08163273961
-0.468069759225
-0.26183420347
2.10364991961
0.665974225512
-0.518686511593
-0.0939172751069
-0.0235667386268
1.12209345526
0.158951930965
0.0335937183199
-1.61835996969
1.35493429904
2.1367802365
-0.0918779056656
1.31230848962
-0.437787335537
-1.15985363702
-0.164519256193
-1.21570762589
0.126641511602
-0.802996794236
0.110541061764
1.00819862686
0.868415208037
-0.48748035007
0.422629669293
-0.489034364531
2.08081267929
-0.794719036038
-0.278121990224
1.1330362872
0.724628722863
0.190569432641
-0.898123304974
0.495526252311
-0.538828145668
-0.324419191938
-0.536390876163
-0.8945651507
0.357746225966
-0.533869615689
0.22064063131
-0.26100743149
-1.11243823098
2.26357539931
-0.623490991637
0.907673390087
-1.38622757974
0.10265676755
-0.273521036901
-1.52992468952
0.983387606815
-0.167217181258
0.110322322167
-0.927076532439
0.711421192244
-0.54452255192
-0.743545904786
0.70769042277
0.964637322894
1.74350907855
-1.12798625864
-0.358738802823
-1.73409258655
0.689259360768
0.16217348866
1.03675966092
-0.396221318913
0.836413639363
-1.55795479561
0.524328216959
-0.724692490807
-0.517332283343
0.0866951552496
0.369148077674
0.953109965643
-0.740927932704
-0.783639426049
0.730540826869
-0.870630449478
1.33380334683
-1.69185463012
0.637673674721
-0.530334907833
1.1505634979
0.221028783407
0.534328847911
-0.742484303944
0.789555607183
0.655073499945
-1.07931645737
1.14105666856
-1.01778011154
0.511107556099
0.140599491307
-0.648738544168
-0.0344699257896
1.54115143342
-0.476523986299
-1.01938577192
-0.89093242075
-1.98255955813
3.08294056587
0.366524558698
0.685165692269
-1.66251598797
0.628518591515
-1.67945331752
-0.362118056769
1.81900899709
0.765728249348
0.287404037505
-0.77065914778
-1.5513269337
1.17384375022
0.191491649211
0.0765083240308
0.383269476601
0.0662121292866
-0.560593581803
1.29520172119
0.982883163953
-0.463812807015
0.283346946382
0.299211453388
-0.464342084493
-0.942295826973
-0.145150267826
-0.223317583486
-0.298541369402
-0.768087870295
0.0997636317285
0.814593992252
2.76595918708
-0.488870490063
1.00032360861
-0.0991628680584
0.16232296664
1.74486796674
-0.799208497802
-1.02193399191
1.39133035251
0.914266325653
-1.24050298965
1.37545666752
-1.22743285714
0.119299117537
0.222752379031
0.442661541549
-0.234770823631
-1.00685680126
0.684460218097
1.72868377813
-0.660584481018
0.0106851092602
1.28022693378
0.532994376559
-0.122001662068
1.85776797229
-0.0236521539976
-0.396203331363
-0.279316424843
-1.34847986377
0.409924161298
0.339626442852
-0.273376021471
-0.0869004553101
-0.11347529661
0.159781046314
0.544969862988
-1.14358788943
0.826735583748
-0.457450182047
-0.925159257753
-1.67779382117
-0.178827570989
2.24508694281
-0.547412180614
0.0079988541627
-1.78864100737
0.642957617205
-1.06112625253
2.08749329494
0.0309972300931
0.217918823278
-0.640377636879
-0.280465602812
-0.261765798977
0.860642221194
0.446142637006
0.460013666185
-0.391035542763
-1.40453603355
0.60833761271
0.0371664041067
-1.224777075
-1.59708624509
1.33208523528
-0.683137365275
-0.414936354206
0.571879423812
-0.32103481004
-0.52544653118
-0.928585670586
0.698972532754
0.0566600335086
0.802510064369
-1.59073787942
0.931882250619
-1.03091463511
-0.789097562503
-0.828406857662
0.427985539773
0.238185140205
0.107779599831
1.82823720242
-0.201047327286
0.815606315571
0.408676383683
-0.50069406691
-1.57991510923
-0.499622731724
0.852259163155
-0.22071800037
0.75764538452
1.2762095067
-0.334658751175
1.467242026
-0.0739793892926
0.134718273085
0.328845587844
-1.09409797358
-0.294890109492
-2.68611007825
-1.05467649724
-0.38907380757
0.8808066946
0.0596175257738
0.116532432218
-0.520422732007
0.09408109187
-0.301397801161
0.745748666375
0.810642407111
0.308118264636
1.59568687427
-0.718074031959
-0.0178113888203
-1.37321837043
0.939030806745
0.847951399377
0.227534395266
0.844697757888
0.90472786951
-0.824988137236
1.12206035129
-0.290302459795
0.478527787302
0.500501601041
0.596273285158
0.061053871717
-0.709521711165
-0.321592726402
-1.15774324595
1.40475491508
-0.0354506709858
-0.00334947197401
0.536059962121
-1.14485790733
0.300360629933
-0.411081588854
0.109164661354
0.182215502484
-0.0568835588432
-0.444619344144
0.417787768237
-0.104046894765
-0.871509670568
-1.18086034339
1.31618927563
-0.177374494002
-0.242349596015
0.651580752497
0.616158885536
-0.785172442061
-0.202540650246
1.13707122573
-1.15955529583
-0.450030947014
-0.0323311565454
-0.28272762537
2.05889026556
0.270473846936
-1.2770065602
-0.195763796829
-0.250331445205
-0.735371063884
-0.665436471207
0.750457140615
0.72059228529
-0.171455625375
-0.0952217952639
-0.632783788582
1.08230698367
-0.149742690736
-0.907885742196
-1.55337657954
-0.151552178047
-0.67368615701
0.291847595704
1.07195964924
-0.218109678277
1.2931414278
0.508568130672
0.827128277619
0.863388516185
1.65288614699
0.648531716835
1.05156492434
-0.88510047417
-0.293602346292
-0.240714898635
0.42987132465
-1.4755309374
1.46681537263
-0.692714710786
-0.620196723235
-0.261189011994
0.230364361159
0.624051948548
-0.528714816719
2.08730328546
-1.01320279726
-0.312016238008
1.45161705148
0.546394511038
0.974916897744
-0.237392530676
1.14297458664
-0.17183939258
-0.322962418957
-2.1753635195
-0.969906695035
0.0220290910728
0.229988085715
-1.66634609045
0.658862135532
0.475257819126
-1.14118121059
0.928708390929
-0.466218259118
1.10526745341
-0.152521805685
-0.603925085871
-1.1990046308
2.35560682836
-0.749142591882
-1.87436576097
0.559077920241
1.87334351421
-0.495531799035
-1.63485892296
-0.308219687911
-1.73247668412
1.59785273674
-0.889156737594
0.135392750604
1.81102463395
-0.67986635484
-0.0131128611097
0.556681556292
-0.470362268097
-1.02347144657
-0.594511323094
-0.872970550805
0.180370148091
-0.365697410854
0.942804001562
0.176971156479
-0.790203800791
1.67535124627
-0.454603835328
-1.89794796385
-0.132366822875
-0.442319848269
-1.73605432184
-1.19029266394
-1.48701727895
-0.316734789931
-0.316948144586
-1.51378877697
-0.654187725804
0.708584918065
0.983489750714
0.757626445452
-0.606830700051
1.15258120677
0.623403269725
-1.69690963855
1.6367202904
0.834484961082
0.477372000869
-0.393077174532
0.911715563213
-0.815835314726
0.0749006296259
-0.0148435254327
-0.159462605043
0.990568738001
-2.26916526934
-0.384556111425
1.2100866539
-0.376679741272
-0.583809848092
0.539043654539
-0.697496942827
0.29130954871
-0.607365653384
0.59137904938
-0.645903913231
1.03709584876
-0.66260796642
0.913617585363
0.743102999381
-0.210235880263
-0.492754725597
1.30796608146
-0.686398559573
-1.83345983741
-0.113512482547
-0.311369423335
0.635657816222
-0.386131368621
-0.0804344082312
-1.09561650468
-1.54827944818
-0.834179695544
-0.955729483352
-1.7274616892
-0.489595870278
-0.449173932176
0.894865940016
0.171006868994
-0.495551377365
-1.1301099684
1.44764671189
0.562455887622
-1.74152254015
0.138190878981
-1.9746339685
0.298275562421
0.325868234827
0.0449454950247
-1.7545285936
1.06549055534
1.8586544437
-1.05344033984
0.294201475133
1.65295078167
-1.09632957491
1.34187855177
1.03054655973
-0.0877028326713
2.45746820874
-0.533412627341
0.378771695421
-0.509694037631
-0.697448246963
-1.20714701608
0.11432750719
0.550944632369
-0.600284550761
-0.771507936282
1.22109424374
-0.936545081419
0.211662677438
-1.00607177943
-0.531238428763
0.375309094825
-0.0288498579194
1.1488866543
1.38402425117
1.70278119593
-0.685431432583
-1.12843115291
-1.57865719698
0.435198076017
-0.10430390762
-2.06216721845
0.739088298165
0.822272466357
-0.340550285186
-0.732674359173
-0.859223014025
1.17891405372
-0.107583183665
1.17884877631
0.866419016485
0.849620056682
-0.386005265977
1.0156980395
-0.631317644314
-0.752661602348
-0.126920931092
0.858353902555
-0.706426154266
-0.629234099295
-1.73242461419
0.919196923972
-0.994932860962
-1.73747960539
-0.195198280404
0.720419317304
-0.294398563865
0.179887548416
-0.984918213084
0.983804575696
1.4819150628
-0.0701116906509
-0.091973234974
0.734652871151
-0.54154340882
-1.62080737925
1.10542998567
2.01644432986
-1.49926883625
-0.115701772363
1.15242119534
-1.68563250545
1.95226451622
-0.372408158857
0.35336940818
0.0888121032195
-0.0188214863609
0.244521477913
-0.264938791245
-0.582750858729
0.334801039984
0.647822038442
0.195449204094
-1.06860648693
0.404956973489
0.328074762983
-2.2219803885
-0.480770350425
0.481432687053
0.719701237597
-0.456070744939
-0.310912244862
-1.43475403531
-1.49982382511
0.179325700737
-0.370490355134
0.610752636249
0.881456433792
0.0773055070132
-0.592361061633
-0.896107585445
-0.104548954985
-1.00179734883
0.601318085986
-1.48102311593
0.670187218909
-0.278384042578
-1.4692498441
1.0969508331
-1.63948281382
-0.44862225096
-1.18222156431
-0.589492880747
-0.834846301501
0.0707670474629
0.160151243148
-0.212314892787
-0.605682057052
0.657515329128
0.370085374644
-0.366877010919
-1.47737275224
-1.0216375268
-0.31642615944
0.340873766117
-1.45450367462
-1.51993813229
-1.40104645857
0.937114915613
-0.619811773183
1.80525444098
0.294472720038
-0.952776274604
1.75617736955
0.351522396524
-0.317263598186
0.541541732206
3.38479696885
0.568432994013
0.654783170327
0.0166056351721
-0.852752824285
-1.41182014092
1.13998204433
0.539173761268
-0.55570580656
1.76184854991
-0.0308598967186
-1.22730875561
-0.997885814359
0.337405946317
0.453150209501
-0.0761323405469
1.43914628147
-0.214794521328
-1.36077838269
0.33606014689
0.923228808931
-0.350203700062
2.45361712498
-1.70084100239
1.31271168828
0.4334929655
-0.692531443092
0.19848261814
-0.635277545647
-0.124067232641
-0.21071704027
0.919622182068
-0.647763232864
1.1876987027
1.53115481239
-0.253398587083
-0.384257362462
1.43204952909
-0.676809096837
0.58291826873
0.383589343647
0.656195074598
0.104305153945
-0.419314099207
-1.7482397745
-1.64059250501
0.59506707995
1.68157431083
-0.618426638445
-0.292196783175
0.203576648807
-0.0384614954249
-0.106604693462
0.741076484449
-1.75842700252
0.0661778131909
-0.460089345798
-0.852791104316
0.901336847461
0.583672323222
0.0266604018419
0.63797440093
-2.20816683221
0.786154895115
-0.511312102077
-0.362912885807
0.0548539425678
1.38569373563
-0.471703089493
-0.202325504206
0.810169612544
-1.61232759017
0.610608018825
-1.84406441336
-1.52828981465
-1.53230759433
-0.159885950867
0.831514543328
-0.815354160226
-1.48755311543
-1.13665803852
0.843570681724
-0.401321874297
-0.915589293294
-0.529639996996
0.417844967885
-1.37234619551
-0.774995040943
-1.01496604104
-0.235174200202
-1.58119378375
-1.26336152417
0.00515560507737
-0.824816911749
0.249863862543
-0.757239035041
0.288303792408
-0.316524555636
0.101008043105
0.351816242363
-1.13787127644
0.230360208217
-0.485085100415
-0.893339608999
0.151577005512
1.3236858015
-1.10210377533
-0.878468625862
0.563269809046
0.227444838621
-0.430747820516
1.0781651304
0.0488223427101
1.12565507753
0.860136615595
1.31253444987
-0.926773760057
-0.135929395897
0.348385411193
0.342504476114
0.182263543418
0.570844201441
0.444550915421
1.14820377064
0.228094526491
-0.832898590475
0.402103045092
0.519093049992
-1.38607853481
-1.94955322673
0.00025702104596
-1.37982780181
0.40326918539
-0.987153575216
1.05121217835
-0.0317203551348
1.28615561757
-0.177998116566
2.27877180896
0.618617063693
-1.02749902081
0.618380110412
-0.0710612844775
-1.28685059535
-0.651418178329
0.559636373932
-0.514082481763
1.63671789707
-0.0178300251477
-0.898480564813
-0.942165513495
-1.14627705175
-0.908753476177
-0.780018728608
1.13840838892
-0.614650246703
-0.884737192242
-1.3276618956
-0.14566262872
-0.976609813302
-1.31695578099
0.267217489811
0.251790175013
0.286070399148
0.201563728834
0.121466090357
1.29710035712
0.192001250877
-0.0875278161994
-0.370083629444
0.681088875762
-0.287711914091
1.0948148857
-0.292927317574
1.04873966623
0.00550071728671
0.184169841914
-0.81719778413
-0.223156181958
-0.640904642081
-0.211161803665
0.288910356272
-0.601773711665
-0.279345103814
-0.482407739577
-1.87046533986
-0.41493719409
1.50825796229
-1.44394391398
-0.395528461319
1.14256213831
-1.19249566113
-1.45293351196
0.773002305113
-1.42743951905
1.43911642854
1.47614613304
-0.00606544190616
1.62482883698
-2.08264071947
0.693113752839
-0.110823083195
-1.2512375613
-0.372006856812
-0.204516924006
-1.13671176098
0.803162625718
-2.53846224875
-0.190090472157
-0.946251218204
-0.613967009292
-0.0949983448178
-1.77384003233
0.308516101088
-1.35494722847
-1.04509307851
-0.0390715239309
-0.516368282265
-1.87067226085
0.172908595449
0.0565304504771
0.525491905058
-0.282210632755
-0.0644242396998
-0.502606354927
-1.86245934234
-0.0974289004319
-0.0529945881303
-1.07245392057
-0.236465612506
0.0537975534906
-0.473002979455
-1.18891533735
-2.20557158922
0.0134081252868
2.60013844782
-2.17723019607
0.509145808775
-0.112476575762
0.00604080378569
2.18751077313
-1.20610872845
-0.896743207126
1.67860916992
0.819595966473
0.182720575425
1.21259103011
-0.198623023164
0.764979655161
-1.48698652294
-1.23991342226
0.960858013045
1.70242124252
0.791380887976
-0.340258439982
-0.525505135526
1.85901031979
1.02119903777
0.245943810324
-0.766872209694
-0.0355148263649
-0.381041477207
-0.0467945928776
-1.27351819453
-0.138560164731
0.519788374044
0.150285107845
0.716152797096
-1.73296889257
-1.12114177048
-0.603836197487
-1.13908627261
-1.18635138012
1.13617724263
-1.091215796
-0.478383163298
0.150170124638
-0.85309087926
0.213110541641
-1.57194186761
0.323636746264
-1.67414297515
0.704624483064
0.989498990937
-0.894618570764
0.747826207351
-0.371617844228
-1.82259815652
-0.039777062399
0.360101116899
1.58811899583
-0.913490523233
0.812037670652
-1.29710398352
0.97722170197
-1.05084704981
-0.859171003111
1.72098842251
0.65647924194
0.402970266378
-0.391572260262
0.831964909735
0.4668377466
-1.99849260758
-0.783226837638
1.34604830881
0.0715574849227
-0.734870044956
-1.16423305312
0.383774184105
-1.6335175177
1.05465987088
-0.78639390229
-0.862070188905
-0.290617103314
-0.96934163629
0.497768093108
1.19197786804
-0.907182339798
-0.021827056595
-0.637216457711
-0.318441317045
1.73289801571
0.85164328577
-0.607855993276
1.4141087115
1.83777173395
1.15643670165
-0.441203835218
0.224799970836
-1.82649307826
-0.795761030932
0.191077626631
-1.2170658031
-0.861105611363
0.706433175868
-0.586928505499
0.350193543713
-0.0312955870868
-0.00826556780591
-0.199912618588
-0.693676244499
-0.77522858692
1.68262267428
1.16414518082
0.494819975759
-0.638678904201
0.0199885486548
-1.24283641556
-0.861521896547
-0.00586628720563
1.46740988229
-0.0143821714606
0.384975258713
-0.462220543748
-0.379350352326
-0.142691544891
0.127735537522
0.345435884264
0.932347179826
-0.237872898023
0.60890522543
0.927044375742
-1.12175880883
-0.399534529531
0.149734079404
0.683861973513
1.6772666349
-0.269034631643
-0.910922756823
-0.0363984118318
-0.278717658008
-0.326636546794
-0.648114754793
1.30202726376
-0.19301309235
-0.454646711359
-1.90114992011
-0.668406984135
0.153988757751
-1.04240938791
-1.05841172841
1.11198900452
1.14358949113
-0.105111488515
2.03836460036
0.572315963027
-1.18202761363
-0.532691492619
-2.20546172342
0.603335955321
-0.974570410506
-0.848785509864
0.3453305365
-0.101292732939
-0.502902465241
0.560464922321
-0.290910242921
1.01213967152
0.181759819738
0.188134795188
0.372321154311
-0.944238910079
-0.682610248196
1.23548732302
-0.0967316401277
-0.957963405212
-1.28882490167
-0.362999742719
-0.18381573791
0.267977883147
0.0628223718218
1.0314816488
0.872558640253
1.06547070765
0.803945625708
-1.33575718492
0.0256074660848
-0.0531514142405
0.103912486364
-0.0104236482578
-1.56130736772
-1.2913435979
-2.03323497386
1.99618941058
-0.338543304497
0.0807685112244
1.07757978159
0.169290641802
-0.576194923249
1.08361576991
0.888022430043
-0.284000929667
-1.43978097592
0.405016792556
0.630224469041
-1.51011045427
0.445971622477
-1.43883518181
1.30596608359
-0.116368094349
-0.0222219734755
-0.516678593583
0.214063818123
-1.81105530263
1.82941592555
-0.408378528152
0.343607276047
0.84449916461
0.0885888193474
1.38064138846
-0.110119828098
-0.224391351229
0.660381259686
-0.12591530196
0.71730044269
0.504554742811
1.12766330892
-0.235027964068
-0.255657493448
-0.572071553601
-0.605508909202
1.14743859555
-1.13627688764
-0.233365149321
1.09247884385
0.751647977868
-0.896082697318
-0.995638189166
0.277242124034
1.01767993235
-0.0717272283731
1.21997868815
-1.16281281809
0.794706333997
0.528469262311
-1.25175469846
-0.320946357991
0.819361435089
-1.06385241986
0.379895491985
0.172103070954
2.12730353214
1.15979407852
-0.244144894789
-1.25252027358
-0.68856338995
0.0616217524647
-2.30932670218
1.4203126036
-0.840551126597
-0.466828074161
-0.827115834727
1.03432092023
-0.454465027535
-1.06419861298
-1.95526226627
-0.41154842192
-0.91616851014
-0.352927470299
0.888081576404
0.860414500269
0.253800250889
0.0209943289451
-1.41222571428
0.303957788985
0.666005838899
0.743169403774
0.558067640897
-0.582111930831
-1.88990158328
0.171178797224
-0.290047381853
-1.78932671042
1.85574987581
1.88967533612
-2.11907734732
1.4920413243
0.872331060399
-1.47045579675
-2.17240124456
0.522958698069
1.57837850312
-0.0561345199701
1.67679867624
1.48471774581
0.843980583476
0.00999354457105
0.220733496606
-0.859307294354
0.00694103027267
0.773271495465
0.00174378545856
-1.02141207694
-0.689718266842
-0.969209639953
-0.309815556466
-1.84943294499
-0.175424321264
1.32544490281
-1.64451062778
-0.441151212126
1.24956219293
0.287060901254
-0.41380356478
0.996166989652
-0.0105431743653
1.17010090123
0.0564531189519
-0.144127022247
0.210001655593
0.0175125707607
0.714957256974
0.698951945384
-1.2303076775
0.551469485676
-1.58302428224
1.15217434554
-0.182767325829
0.640252410539
-1.1866168891
1.54135013599
0.42521789174
1.0353770158
0.192317085588
-0.907874868839
0.205438063759
-0.889353514449
0.711020822884
0.709992699777
-0.0950912273171
-0.1656642229
-1.30022233393
-1.49007952963
0.860284579921
-0.264132199621
-0.607767109194
1.20549575296
-1.40108381786
0.00470304990911
2.68890755972
0.841478496228
-0.0789172515298
0.71433997227
-0.585983334375
0.853403126838
0.391020348535
-0.466140084576
0.624163134731
-1.68630194086
0.647110254444
-0.128936205296
0.30294466995
-0.412526121108
0.330364260964
0.475709577232
0.26247003049
2.12618441841
-0.761144912837
0.423789786629
-0.314532568946
0.065011078088
-1.45240414124
-0.567530547124
-0.454650753323
1.07189245263
-1.84971993564
-1.52022419243
0.338782602874
1.59969480787
0.662705818271
0.490251187039
0.495418210892
-1.58037733967
0.773563939681
-1.61250602273
0.712966924998
0.717716998455
-0.959195926553
1.48210843348
-0.117224723364
0.622180076428
0.9060029268
-0.21490203221
-0.130533735167
-0.0722881135797
0.701468554711
-1.24226161738
-0.857038911548
0.378767748438
0.260394992381
0.239637467411
-1.89135197337
0.225450028872
-0.648608456302
2.54329818872
1.57303125109
-0.577650474253
-1.2732024455
-0.467609322422
0.601211248362
1.01725155579
0.495261077856
0.261459979956
-0.0491028304574
1.20387194833
1.60998134271
-1.52505620156
2.24075590569
-0.321400278866
-0.334400003286
-1.11720380266
0.613753193869
0.25681798916
-0.338143430199
-0.138671595049
-0.573841578221
-0.413369971674
-1.42008816023
0.887359002194
0.135974238504
-0.544151303404
-0.0137038265069
0.533948360812
-1.35813357454
1.3813062793
0.67358986233
0.911592430562
-0.216654027156
0.3345359491
0.75354005628
-0.116508970815
-0.962623010152
-0.605895522202
-1.07125003416
1.75943259682
0.903736331663
-1.93475286642
1.16522822415
-0.548273570502
-1.03738250875
0.334829254871
-1.3633461515
0.959752419956
-0.174127806055
-2.11275640683
1.09398805996
-0.383210462837
0.151911524833
-0.804972732658
-0.0514027753343
1.07080729476
0.111055872718
-1.41399855808
-0.825153418985
0.470154592186
0.455225928258
0.147165719943
-1.70397287644
0.414315547999
-0.194865602481
-0.210305071443
-0.342269815364
-2.02920957965
0.76669401974
0.213737951942
-1.29743342747
-0.624549450152
-0.14578406431
-0.288874158195
1.12262398901
0.700617041803
1.40836579682
-1.09123444189
0.014656857603
-0.987742894725
1.28957963271
2.44293253055
0.941145547791
-0.49974093431
-0.809357270384
0.292383281855
0.0714675802717
-0.672404584005
1.08642464105
0.970247866305
0.172085138173
-0.114762963606
0.699635489196
0.0759442903908
-0.410361056205
-0.189692671083
-1.23668764041
-1.02691323735
-0.216461120893
0.0723297217783
-1.06501583518
-0.885485056764
0.871046738505
-1.11032318985
-1.11924965609
-0.825295168144
-0.70087830228
0.168178541242
0.0262441131594
-0.866291386031
0.0252761479513
0.091614986956
0.483367035751
-0.609246631252
-0.0391859237149
-0.195724372043
-0.867361554033
-0.831399623784
0.566659557978
0.417414511919
-0.744781353985
0.290523698718
-0.390533921854
-1.45337289495
-0.399164071351
-1.10991888203
-0.780842454491
1.03180422082
1.11981830565
0.624093794069
0.205990942803
0.438292025889
0.902530570609
-0.956817271178
1.73791190541
-0.0694232860676
-0.0554276932996
0.977120412799
-0.523227089558
0.002988945609
-0.833424146076
-1.59691329029
0.735880977248
0.0482735225723
-0.176103154305
-1.19280849251
0.0909315160128
0.249066275694
-0.0420484746835
-0.00148927221994
-0.838649233918
0.699931935853
0.478565411704
-1.39000720004
-0.170608969286
-1.05616026308
-0.647021954022
-0.262171281901
0.404585384531
-0.657872054581
-1.44339921433
0.676250295491
-2.5504391312
1.24826611727
-0.241564094425
-1.96319269791
0.147214926906
0.69161450062
0.187349528995
-0.0417226963309
0.352331907639
0.895090006545
-0.421910885378
0.0349433557876
-0.168414406334
1.17944433879
0.965636929168
0.362742759904
-1.26709986176
1.46132985993
-0.472410857965
0.119800752384
0.359529049007
0.806804494106
0.364615771046
0.509930097577
-0.864396965733
-0.377639107713
-0.85547311769
0.436703682649
0.354745341665
-0.243494979551
2.38987812693
0.286495307721
-0.968893003019
-1.29571298161
1.15658884664
1.50327152277
-0.48605743664
0.265708918645
1.53644260466
-1.04471714667
0.654958667632
-1.37699255883
1.28505888834
-0.308973919787
0.444456852186
0.481257443143
0.583119752417
-1.24953679438
-1.89913064322
-1.17652921906
0.296649458919
-0.568166917281
-1.62248032018
-0.0377592327904
-0.395704756061
-1.37226639364
-1.10855389587
1.10804131176
-0.303650498767
-0.599080465544
1.91104846479
0.597187329334
0.127558131154
0.340688711049
-0.485869338
-0.883802691694
0.778542334747
-0.137368761042
0.13270831769
0.416947145225
-0.931418769296
-0.942118032841
-0.209690393607
0.417494993732
0.283215824149
-0.93649824593
1.34164717544
-0.722241886428
-0.141501271059
0.604633305324
1.71154152151
0.300717335562
-0.10853413748
-0.151297393421
0.698650209232
0.903894406909
-0.282214042842
-1.14309615735
-0.509701135403
-1.85677567891
0.614514342159
-1.27786122348
