-2.41277095028
2.2326837093
0.0412860365189
2.24544400527
-2.32839856741
0.0142338216713
0.0188430250699
2.17195899467
-0.000261040094586
0.002547220281
-0.000244761693146
0.00510757416833
-0.00296936169854
-0.00255315600483
0.00369472362837
0.000850780152978
0.24221188394
-0.195033283654
-0.0036046029911
-0.206965194329
0.223362711993
0.0257751528621
0.029733956047
-0.21276393762
0.0574235659319
-0.0645846878711
0.0388945609796
-0.0611525997578
0.0565753711643
0.0893926561557
0.0643459353454
-0.062595435737
0.0137286446535
-0.00606028455374
0.109760360765
-0.00837530099506
0.0127719963117
0.160663178738
0.112060971978
-0.00640707396735
0.0115961147301
-0.0138847811175
0.092505350873
-0.0122454415651
0.0117950188891
0.0808911050333
0.0511794605982
-0.0126880251094
0.0397063350866
-0.035269635866
0.123134019739
-0.0360271575417
0.0386215941826
0.0888476391041
0.162215936759
-0.0345004564005
2.03574269464
-2.07992135377
-0.338692653479
-1.82559083625
1.82780218975
-0.652745858493
0.115580213459
-0.112111403129
-1.04719963111
-1.87822733808
1.89024345308
-0.66016643132
2.02306633298
-1.98499404616
-0.428752458209
0.163079807413
-0.147617019117
-0.974457790842
0.12397354884
-0.131889331865
-0.954096689919
-1.771373072
1.74486024821
-0.602405945094
