-0.145060170356
-0.162801913321
-0.248988598302
0.193865824163
-0.0513638312975
3.65023710784
0.0943456157142
-0.164161348151
0.642569281372
0.045122803845
0.124980614287
3.09291769785
0.01302042747
2.99084604384
0.0316394971905
-1.09517089603
-0.604234477312
0.445496859198
-0.499045963309
1.30646145541
0.0813835878969
0.117831667579
-0.533419397522
0.980803743351
-0.0835137382486
-0.276019128531
0.063868669192
-0.689550484327
0.0675616126986
0.218159443219
0.00540582592394
0.0873960571385
0.0144447681827
-0.334897918684
0.836179732616
0.020038608394
0.284758049135
0.198387368945
-0.939249254435
-0.12779022286
-0.048627898345
-0.015853161276
-0.206009123225
-0.024569849704
0.0884199694434
1.97320301148
0.488884969678
0.508872214111
-0.388451144956
-0.751100684474
0.0555238853489
0.0169243158171
-0.525711351974
-0.187481794344
0.130552950388
-1.81241137282
0.0383721907632
-0.254749449573
0.0262915749396
0.147734749643
-0.0670813661626
-0.502308236271
-1.18280044648
1.36364510683
-0.127441096488
-0.198101467172
-0.434903096575
0.0434839542233
-0.282422402595
0.0256849075059
0.0874234857764
-0.160039985772
-0.279877507735
-0.142078142819
0.15787072724
-0.0308719722794
0.3142496104
-0.19208214687
-0.0794141511619
0.0802537860273
0.00107630837766
1.2311896908
0.0724215528382
0.339715771155
-0.0349779512705
-0.0129926777216
0.00234300885934
-0.286007030489
-0.00245930789652
0.0103785314085
0.0452799766468
-0.384364937575
0.212344201293
0.646039808165
-0.0807703726939
-0.174421996312
-0.501947472382
0.636984827332
0.124467308367
0.0565440637291
0.140514589242
-0.144981255924
0.606025713957
-0.144945729617
0.180321070832
1.81797604299
-0.517843889188
-2.25022391495
-0.152818869187
-1.00035378314
0.815205448122
-1.63005399358
0.369882656047
0.477208540086
0.908518458671
-2.11688577881
0.851554671655
-1.09544948519
-1.09507827153
1.28944603646
-2.26634343336
2.97542213775
-2.53328520951
1.0462592986
0.535374731507
-1.2228963873
0.230701543881
-0.682108663085
0.762050150896
-1.55850348666
-0.367283026151
1.52382172895
-0.00262626733844
-0.0557499971416
-0.298987824134
-1.33941209184
1.04947361849
0.722251949552
-1.98086756535
2.36493417108
-2.09410452397
0.722396803057
0.315861305997
-0.72830248804
-1.8264197232
2.20599396117
-2.09255898585
0.0229826005069
-0.526630074122
-0.766815579463
