-1.78861326734
3.11299048535
-1.93517643218
1.81846899101
0.0357859807282
3.09873798109
-0.00740202774769
0.453262499304
-0.0331989583213
0.0455765290245
0.124365866889
1.35666757947
-1.21673129235
0.0427180516694
0.512810109617
0.668787933591
-0.0549774675973
0.0383774533711
0.4626883961
0.0378337547104
0.0968774180544
0.0383464037363
-0.14556202337
0.0550627406763
-1.29257710496
0.00313380173742
0.0549004787286
-0.0128328729174
1.11353918023
0.00175683900203
-0.37141217024
0.0376018428722
0.0181572086495
-0.0792773513929
-0.0372205298794
-0.0443765829293
-0.0135580728722
-0.0803528608636
0.990695229234
-0.526463703148
-0.0370430773307
0.0668015266702
0.131448029601
-0.00332933978766
-0.0164679938207
0.0708484794076
-0.00211779152035
0.106156033571
0.0833173554391
-0.0919707385862
-0.0396482491912
-0.0110858012552
0.0321176757546
-0.0915015086556
0.0185846563713
-0.00205138174643
-0.854458956944
-1.1165535349
2.21042169204
-1.95810041774
2.74971475244
-2.15909266533
1.10375609135
-2.10783913439
1.13250639576
-2.51186776327
0.759894243013
0.629868294282
1.30189830872
0.0580533719964
-2.23691781581
-1.83797210734
2.81987974765
-2.11306365374
1.09599442953
-1.85405251085
-0.556828264899
-1.12657697134
0.366246188305
0.218952790782
