-2.45682857565
2.5146931691
0.00439681568702
2.5228165678
0.0134450364313
-8.95512820568e-05
-2.48334482124
0.0164589222072
-0.00179516397014
0.000489551856385
0.00498138935972
0.000360735967818
-0.00351201601392
-0.000875752082285
-0.00085384720529
-0.000208714777922
0.250055234682
-0.247725360531
0.00636908882129
-0.237981799694
-0.00137971612044
0.00941012940298
0.242381194312
-0.000608650859977
0.067656636813
-0.0681489422818
0.00996835262228
-0.0670484363744
0.0102394076406
0.0159215980368
0.0662717926015
0.0076183112157
0.0136040207928
-0.0108261657646
0.0145141634036
-0.011304424758
0.0213759089966
0.0110776985897
0.0116115598906
0.0282550043358
0.019761581874
-0.0217985061115
0.0202852252009
-0.0181944471035
0.00245205191267
0.0138085589099
0.0184288258378
0.0113611294263
-0.000473101264885
0.00343160090025
0.0313710310242
0.00275249808507
0.0291571646299
0.0451242397308
-0.00233065213448
0.0202407428475
-0.0106964915151
0.00905158624861
0.0262331309583
0.0120592111336
0.0393595195621
0.0467301203036
-0.0115158950251
0.0389203538677
0.00734277268562
-0.00722209662238
0.0485077209384
-0.00641635071744
0.0488009646757
0.0544260696363
0.00832054124336
0.048838716974
0.00709927449133
-0.00840025559381
0.0475005017208
-0.00766260965628
0.0476718125032
0.0574296623198
0.00671428611963
0.0524088568849
0.00105176837803
-0.00205945482449
0.000309244618555
-0.00169732474153
0.000218015796539
0.00251893473586
0.000177011255035
-0.00106357125525
0.00516424822123
-0.00542170169799
0.0476717912713
-0.00999460045132
0.044410947062
0.054095573356
0.00823308437801
0.0473789990653
2.16034148403
-2.18243593304
-0.243719638673
-2.25197874134
2.26540096681
-0.641400873155
-0.0686293129004
0.0532075275049
-0.881507234235
-2.27118088096
2.26052161935
-0.599449646639
-0.049092961826
0.0738772450977
-0.873211174381
-0.0440782037506
0.0414030495032
-0.925821429641
2.20399402854
-2.18741429552
-0.244502747625
-0.0660920513951
0.0594144420694
-0.882919152325
