-0.249825503373
0.135893671609
0.0327005203298
-0.778181120057
4.12135846548
4.12960699168
-0.923541887984
0.27700766603
-1.20975890818
0.0443675610807
0.0490873842918
1.13779753374
0.0970602211325
0.0969051537796
-0.821080660734
0.833478861448
-0.68439694381
0.146465347321
-0.39211043643
0.00881366811864
0.0107317554603
0.012012292123
0.891924676353
-0.162125197262
0.190681386081
0.353692502775
0.0282645223202
-2.00056987373
0.107498707214
0.106743690093
1.391818523
-0.2421328414
0.26453399131
-0.318602470479
1.01128629663
0.0788583714909
-0.264661731818
-0.264156258493
0.0214159650813
0.0959736605851
-0.240734203096
1.02056234342
0.526124147812
0.0109223775755
0.0144585803395
0.0139762249134
-0.0776213124345
-0.111891418703
0.0329225602433
-0.348702936771
0.345271696651
-0.066292702763
-0.195595859311
-0.195943015826
-0.135527221337
-1.01159086444
1.01360051613
0.506892265794
-1.45156720039
0.5956992961
0.240169903099
-1.07753294535
-0.157200585123
-2.46134239431
0.781881873892
-2.43328333758
-0.663540978745
2.56313779313
-2.98064965147
3.35206460433
-2.80980215238
-2.9813072963
3.38090130186
-2.81657104399
1.56847096748
-1.29296145056
-1.36185395985
0.196383246033
1.23377112585
-1.25776413425
