0.0037009651872
0.0416488658037
0.00389400407154
-0.0610513614143
0.0547913732283
0.192538454521
-0.10589401963
0.0458978285918
0.00722312065345
-0.0200585548498
0.0810168620598
0.0184267963913
0.106053859845
-0.0537377850759
-0.0378491592434
0.0729201369371
0.0533043208791
0.00101188286038
-0.00255530885845
0.0173705378405
0.00891815937183
0.0400096108155
-0.082521208024
-0.0901563425148
0.0520782536781
0.0396908617022
-0.0877722516525
-0.0911439336355
0.0962950651359
0.042504636934
0.00395352428352
0.0701550345437
-0.00427697344944
-0.0577930977444
0.0636973584893
-0.0331922225023
0.137605241857
-0.0460344357648
0.0388856796929
-0.00661311457614
-0.0587503587357
-0.0950263886341
-0.073953016046
0.0710680162462
0.147340018509
0.0842069076214
0.00633508502276
-0.0249315789156
0.0350691685989
-0.00954189508099
-0.0576734489782
0.0956164527444
0.00621798832391
0.211082960488
0.145820298553
-0.0657331921938
0.0373529285341
-0.0181140837912
0.0903881736085
-0.0459798750155
0.0593459785271
0.0167968558307
-0.0328580355616
-0.0300056477919
0.0796863235442
0.044598451273
0.11032693692
-0.0236687580021
0.017540475143
0.000564685676774
0.0838491100525
-0.0457318815206
-0.0624184996403
-0.0344553464283
-0.000348554680485
0.0741969059127
0.0677583732206
0.0010774958335
-0.0684901644113
-0.0412689240815
0.0620697617762
-0.136184455451
0.0596765191745
0.143857178164
0.24656780407
0.0197362184618
0.208140490505
0.199543132936
0.0686918480967
0.0547647346549
0.209796386644
0.0596960876748
-0.0152474879238
-0.123144157785
0.0972805215777
-0.00185392678876
-0.0098733754612
0.144452357833
0.166003273327
0.245341263119
-0.0437736943109
0.175589645889
0.242360346983
-0.118075321176
0.0615997319938
0.077253874365
-0.0240131186312
0.106359178155
-0.049131739681
-0.0158237606022
-0.135523263691
-0.0674987715116
0.1252779533
0.242437971568
0.326871605315
0.0883995164391
0.15011939755
0.250065200203
-0.0484515172308
-0.0702361428921
0.12370611278
0.0617813740745
0.0906701423439
-0.107365140414
0.0411464469448
-0.213746015326
-0.0253788102015
0.0543712062527
0.129744054118
0.144688029245
0.107117198249
0.249385761381
0.124183079469
-0.0873358069869
0.0726976807878
0.0552407379717
0.00335665412284
0.158680897842
-0.0724621926261
0.283696884931
-0.0159950712279
0.049705724944
0.0264809832936
0.08029242128
0.253676489269
0.0571943232677
0.103295078977
0.0987731233331
-0.0278031081057
0.0951548801983
0.0191164755969
-0.0474337033843
0.0188166646949
-0.178581154743
-0.0134646495945
0.0952500660037
-0.0756626996432
0.0381536001735
0.0914100441071
0.168852904784
0.078433238573
0.175396532229
0.233508464336
0.0749284871752
-0.081891888283
0.0216982720902
0.0216362616565
0.0560797698939
-0.271593947752
0.0232374504438
0.0284053293083
-0.162694349216
0.249553959143
-0.210310684861
-0.263794206703
0.00304928541389
-0.111214060547
0.189541597602
-0.431066410805
0.367724616457
-0.0609284003929
-0.00871585704801
-0.0593608097949
-0.0642626898058
-0.04790764648
0.175403568825
-0.016174781562
-0.0514695599274
0.0145149719185
-0.00768215382336
0.136690281208
-0.163548782679
0.160175236573
-0.0816057091686
0.0374997480647
-0.00990317663563
0.0308796803397
-0.0378232955412
-0.151409091197
-0.00276363884112
0.0674010229001
-0.0758707784713
-0.22158343797
-0.0159721126998
-0.122535160033
0.191761506121
-0.0306872263847
0.00704107938443
-0.0891851137193
0.0608850023978
-0.0356163823293
0.00414951395678
0.00300868300573
-0.115362607871
-0.0303685453417
-0.0874556717081
-0.136648151203
-0.141257409921
-0.0164653588794
0.156515436087
0.0464733131687
0.084972778868
-0.0937733389641
-0.00622275830809
-0.000621315910849
-0.0590707190591
-0.0610588774544
-0.132323065459
-0.0896117832215
-0.0140962440818
0.0290086482076
-0.0752912293195
-0.0675242189528
-0.0210962445349
0.123663993754
0.016337703752
-0.0500536154903
0.0470805916392
-0.00736774021598
-0.0545193001669
-0.0372503839379
-0.00846776207907
-0.086748443493
-0.204656528201
-0.116379146296
0.000188668145314
0.0547296316003
-0.129490445425
0.0884438350181
0.120684614248
0.0965069047429
0.0935624148832
0.0156659063898
-0.0574297838243
-0.0628364360311
-0.0576822600849
0.112083859135
-0.0208324671695
-0.143567258984
0.00545057292949
0.0774973426169
-0.106578053995
-0.164673821465
-0.00408030446023
0.0241343213659
0.0120493064469
0.0362485109832
0.106208706014
-0.0208649168464
0.0649584417871
-0.213871440655
0.0267141646131
-0.0947518855854
0.0635084711566
-0.144985298128
0.130136408334
0.00266140662085
0.0067771877274
-0.0278214204327
0.130564421878
0.0569933305552
0.0918158595072
-0.0173439212696
0.110944356711
-0.0505748409996
-0.0386907494475
0.0911201233617
-0.0959354040808
-0.119784406035
-0.162918358514
-0.0672864140638
-0.0125893012212
-0.00500916844538
0.0275615281561
0.0353502353161
0.0323398500711
-0.0719979018609
-0.0648835328218
0.131490782601
-0.0215230327442
-0.151222694068
0.0708978438327
-0.0917160288145
-0.0113781941825
-0.203081658699
0.196163273594
-0.0523767476421
-0.0326024044765
-0.103619254526
0.0702325338079
-0.0174617390586
-0.130733329309
0.0470653812846
0.0863356073012
-0.116849136975
0.0551681424261
0.0995397272922
-0.0125116641298
0.0241686813937
0.0244015945103
0.0444106531542
0.00761252097964
-0.207506271907
-0.057371447037
-0.215283812469
0.0603007762849
-0.0448398913958
-0.0214576274926
-0.0321845010388
0.0493494261435
0.0184959745851
0.0667705067621
0.0932301074738
0.0185467180003
-0.100540144664
0.0575133466424
-0.00527168405104
-0.127340632221
0.0135893239954
0.0166750770716
-0.0237410957285
0.0250900419182
-0.067832390494
-0.0571728178881
0.0604204064459
-0.0627683816066
-0.0157988254257
-0.00249709554661
-0.0043759007291
0.0140290111665
-0.201238708208
-0.096347268612
-0.019706262002
-0.00125312223453
-0.148809625766
-0.0128861072581
-0.135284577681
-0.00402774050246
0.0881779850492
0.0350071884087
0.0239552420234
0.0748673001362
-0.0620536445536
0.009833842702
0.00816139085912
-0.0451313900404
-0.00975898265413
-0.0652597412283
0.0111552993378
0.0952885161867
-0.00661618129008
-0.0378669130369
-0.00429749050984
0.153900486782
-0.00620030578918
0.0376029249487
-0.0807457001415
-0.0775600425997
0.021360605354
0.0198296812595
-0.177605800467
0.0402045051268
-0.144132949195
0.112633119033
0.060709239954
-0.0189985527874
0.0269972993319
-0.243012051287
-0.0319908962749
0.0477498265144
0.0291856674453
0.0453312028574
-0.00492937263829
-0.107654715319
-0.0388702851338
0.111402924032
0.0020303958533
0.027277742494
0.151389704225
-0.161287165189
-0.0868695041917
0.0656889226294
0.122555537213
0.104387373058
-0.0197536726316
0.142836582363
0.0503121154534
-0.0424646715125
-0.0821461636578
0.0973777670403
-0.0751259334139
0.0235436227328
0.0152717955281
-0.103992154114
0.0707709679558
-0.0429054884543
0.0124531817194
0.0778721491837
-0.0118006015099
0.11704135094
0.080447023923
0.099738368226
0.00143424550247
-0.0355322639773
-0.00567512297519
-0.0604941667039
-0.0591868597281
-0.0437208798265
0.0570530540885
-0.0678654962858
0.0187258320292
0.0615404641796
-0.0191365118671
-0.0456444945684
0.0979984756761
0.114690386416
0.0332211192104
0.0103959977727
-0.0268168732553
0.104757506156
-0.162182379305
0.0309821089051
-0.100250821915
0.00690059036503
-0.146064907013
0.115825335526
0.106772699345
-0.168483481767
-0.186955061497
0.149842930751
0.0462928710498
0.0523816609274
0.1301105864
0.0584258546592
0.00874414136045
-0.262436428356
-0.029692283498
-0.197604325784
0.0925898951146
-0.0403762082903
-0.0632502296308
-0.102315418504
-0.179027982983
-0.00657162949258
0.0888498839773
-0.0233052299996
-0.0156108686867
0.104081012078
-0.00154185198036
-0.0949136395354
0.1000157464
-0.0182328264078
-0.029052921245
0.14742865312
0.157063385738
-0.00391566303129
0.0784928140306
0.0653638608151
0.0804204622916
-0.0219271020634
-0.0466470761903
-0.0238747410036
-0.0670355413551
-0.00909412082113
-0.00204588051039
0.115812099115
-0.0211825235449
-0.141715548598
-0.0226127258483
-0.043178100587
0.0921839786054
-0.0564468845214
-0.128076054081
-0.0297008916629
0.043956713142
-0.0166800928553
-0.058267966365
0.0479120706511
-0.00819424800417
0.0328532259598
-0.116628705218
-0.0150743703382
-0.15418823582
0.0748273744124
-0.0262271262212
0.075542107317
-0.00744655367027
0.133202709312
-0.127792617186
0.106196590218
0.000990423207016
-0.0917683566471
0.139093087971
0.00944972552863
0.112596381754
-0.0571751587979
-0.0564490471835
-0.204811434446
0.0710779254364
-0.171328499554
0.0272378161521
0.0764107704907
0.0918369678119
-0.0260344158524
0.122384564189
0.00244533519193
0.0171655380912
0.0134979153864
-0.0491988374853
0.0346535657082
0.0210161006198
0.0670149251206
-0.0990573417152
0.0593361877052
0.0909423586504
0.119115905643
0.096107816203
0.0491211194056
0.124756675531
-0.00753252115865
-0.00529681487027
0.0343772949231
0.0308075879537
-0.0896519629054
-0.0428581880441
0.19321755788
0.0271117514568
-0.0450045454634
0.0629575429693
0.028557520201
0.0906630161962
0.00576746848318
-0.025142506489
-0.0146346550645
-0.0762163881655
0.0123231566421
0.0110918496798
-0.00177818341092
-0.124913344909
-0.047606935827
0.138479020373
-0.0328280969506
-0.00771121023855
0.108610375226
0.107570648944
-0.0436657304454
0.0121346649638
0.0397734764059
0.116802536459
-0.0737531376022
-0.0509234307385
-0.00640010608606
-0.100883199797
-0.0807352568177
-0.0137093156238
0.14921207781
-0.0444197309934
-0.000869480003237
-0.0642099385083
0.0132343866289
-0.0142205746863
0.0402441131532
-0.0574839125396
0.0239702232231
-0.00273005142457
-0.185461198384
-0.000987433251843
-0.0411476811392
0.00497078401975
-0.0297896481941
-0.00238381864287
0.0146130891008
-0.126466341977
-0.0188336468979
0.146992616439
-0.020984670204
0.125044390638
0.082493420156
0.133198084634
-0.0104729359853
0.0130893258957
-0.0886415546303
-0.0249016360768
-0.122370231202
-0.144705102622
0.0576466290766
0.0135464914
0.0372239451069
0.0944828106197
0.182609012697
0.000746768057626
0.00801992688962
-0.0767113132794
0.129623697105
-0.0245860114572
-0.149839678732
-0.0168752254532
-0.0564052908424
-0.0477656152714
-0.111630112304
0.165168033779
-0.012541331
-0.0503542429899
0.0292895718665
0.022758386234
0.0635408481613
-0.114722461179
-0.0761408816731
0.115234494168
-0.139052879293
-0.00111977907444
0.053098286836
0.07335274544
0.276612072262
-0.030515938743
0.224939843616
-0.0548417814129
-0.110272149994
-0.0948009801617
-0.199109045188
0.0179855428229
-0.0570469068371
-0.043076724425
-0.116666843225
-0.107148276768
-0.0608684165048
0.0107837289995
0.0340765100157
0.176731486914
-0.0234940625964
0.151851705738
-0.00479977290546
-0.0544583487827
-0.0229013122403
0.137500154566
-0.0720859479299
0.0095662315
0.00590677431346
-0.0192256233028
0.0500104747644
-0.0572967580097
0.0421145977909
-0.0276439494694
0.0531728251792
0.0143417275826
0.244582261407
-0.0622358975358
-0.010513172589
0.0680760705101
0.120137950211
-0.0230555745301
0.0829021613101
0.045502314312
0.114249217617
-0.085564907985
-0.0807128339085
0.0609320066059
0.00449611701341
0.108098881774
0.0834889682223
0.158684003623
0.0427901283669
-0.0031879025185
0.120847531314
0.227108214221
0.00665725146085
-0.0794398152851
0.146085913418
0.0931599528531
-0.11028593613
0.00511701410004
0.0749089733679
-0.026459163853
0.021620474454
0.0566956295272
0.297686057619
-0.0323479688654
0.000942616664413
0.0574907315646
0.175848935402
7.6736911083e-05
0.0742298730468
0.120489078883
-0.0169503837737
-0.0742425561217
0.216793174738
-0.0106373687166
0.0231166593524
0.0557600326603
0.11688575107
0.248081960623
-0.0498312506435
0.0596670652643
-0.0080414447403
0.231414032822
0.125154173911
0.137442786547
-0.0670283785185
-0.174696900712
0.0602215354573
0.355952286361
0.0111494602156
0.0435582648538
0.165078572916
0.0103191228629
0.429350208313
-0.030623086669
0.0686623762214
0.0843154118627
0.311398537036
0.122608240641
-0.370974947266
0.0541905300209
-0.243999884698
-0.0449746151055
0.11792255147
0.0371098402932
-0.0475618527711
0.0970331535591
0.0423691723815
0.114239154923
0.043704635875
-0.0145346821719
0.128779296632
0.0927598264361
0.0951405506192
-0.134460222568
-0.0417624640234
-0.101468059192
-0.133337791242
0.144377783398
0.0137487260043
0.00229276912675
0.00891759830819
0.134783001225
-0.0561358150744
0.0817538334747
-0.113351027379
-0.00146207373262
0.0418677463923
-0.0278505782172
-0.0507945518346
-0.149407248566
-0.116357700395
0.170805909901
0.00366264978394
-0.0185161521525
-0.00715117147177
0.0791628377539
0.00336807084574
-0.368862320506
-0.00776212737705
-0.089803889884
-0.00243812255062
0.320856619219
8.00252153986e-05
-0.177186394116
0.0136178440246
-0.0426183096299
0.0155370921328
-0.0860667898523
0.0370925672262
-0.0593691526792
0.265782708508
-0.0474599116431
0.0984263061875
-0.022880362936
-0.0148951947272
0.119330740325
0.200220555089
-0.0234401485485
0.0578363294786
0.0818308019436
0.0972043597124
-0.114056789723
-0.0345898022154
-0.000386093759619
-0.0115480650394
0.262207357147
-0.0252621086128
0.222590536455
0.0122830822203
-0.103395756473
0.106132816073
-0.166760698341
-0.0874643299649
-0.0040701575378
0.173088643007
0.0209858999741
-0.0356773874453
-0.0444477657483
0.0530586798408
0.0111844743419
0.0232123017532
-0.0146160904121
-0.0784919960893
0.00510398432393
-0.0385818191385
0.0930361678615
0.0234115256971
-0.0132869077663
0.115598765477
0.0461256010418
-0.166956223407
0.0546058483494
-0.0252259539615
0.0513880872276
0.031171102665
0.0598049551626
-0.0183223476176
0.0333191187962
-0.0104166534819
-0.0241048301275
0.0540062020337
-0.10974346112
0.0623364162347
0.0273907573633
0.0999941100205
0.0964427238797
0.091871049313
-0.0323524721748
0.0494764781492
0.0749416434272
-0.0664205568875
0.0168569182147
-0.0451802668948
-0.032526883258
0.00575573904017
0.0116432537882
-0.00174200417999
0.0747600627545
0.0991833849812
0.0851663203727
0.113813343211
-0.022904674215
0.0271091148795
-0.0295738571305
0.097158739111
-0.196713946199
0.0177343895107
-0.0451023047309
0.058515213594
0.00178021680165
0.0677482044344
0.0848678467551
0.0521619088319
0.151159586228
0.102265142106
-0.0189850819081
-0.0903430760969
0.0117870291307
0.0617575870511
0.0299472941567
-0.133281186336
0.0202880458552
-0.137690592924
0.115994056314
-0.00963491732512
0.00567735711526
0.0632180439827
0.050128320274
0.151389514333
-0.0578228728857
0.0703935517364
0.00733888805386
-0.0732782039298
-0.0594820604262
0.0152479484191
0.12185087624
-0.0158343212686
-0.0836721680922
-0.0238550728168
-0.0459350358226
0.0115235653632
0.000309609621684
-0.0261677737029
0.0648987832045
0.0391122952971
0.0743756121229
-0.106374586129
-0.115333211938
0.0342751236507
0.100655510595
-0.00280631496658
0.0858602433068
0.0228129261949
-0.0118533656859
-0.0724033440097
0.0470003207127
0.0726211345729
0.0663130928485
0.0825561012065
-0.000622090138792
0.083380873369
-0.0627484865198
-0.0659983232744
0.0246174922835
-0.0331071524965
0.0112868461204
-0.0226192951208
-0.121532712407
0.11840518073
-0.0368438260707
0.00245870959896
0.0153581324335
0.0248779598632
0.0686392930912
0.044247797104
-0.00766643215104
0.0487790954174
-0.0541697837551
0.0670111762868
-0.0456393281655
0.0450690659707
0.0792055454798
0.0525959896997
0.0817809889221
0.0126918761223
-0.0140384569873
-0.00290480405187
0.0780120712317
0.0805967528002
-0.095455850866
0.0835477761234
0.0267789788336
-0.13985301357
-0.0121369509519
0.0668735897144
-0.0220516808255
0.021888432594
0.0325528039951
0.00509980089691
-0.106392357974
-0.157640588402
-0.427908378561
0.040753924219
0.012754647156
-0.0903443584924
-0.100091318745
0.0991075978746
-0.15809170334
-0.00920150738573
-0.0068932241592
-0.00495333002807
-0.0356826603631
0.0385032142337
0.0195557459544
0.159660529817
-0.0385655096802
-0.0874013373474
0.0147398161896
0.133069927131
0.0905047552153
-0.00267539184242
0.0746365688067
-0.020612048811
0.0307892116629
0.0749449049428
-0.0187051050796
0.104280188731
0.105177643685
0.0216077995508
-0.0212716136839
0.0677150654858
0.21113641599
-0.0604852579495
0.116332287447
0.195813583826
0.0702848344782
0.0410415474716
-0.0194986804577
-0.0493322785048
-0.00320476038777
-0.0396915452077
-0.00792146735048
0.188387748892
0.0599763179184
0.0944029543241
0.0401007958018
0.238203687559
0.103299509987
0.0713618524124
0.278860740846
0.00825602477841
0.0372252120299
-0.182599642017
0.0242571349162
-0.0802779205525
-0.114951380465
0.0126357055714
0.0149839183855
0.0511417150975
0.0685712560327
0.0305723548202
0.140981766131
0.00180077605375
0.150711434842
0.136331687683
0.0387698722602
0.104674187713
0.0169282045331
-0.00132200166693
-0.0313923828335
0.0508779467029
-0.037093124091
0.247139584151
0.0116425949532
0.0500789752178
0.159926696467
0.25004438255
0.114858636294
-0.104799998097
0.183548979005
-0.236867908469
0.072891971034
0.0791638563239
-0.0239862505144
0.00831878306896
0.110008110981
0.109337858595
-0.194546408608
0.0468801778389
0.0830601826468
0.296490965967
-0.0527415215898
0.0578495206614
0.0481746673399
0.148448926626
-0.0331269167917
0.282877335634
-0.12502851042
-0.0026417834445
-0.0372139696793
-0.147115754736
-0.16649791748
0.111906484488
-0.0387481771412
0.150701664318
0.0647692717518
0.177326930611
0.059444113661
0.0626366720392
0.155379809098
-0.0247408034965
0.2337013799
0.046670820695
0.010272875382
-0.0708502709335
-0.0590250232603
0.0308048982948
-0.0272408721891
0.0414308057152
0.0539466059774
0.0801833199013
0.1606225419
0.12984174079
-0.0502467320386
-0.0144496042835
-0.106592788417
0.317209607932
-0.0487196047496
-0.00146303862126
0.0643084391143
0.186435587774
0.0298387826976
0.0459033651357
0.058339578795
-0.126133359983
0.350615532965
0.195754325416
-0.0208917148644
-0.0622019952273
-0.408566959813
-0.184500178572
0.140858463126
-0.132470384754
-0.0694930662994
-0.0120945903492
-0.252000657892
-0.163857074145
0.267744322355
0.294946883144
0.0626580028846
0.152849994163
0.227520675334
0.130765369532
0.251235404554
-0.253370075971
0.152557590051
0.0519738689384
0.0890656270555
-0.0585928791222
-0.103115510862
-0.00997306326204
0.00889492374393
0.0303124629362
0.0341939075182
-0.00145375641973
0.125193956206
-0.150928089434
-0.00200649266831
-0.0168645707177
-0.114749813309
-0.14196614047
0.156639984517
0.00326675581087
0.0224168433372
-0.178375607637
0.0389238733826
-0.0278455959538
-0.100604681028
0.00773099357999
-0.103363903425
0.158948176625
0.0812102401255
0.0355943982362
-0.0244334078145
-0.364100022802
-0.0751113368454
0.0967829475907
0.0507698800927
-0.0679682871664
-0.0104502299839
0.113576741584
-0.100196485259
0.0381541055011
0.00836086255898
-0.0339788284951
-0.11505135552
-0.237151346291
0.103670392316
0.0846629551374
-0.305178524135
-0.0916671726017
0.195299094886
0.0548765888305
0.0102179921585
-0.056987315345
-0.0519336827053
0.00989027302466
-0.0478599192556
0.0737548552364
0.0257065998971
-0.0261409225169
-0.132757168761
0.0933262333296
0.0965603051029
-0.196376956023
0.0318102248523
0.00503226282725
0.113984912949
0.0137084911674
-0.295379357582
-0.0385513135794
-0.00174571301549
0.0148784082181
0.0216273009467
-0.156104887962
0.122187150291
0.0347915066037
-0.0118482150006
-0.0169281520308
-0.192572875854
-0.0208014091631
0.0584879773824
0.0906256693745
0.0139023647435
-0.227725144289
-0.199935488403
0.187142862049
0.102841074865
0.106060606317
0.0173767968191
0.00281056823753
-0.245643166629
0.245890148158
-0.094804024157
-0.292624377271
-0.00318115630574
0.0655152585192
0.0397852904356
0.0189302960424
-0.0439771605751
0.00616000871097
-0.0326237043972
-0.137776595975
-0.0240345611347
-0.0254218058053
0.0068312052631
0.0231755100771
-0.00380796839677
0.0605206771871
-0.147427363426
0.14427360405
-0.0822424089282
0.0394114827791
-0.0174124317965
-0.147223973353
-0.0529337697706
0.0193665560944
0.0841355122987
0.0209679293051
0.0143805183103
-0.00146036852356
0.0574655931612
0.183220007662
-0.248380156342
-0.203706539303
-0.0217522983216
0.106022377238
0.0943522819972
-0.03756859886
-0.0532399174825
0.0677624602572
-0.0860351284415
0.0378935235183
0.0623529843257
-0.0243795625447
-0.00295615459665
-0.0254185959819
0.0840087547499
-0.25083822419
-0.248866850418
-0.00911942528945
-0.061747501612
0.0426919080792
-0.0553874640392
-0.121285808873
-0.0990517644016
-0.0631077623203
0.0203930142766
-0.000414202754775
-0.0131799262068
-0.103110727028
0.0407395966796
-0.0327132044115
-0.0734001465265
-0.0512838308825
0.162700835913
-0.0734708164256
-0.054086492212
0.032055061878
0.033770135788
0.057262373279
0.0353016147868
0.0862166028136
-0.00863516002801
-0.0567119856251
-0.0296955761454
0.00876862180402
0.0510681908517
0.0989489414741
0.00908969619808
-0.133432869752
0.0723268773836
0.0591118340659
-0.0479108035383
-0.0856865384866
0.00171311645161
-0.0906278698031
0.0688648677855
0.0313757351367
0.200023859788
-0.084723693178
0.218056146687
0.0763732068972
0.170108545889
0.232503320342
0.0132926980382
0.145431534401
0.0425180616218
0.0717303846282
-0.0113608880685
0.0318361644372
0.0776267604158
0.168624983406
0.0826002998716
0.0421505602832
-0.0634321528173
-0.0577130485764
0.0212809632351
0.173017388666
-0.0392490004545
-0.0273620441636
0.0137835185333
0.0167623176665
-0.00178924217244
-0.0194743706337
-0.0980138426876
0.0165457255938
0.196709789956
0.0870063386973
0.0317817161322
-0.0121636468266
0.182274950568
-0.0209174437521
0.104618183952
0.00832953558525
0.0404750886323
0.0359034693046
0.00207541272815
-0.000486702464129
-0.0939505593862
-0.0270106575504
0.0272209680802
0.0571723545263
-0.0261448816813
-0.0107101831073
0.0330012102531
0.0719394482551
0.0546692894411
0.087756335341
0.0902588657575
-0.0561465007226
-0.00798579517109
-0.135814028904
0.0845895300967
0.108457088615
-0.303651725603
-0.101718204776
0.378383030167
0.0269147564538
0.252154153746
-0.125278822518
-0.0680976834046
0.0856475374518
-0.14815863249
0.105578079794
-0.208063687917
0.361050637872
0.0115915521511
0.027074915716
0.0302257234965
-0.0629078760337
0.0394763017286
0.166783909149
0.0380485770138
0.0174548030799
-0.058736952685
-0.110210137806
0.0630654838611
0.108438911916
0.0652342721292
-0.0253614848063
0.102119963666
0.00545917326891
0.0219836247688
0.0875478245813
0.0166074162695
-0.171580991205
0.187097806813
-0.0880977163106
-0.0492214054112
0.0403354042207
0.124591309998
0.0122481363424
0.146114839724
-0.0363474527047
-0.16692404449
0.0143179129256
-0.103146930908
-0.0624913983933
-0.000747306836262
-0.0913463063202
-0.0614905251454
0.298256957696
0.0466363882619
-0.242313883416
-0.0264758587614
0.000489674942701
-0.108980623092
0.0518510138132
-0.115591717799
0.188505964607
0.113720528647
0.062874499
0.0686355421222
0.0308842809604
0.0691358625545
0.0580403410008
0.00041264489755
-0.00183950458692
0.0436806243706
0.14370375211
0.277742789249
0.0145967759238
0.0493921211944
0.0866946155146
-0.0167259734703
0.00776440092027
-0.0135818311211
-0.0102926267522
0.034026417372
0.0178930589065
-0.04000274765
-0.0274069174878
-0.0689327104443
-0.0123114191678
0.247427001283
0.0998854300376
-0.0650981625389
0.16891486399
0.157341041063
0.0640055142848
-0.112378291892
-0.053277360551
-0.00573708546382
0.135059241644
-0.154743706849
-0.0627554693665
0.295864722333
-0.217759782883
0.109946687775
-0.229750722557
-0.0683745497471
0.244908966566
-0.115875947579
0.00554228818342
-0.042884101057
-0.0253547254154
0.0619688281158
0.00250149748981
-0.0994507787587
-0.0415096384828
0.0101118858486
-0.28022772936
-0.0157330261381
-0.187105599454
-0.0958688874712
-0.106978114252
-0.015438727225
-0.0329498432125
-0.008027178554
-0.108830141592
0.063997812437
-0.056032020796
-0.0441564830187
0.0134177818172
0.0455805993738
-0.0459073839038
0.052671630306
-0.0450684212481
-0.104846115747
-0.0373812839525
-0.220756446026
0.169608270368
0.157355297817
-0.0412528120527
0.00399543335966
0.154792618521
0.00881147504962
-0.0259453612076
-0.00703084933917
0.0239565713152
0.0181181669096
-0.102678691159
0.0996213989044
0.0394756438355
-0.104580958873
0.0599547300951
0.0763491118346
0.142111619091
-0.136317857646
0.055480481886
0.00562810863691
0.00645050173776
-0.0125828643755
-0.0621423178248
-0.0427719619205
0.0202542546755
-0.0895493852971
0.0880898746343
-0.0869853017863
-0.0049849405715
0.125206567869
0.00698086273782
0.139511805247
-0.0249483054785
-0.0291292285929
-0.0921070664377
0.159391744966
-0.025845404556
-0.0701136523082
-0.0749757966511
0.0359232190261
-0.103493080935
-0.000715539129675
-0.12862563123
-0.0101480361428
0.102057809392
-0.0237486171488
0.0309959496577
0.0209004732074
0.0170539350154
-0.0355241216152
-0.0504289167708
0.0848571843983
0.124903718569
-0.0586233049983
-0.140666036853
-0.0425727873277
-0.158292248947
-0.136194012307
0.0951376434315
0.0903873778541
-0.0434314388631
0.121023824492
0.0199148011058
0.150146332474
0.00721083312495
0.0105329158546
-0.0230781012071
-0.132755872151
-0.047607518138
-0.00266576071347
-0.0471391696745
-0.0247521144441
-0.15951385699
-0.0455351149708
0.028329445752
-0.0880841864879
-0.186598414254
-0.0379184529215
0.0482834858644
0.0462305117516
0.287828136567
-0.0229054845506
-0.263125506475
-0.0826598740449
0.217230365081
0.187742462817
0.0712383010431
-0.0493747997891
-0.0608690381317
-0.0749132357956
0.064593396653
-0.313437712946
-0.111446221617
0.10677632731
0.0143170723788
0.0877249295364
0.0398801415831
-0.127613864608
-0.026830064053
0.0773311286505
-0.120919699405
0.0661502615392
-0.06102306516
-0.00430521617566
0.0743751743273
-0.0298137668202
0.0410996970879
-0.0422272897026
0.0770202228796
-0.106512376856
0.059884510682
-0.0800790359045
0.0523132674674
-0.0986730427866
-0.077636025943
0.213489000717
-0.0585853942892
-0.138760589756
-0.0662607814842
-0.0268756631508
-0.0288515155699
-0.00453491844142
0.104327667655
-0.00840883972854
-0.0790651534741
-0.0797821001986
-0.0593314225641
0.0176406383388
-0.0391892746453
-0.131938316843
-0.0209460145704
-0.0510021853323
0.212381914367
0.205507420859
0.190892707162
-0.187327425558
0.00474634693297
0.296038315343
0.125103309074
-0.0484126793045
-0.0076989218852
-0.0146272991063
0.0387474205389
0.0483486477596
-0.0238400055823
-0.00722464515322
-0.0728818581276
-0.00518756209938
-0.0557012233342
0.0378338455979
-0.0775568950727
-0.0856037447538
0.012355837476
0.106366523315
-0.145461943919
0.00192520422821
0.03185206812
0.0114469683303
-0.109219928188
-0.0875746556736
0.111151911773
0.0134927251894
-0.0499809057156
0.0146288314503
0.184330928003
-0.138012948016
-0.125699309423
0.115147182278
0.185664469757
-0.122282329912
-0.00201398381034
0.0351239644445
-0.126493468118
-0.0443777091767
0.0270796176655
0.0526435215143
-0.0512811051414
0.0453175701199
0.0415388826545
0.0280988224359
-0.0365726942539
-0.0102860598108
0.18413973897
0.149347405806
-0.165091775966
-0.0324124421391
0.0575515656332
0.00281142069593
0.00825058244493
-0.164255701915
0.246416074437
-0.122684987769
-0.12822415761
-0.197940357618
0.0663675258587
-0.0886150403881
-0.141896122113
-0.0294427504953
0.0577367025767
-0.0779373450587
0.0400704586264
0.0242097998205
0.0347638015605
-0.0117144540537
0.0595974360996
0.184928906642
-0.0394602175675
-0.034546389174
-0.102747971066
0.190323354908
-0.232410817248
-0.231422659183
0.0432729492832
-0.0648196287557
-0.0834198616397
0.0811372967057
-0.0258424950962
0.0535077421742
0.014177092627
-0.049853170373
0.115418698331
-0.00684011702734
-0.113072887407
0.161502720731
0.124990212403
-0.127500358249
-0.0916020102508
-0.0970145956912
-0.0403947670648
-0.199973099022
0.0402297310732
0.0565121000407
-0.0888861075737
0.0162085182815
0.0618902495371
0.0886833191749
0.0479813505485
-0.10608562737
0.107706119281
0.148719505491
-0.322230754391
-0.167616711668
-0.00316174874149
0.0671948235888
-0.157255481339
0.0339078845165
-0.0621417223399
0.0475755119284
0.235856797582
0.0366994489008
-0.231870937781
-0.0699045856474
0.179569242623
-0.0651627036658
-0.461529245273
-0.0930828877346
-0.43753193359
0.383847767965
-0.186446563961
0.102833208688
0.00735067549424
-0.0255531268571
0.168077906588
-0.0104427129812
-0.050220794539
-0.219372003576
-0.107461806672
-0.175025198043
0.268246100026
0.107825827021
-0.364822574391
0.0512718193578
0.196262508859
0.180553960536
-0.331007685631
0.0346764010093
-0.0963451689254
-0.0440445626211
-0.0543331766375
0.105303334719
-0.00710107694194
-0.0893518604843
0.0788531330594
0.129542810199
0.10782523259
-0.0800621974911
0.0584452083995
0.270617756221
0.0335116061362
-0.170190497288
0.0612595541206
-0.0399071238281
-0.0562975113821
-0.0210060501532
0.0227890059646
-0.135761662906
-0.0169725078144
-0.149378216326
0.0743584592692
0.162063418034
-0.162600485382
-0.00470051508843
-0.0238753969484
-0.0309358141948
-0.0958278319409
0.0463274120542
-0.00297744498818
0.0974479145848
-0.0742573546499
0.0433580141261
-0.00160056456184
0.0221420157153
-0.0639035971412
0.0288665254259
-0.260362427246
0.0309258758107
-0.0210792532511
-0.108630420423
0.0855843293847
-0.0395909820328
-0.0480207970021
-0.0471239462173
0.0718968732156
0.148392351653
0.0282630166135
-0.17878730498
-0.060357914313
-0.0107439630137
-0.115636059644
-0.28349711185
-0.0316260412961
0.262124876989
0.189683197199
-0.024612504605
-0.0322021724188
0.129955878491
0.0323437495326
0.025734067257
-0.0785111669173
0.048442731092
-0.0392152613086
0.0163242271683
-0.138078236488
0.0201487681091
0.125667715919
-0.0358887380172
0.149719259698
-0.0990609209632
-0.0175971688864
-0.117326933952
0.0908627633784
-0.0334481166519
0.103190170581
-0.0131311092817
0.000998183571025
-0.0265811561739
-0.014180078289
3.20190830612e-05
0.167765442978
-0.0565135494099
-0.0556477103073
0.0628766555735
-0.0268325109066
0.00704753313249
-0.0643519786055
0.0151378452857
-0.00478504294927
0.0609877837423
0.0532585942322
0.0022791714545
-0.0107508380678
0.00314741544897
-0.0725884706903
0.0562754824263
-0.0558273217853
-0.0241838472316
0.00284431102095
-0.19416825798
0.0281256441509
-0.104902916772
0.0244433131749
-0.00494891747916
-0.0386927593055
0.0925452188051
0.0582933847966
0.159680349867
-0.0351872161926
-0.0212638029809
0.0465272453233
-0.119545358573
-0.0473836093056
-0.216583031715
-0.123835226938
0.0223166030409
-0.0192489145431
0.142235674001
0.00927751887549
-0.0774353090389
0.0919415783458
-0.0260119343488
-0.105758353695
0.0322783986446
-0.0100741768073
0.0150104705493
-0.0808068094543
0.0427060754117
-0.203333827646
-0.0946395057202
-0.132326642296
-0.057855896291
0.163152680988
0.134903385232
-0.0607605359966
-0.0105121618395
0.0609635680367
0.0348818729727
0.00251796660949
-0.016030205966
-0.0548951814714
-0.0438616394611
-0.0324335608254
0.00287829985954
-0.00622896636093
0.0507708037082
0.0233835588959
-0.0456835471163
-0.0238455481146
0.0248597703081
0.093710002945
0.015023768307
-0.216492542015
0.0440799112435
0.149332789208
0.0554711255824
-0.083840856907
0.0467281383142
0.0794559363317
-0.0283474435766
0.203941106457
0.0963924553688
-0.0165646415024
-0.0193396485548
0.0291790579858
0.0822214221826
-0.11713800895
-0.290413022044
-0.184528852916
0.0749462701062
0.0774093498866
-0.104979224202
-0.0704271323142
0.0860688627047
-0.0212373319238
0.19029967503
-0.0172265376235
0.143006053712
0.0395368244659
-0.0106757685852
0.159863132512
-0.0406449005267
-0.15168841834
0.0302128741164
-0.0757415879203
0.0834702502695
-0.155696883442
0.138570792478
-0.034475277884
-0.00770984639822
0.236474521499
-0.0198014678044
0.0783758592813
0.0355377919273
-0.0451066153525
0.0135401541588
-0.0124939327843
-0.166067200356
0.0498804066527
0.0687078818407
0.0612441049287
-0.096007201238
0.0927814293199
0.0849897452772
0.0859012052268
0.252264908713
0.120362768544
-0.0367466022506
-0.0728477024878
-0.0742801975484
-0.0961615853679
-0.0289537325167
-0.255825696786
-0.0261064177197
0.033448422103
0.0730841758851
-0.0841364935157
0.0601423140879
0.11048283649
0.127715732439
0.237030621169
0.131401849323
-0.0193348725928
0.0143819588507
-0.0213916628334
0.150898830833
-0.065369532475
-0.137880032154
0.0590080021072
0.0467793110491
-0.18731356676
-0.462450021195
0.0148800180313
-0.070537614467
0.18223183766
0.106401533886
-0.0630056520586
0.1212676865
0.0181319149777
-0.0313121102331
0.0273281759489
0.0682834012213
-0.219197000369
0.124335109809
-0.0347316245143
0.0347129541372
-0.277296589134
0.010963793069
-0.118842592163
0.0294089860782
0.0626763802979
0.103500853039
0.0704420058913
0.122582087657
0.0298033074942
0.0922077284383
-0.099148984429
-0.298945756238
0.0769366126104
0.0678500509973
0.117983731157
-0.123814086571
0.00257640036516
0.200780220657
0.0107406402319
0.0828699782261
-0.0726440354519
0.000632332331076
0.00856323661026
-0.0780944972388
-0.0352617374956
0.0798858580281
-0.0710718255342
0.214199325812
-0.018730984627
0.182283942784
-0.0322196858073
-0.0254078805011
0.0561439061048
-0.0624181640192
0.204798310982
0.0880238671821
0.0642705948983
0.044431404499
0.021207548056
0.0477471709946
-0.00569290508505
-0.246312484548
0.0434449398902
0.113475116752
-0.0206937038208
0.0262602205737
0.0920606662191
-0.170012822008
0.209775656912
0.0569706508062
0.0165945627714
-0.133289225149
0.0322935917407
0.0334567676045
0.0959988065016
-0.11689550116
-0.165720347591
-0.00266932652922
0.130950863072
0.182304359107
0.0792566405828
-0.0753784573117
0.179059795799
0.301422790464
0.265896653672
-0.166481578241
0.135172340842
0.0052677803928
-0.197136346831
-0.00743157540699
0.0469483884547
0.0509711808107
0.131262580082
0.322484960062
-0.0659431800166
-0.0102905186514
0.190369806665
0.00677033788194
0.195079834886
0.127734084672
0.127195304595
0.0245438113002
-0.08909753729
-0.0733809424099
-0.0667559280359
-0.00082060528265
-0.0137028577568
0.00550166134325
0.0187889605831
0.175361344758
-0.217591001618
-0.0632736527441
-0.0975530491004
0.128075314918
0.106991988763
0.00658422843009
0.129889677644
-0.0404390293461
0.0302466948606
0.0181784008135
-0.0223665646558
0.0173423000966
0.0616378201108
0.13731221349
0.0447103376659
-0.308478465799
0.223628778737
0.0448230012956
0.0870766583883
0.191624880342
0.103360853299
-0.199934630334
-0.0512345045672
-0.0656439861744
0.072256078542
-0.050292266067
0.0393817027776
0.02256325187
0.0914012203049
-0.162924698242
-0.296919721985
0.0890164810782
0.267984284814
-0.0804580015413
0.148137996132
-0.050253076476
0.107348480806
0.0838859834604
-0.140851449928
-0.333833975461
-0.010717264768
0.307231900223
0.0818343901222
-0.140896463149
0.00903604374126
-0.0242923467331
0.255951860049
-0.139151862744
-0.0756016103944
-0.0298348099433
0.0227386880946
-0.0359365309154
0.000506551639507
0.117618043409
-0.00785929744862
-0.013606804381
0.0195752761759
-0.0336393358487
-0.0324383080079
-0.0494583875252
0.202935874183
-0.0232259372753
0.0423231176422
-0.129587518367
0.049081078907
-0.100368421293
-0.0165419483955
0.0351384986507
-0.0649179988922
0.0467590885477
-0.0639062205636
-0.0299795156211
0.0384969139146
-0.0621584118686
-0.0132912131196
0.0141204410088
0.0913679876982
-0.0108637050366
-0.0349676523684
0.00347321231002
-0.208408972691
-0.172595891811
-0.0647757158327
-0.0473875589393
-0.0360390579888
0.0638557263539
0.200788254391
0.0771814234389
-0.0352912673979
0.0645855201729
-0.0704546779931
0.0732389665343
-0.15351111948
-0.0956474267708
0.0767950749375
0.0321624704263
-0.0213516531127
0.034539187218
-0.00710999947692
0.00778435991256
-0.117102246557
0.0673179409895
0.0966306844008
0.00111428136856
0.0225870059928
-0.110619732466
0.0682884667557
-0.023962863063
-0.119121385931
0.026181660995
-0.143716452853
0.0592552549217
-0.0137372118318
-0.164827129236
-0.0532823940532
-0.0824452254479
0.0862061475549
0.0161178887571
-0.033877548671
0.0934118148284
0.0344881591625
-0.0443171890579
0.0455872728347
0.0412846031247
0.190344248491
-0.216306321966
-0.136335210477
-0.00308242145846
-0.0398531493402
-0.00958412511402
-0.162433766697
0.165984057303
0.107574137959
0.0547656992948
0.098108467353
0.00650691501647
-0.0187887452711
0.17299734187
0.00833994120694
0.0972777234629
-0.10002044559
-0.0501002168366
-0.0376513800015
0.104126911901
-0.175465704003
-0.123744325471
0.00547166811813
-0.0188276947716
-0.0176486380965
0.0295243713156
-0.0415787431045
-0.115909707958
0.100086012023
0.132067929443
0.187994137681
-0.133901383531
0.0644427525843
0.0166144519968
0.00627236224722
-0.0648192327237
-0.0733982181984
-0.0628617657002
0.02848062905
-0.291682674974
0.153279688645
-0.255278183375
-0.00469396650632
0.0261970805243
0.0194176185052
0.261567432848
-0.0501320565229
0.00351842164951
-0.0374082224155
-0.0379996070929
-0.0375166382098
-0.0988683701992
0.0726083781853
0.0135645134264
-0.108942769772
0.0266912297067
0.0423646565045
-0.101014918932
-0.0913311890781
0.182895532152
0.168822543008
0.00459235831818
-0.0554060334384
0.0345571812982
0.0229545433597
0.011115022552
-0.128218290421
0.113808237057
-0.00696248992313
0.0233317068665
0.072881833329
-0.0864228770579
-0.0783952507573
0.0595342534061
0.0570510367495
0.101823928343
-0.117597037905
-0.0118140134079
-0.0372604059928
-0.00917276528031
-0.114672743704
-0.113177595537
-0.0608642494704
0.0126926650349
0.140850585851
0.469677980932
-0.409717610709
0.000410139900543
0.20542087557
-0.447035875559
0.170349991012
-0.168723083161
0.0747981040044
0.0014475760217
0.0863600279632
-0.156482791396
0.0627779987157
-0.110556972377
0.0540309855046
0.0129567740203
-0.173635713662
-0.0224410885385
-0.0882547596506
0.117014120937
0.00141618389259
0.0239826091341
0.00766603071091
0.046200198213
0.0605074398106
-0.0129353046711
0.0587394686099
0.0224196667837
-0.033155808973
0.0229896637788
-0.0184724266934
0.12111398034
-0.28473598301
0.0615657379328
0.157312425671
0.0134164572023
0.00158868130386
-0.0850542157651
-0.051242450151
-0.00904708961021
-0.18983576256
0.00742923293967
0.319370336219
0.212620110044
0.369703760202
-0.0979905916834
-0.111620630179
0.0988053306689
0.170437267138
0.113092542951
-0.129899494878
-0.0828093748132
0.011786353873
-0.0661923568293
0.0110277140233
0.117345953779
0.0603567300156
0.0525519024212
0.317032085763
0.0467723039633
-0.0143588076154
0.28573890287
0.377749399897
0.0305215487009
0.115007200032
0.214227931838
-0.0242982223611
0.0196798957525
-0.236291242347
-0.0907213309571
0.107625410165
0.100933886601
-0.0936163767565
-0.141065991785
-0.0409228574399
0.0724454308714
0.174643216317
0.35467290921
-0.0449841532616
0.15184609075
0.0858967540796
0.263603246951
-0.27642175658
-0.107008005523
-0.0950275341059
-0.149105048157
0.0859024516141
-0.0414536945024
0.21604801044
-0.0179835229011
-0.199345103111
0.166741307616
-0.247291267252
0.0144336378868
0.0578609966206
0.129856029112
0.023934656724
-0.0636990510427
-0.0887363728969
-0.0489288417069
-0.0601203588835
0.0503021765362
0.0284554093896
0.0384715672293
0.0038041835133
0.15899557958
-0.00814490176604
0.127751176558
0.00596991671643
-0.0620899736491
0.242754577655
0.164567404527
-0.165729533646
-0.140352293893
-0.0876770257784
0.156807243515
0.0932733795956
-0.0926081294392
-0.126075195713
0.0256440274796
0.0953057498278
0.178942201425
0.0465792541004
0.031916338202
0.090430296625
0.030448817057
0.288379715662
-0.154514379281
-0.0939903556392
-0.0751836288942
0.0157170179968
0.099434542874
0.0465596060603
-0.00585120838197
0.0435174798237
0.140852510873
-0.187347334501
0.207539683581
0.10884507102
0.177834864232
0.103580057277
0.0719818566084
-0.0558444461994
0.0827428141209
-0.00768528887264
-0.0725358707265
-0.0943891956802
0.202640420868
0.0866627026782
0.0434190921602
0.0384008775222
0.0169541918154
-0.14497191977
0.158571811553
-0.152171617683
-0.00817995795386
-0.0832808276748
-0.00107204573937
-0.159779978298
-0.0784004256296
-0.347188537552
0.0208596817259
-0.0756510306652
0.112244280917
-0.105677372108
0.173402959523
-0.0867174113268
0.290802276052
0.200115635991
-0.549940259826
-0.322951916693
0.233750457635
-0.25218587484
-0.146139066983
-0.0162941997599
0.116532779608
0.218919694796
0.00871326097298
-0.0851411741011
-0.105703164472
0.00108339243919
-0.0138736929653
-0.107933260151
-0.0153447673403
-0.0232767462988
0.156068372705
0.0186732665908
-0.22654723499
-0.265159317664
-0.0146781620386
0.00767826386252
0.158686887967
0.0103269673599
0.0297688687267
-0.0465355911344
0.00733196513154
0.0242846308371
0.023945822513
-0.0254913414011
-0.0275338190679
0.10326862423
-0.0375345357589
-0.143632556084
-0.187563795113
-0.0162992447894
0.0922082385657
0.0661166731752
-0.0622279883385
0.0125757346452
-0.0193664506042
0.0107822786705
0.108454280901
-0.0868782104271
-0.0852379630467
-0.110804077772
0.0716670590635
0.0829190800988
-0.242355038546
-0.215054850551
-0.0219225764873
0.121705272566
0.0206290651417
-0.128725979043
0.0202614763069
-0.111129799424
0.0406383215556
0.0584416406044
-0.00887587900584
-0.146620090168
0.244517163963
0.143995176844
0.108537308747
-0.312023846897
-0.0763882141818
-0.0065990044542
0.00791250460313
-0.135716604825
0.205374627102
-0.204863108001
-0.0466627685599
0.103940733764
-0.0591961174305
-0.0632213476805
-0.0225507349312
-0.0427884453506
0.0339079270485
0.0368696816267
-0.082208288375
-0.0739891732084
0.0517262977781
0.0828289479133
-0.1164555794
-0.039206832661
-0.295658817232
-0.0879744140247
0.125403226194
-0.0885362616258
0.166121110061
-0.0698649487834
0.00461652436451
-0.00839007470285
0.151692210089
-0.035454972981
-0.0436885679757
-0.0415845733419
0.0798048004644
-0.0981291438426
0.0539224854826
-0.207781656942
0.0374710807642
-0.0563714405972
0.176336556918
-0.309191501567
0.0616167777867
-0.120186890727
-0.147332230876
0.312223054834
-0.181535238839
-0.0865331482078
0.223660898357
-0.0109999525047
0.2533218519
0.040853634944
0.112839135433
0.0113000866737
-0.154795572732
-0.289525204734
0.541099069239
-0.0110580641089
-0.235434628146
-0.333753486791
0.237895312463
-0.178003913786
-0.240323022005
0.00119695768095
-0.0167149324413
0.132690888091
0.0864594169569
-0.158777036503
0.0486437626636
-0.0460256851194
-0.0878270810045
0.0954652282025
0.0277202293478
-0.192159412644
0.0384030058494
0.179181836187
-0.0164391426535
-0.211233227751
-0.0228206606597
0.122489036509
0.0253170883437
-0.055844357284
-0.186704940838
0.0719390067295
0.098039577804
-0.23555947315
0.372448133314
-0.017497738669
-0.435101375976
-0.63101906816
0.279621787602
-0.279749720007
-0.0269453287807
0.0156476554117
0.0631035377565
-0.0556687572977
0.103892913299
-0.154056778392
0.0622601833658
-0.0797536735632
-0.048232759378
0.213473901625
-0.0163851472273
-0.00336296282473
-0.155202989524
0.111604375457
-0.0201558549613
0.175644494522
-0.0346566865707
0.0602606961936
-0.0155793238517
0.216486447428
0.0939108659603
0.0493716800847
0.0129398344412
-0.228639525089
0.280970547599
0.209812438532
0.319711318388
0.133134336656
-0.243136861272
-0.0141658595467
0.026443202056
-0.0273525717828
0.12793507549
-0.265432181338
0.190296644258
-0.267692248961
0.212811462147
-0.0759886366578
0.029759940301
-0.0224395707333
-0.037006995157
-0.0251720478707
0.150561313467
0.161043221928
-0.0604283940127
-0.131883569944
-0.01642292598
0.183463722123
0.00196078085686
0.0573276922864
-0.209591291073
-0.0357724673122
0.153926765689
-0.221055582927
0.434775065775
0.0816372379155
-0.342318945075
0.0734402556216
0.118340197958
-0.114427984523
-0.239384213737
-0.0845692598912
0.137404330564
-0.0480797195786
0.00362211170748
-0.254296035587
0.00325658893482
0.167681254814
-0.0886968956149
0.404416778442
-0.147478597151
0.308388243742
0.163828062625
0.397743694121
-0.31865935491
-0.0325488697905
-0.113816134587
-0.113128958636
0.0460315645759
0.0599471415149
0.482655547251
0.0811299531068
0.228791195349
-0.0178882516033
0.0838887252808
0.318218557094
0.00691811060511
0.233405122718
0.219793173535
0.0445633323126
-0.195934463554
-0.141432570625
-0.0649153499706
0.155825380737
0.123740271153
-0.169307494247
-0.043588358024
-0.130038860969
-0.00789244694119
-0.349107685307
-0.00700081016714
0.341603159334
0.205095279451
0.0583549074128
0.0125830634303
-0.0141375941895
-0.21524702708
0.0578015787032
-0.0820777363103
0.104380332259
-0.140049958232
0.0367600985867
0.120886276722
0.12531298334
0.024669987308
-0.0249266521056
0.21929125243
0.0159046760004
0.27459662165
-0.0931937010389
0.0319649172485
-0.106373051052
-0.0779932999546
-0.0333801565286
0.0209708711477
-0.0668003606616
0.133528215411
0.161926110827
-0.0383604583199
0.301910150627
-0.066164053857
-0.092817784525
-0.211742869554
0.0561695220663
-0.124865600517
0.0591147674288
-0.0656770363906
-0.0255457461503
-0.106773255323
0.0909369282422
0.0280470189584
0.0574790995546
-0.051588424658
0.0871245080084
-0.148736459401
-0.130169641719
0.149741751877
-0.00546212141026
-0.0122553664018
0.0330637045691
0.0114452147425
-0.0100695372093
-0.151500337547
-0.0131449745585
0.116006678456
0.0287482695618
0.0631457126304
0.0866075391547
0.0691740519019
0.192184882684
-0.130047052554
0.235173290386
-0.184514828613
-0.00365737746706
-0.0501733525349
-0.00912368865448
-0.0437566709148
0.0668172115733
0.151344127042
0.0826255947167
-0.0734757246023
-0.0671238435069
-0.123668389754
-0.0784593871932
-0.0420753408759
-0.0863018392026
0.148974272258
0.0237802129309
0.0507900307608
-0.121375303882
-0.0657990407089
-0.00997011424187
-0.0880196492334
-0.0291947459546
0.124247318483
-0.0278338668751
0.074693640079
-0.0456661440915
0.0462571152987
-0.15670720129
-0.183510247338
0.177749575066
-0.0830910859446
0.0787331656464
0.257596149816
0.137479307194
-0.0163038345693
-0.160494602278
-0.0789482974266
0.0125510023766
0.00626415954826
0.111354674258
0.177066863892
-0.0290230920551
-0.0131792752881
-0.0746832934807
0.13425834538
0.0347268404263
0.0944661724057
0.0149485362153
-0.0923357682561
-0.0653187083122
-0.108597729072
0.0619718719024
-0.116657774483
0.175492461264
0.13441962565
0.0926093788174
-0.0399873398756
0.263006584265
-0.145346498653
0.299917459633
0.0947507478256
0.25947921314
0.299212298433
-0.0198418532547
0.00237655229868
0.0181713553843
0.17941704747
0.0912130219683
0.440796815228
0.0194077893356
-0.0434005422064
0.387833554692
0.00877507606769
0.0953162789854
-0.0558425359908
0.32703722741
-0.427730325684
0.200388859698
-0.0394551971897
0.0222226084374
0.104267014164
0.037096194995
-0.0865945856795
-0.0573506214717
-0.0427404936781
-0.161836818379
0.310137356252
0.239557999092
-0.00399074498871
-0.093528918648
0.344953302165
-0.183670877629
-0.0159258476281
0.00179828416405
-0.00903454814214
0.0730506649152
0.0106801881221
0.0475378528542
-0.0467261019592
0.0925939982504
-0.163453667454
0.220197986195
-0.5092806121
0.0784864541384
0.025520013487
0.215565477727
-0.0247225421859
-0.110361482089
-0.0589900765983
0.052206249974
0.12266811324
0.132842052001
-0.015201135078
-0.0642363924947
-0.0832626805154
-0.0486376859577
-0.0171399383817
0.264586311603
-0.0112841597427
-0.175710446496
0.408387673857
-0.0909430154246
0.0319433249178
-0.0866436755668
-0.0167238091914
-0.0401462015531
0.0396217949611
0.000894537637307
-0.142786783494
-0.00976301423041
-0.0421527049424
0.0379467236817
0.338155440928
0.0486701417361
-0.21722674403
0.327306818178
-0.292177153579
0.00313000739569
-0.232110264354
-0.0270747472282
0.0640985078987
0.191122383738
-0.0528703563299
-0.347818889762
-0.0788167483871
0.136011235387
-0.201199828668
-0.341719413181
0.00836891715953
-0.442553391552
0.377883338189
-0.124357951441
-0.290242503672
-0.184305779859
0.000479128220822
0.0860733382855
0.408299163988
-0.0576110903065
0.282721268842
-0.0909583355525
-0.136037930715
-0.631272947019
0.201188683855
-0.0715825520087
-0.30978855558
0.429934564007
0.32299755449
0.189960966377
-0.128150221855
0.048605220908
0.10877959589
0.0680189312117
-0.0275862816478
-0.102946662494
-0.15476922406
-0.0527651181304
0.0247629391389
0.367372821274
0.0497059411092
-0.0797379731704
-0.147418504327
-0.27216411893
-0.16331411871
-0.0490627157773
-0.0411125685624
0.0275138375139
-0.283076175674
-0.0071275589517
-0.33306267538
-0.0471455790847
-0.0873115968098
0.12443727201
0.543523245515
-0.131617478756
-0.0594096632194
0.0964409964842
0.191676396007
-0.098363552917
-0.103436171642
-0.0119603663217
0.193744206293
-0.176881649179
0.0678056142797
-0.340122889396
0.0105176672224
0.0440004533937
0.0890585772724
0.666305728671
0.0761370757301
0.124894837661
0.0105549649861
-0.0986678267997
-0.176268329441
-0.643244948403
-0.153448634308
0.330626109908
0.17095790422
-0.0611785620538
-0.478764942754
-0.133350185369
0.214907382873
0.494317331501
0.372817538123
-0.0781620129566
0.292419822562
0.630228785434
0.581805202336
-0.913493776896
-0.22297705264
-0.138663522066
-0.0575645668867
-0.0221904657702
-0.150043506417
0.457561753761
0.0666398626599
0.206251306824
-0.0255631084238
0.0915311912669
-0.0410715932511
-0.20292272036
-0.151768971545
0.23443058634
-0.424058504088
-0.227910195709
-0.113751592715
0.107293474061
0.193900403925
0.17266776057
-0.219101782776
-0.0883200792594
0.00674321225406
0.223849714519
-0.417669508043
0.0154967814356
-0.236234694377
0.489999577294
0.072846666971
-0.309213632062
-0.162015453696
-0.0861140457925
0.128216631946
0.0240612347663
0.0555848508531
-0.073265890381
0.00407056548753
0.0887909590437
0.276780154291
0.0684643269103
-0.0348705839032
-0.0707939900368
0.0379250497903
0.199983848218
-0.241920381324
-0.13725950475
-0.149555217606
-0.0223467802551
0.215960210401
0.066521929235
0.100837449774
0.0608869039003
0.115620207055
-0.210199588395
0.373033777426
-0.0815870682758
0.0370597902243
0.30489118516
0.13043887883
-0.185184587146
-0.171453785491
-0.175648375163
0.0189596081184
-0.0496921605489
0.184007089696
0.255207333296
-0.0194911010466
0.0618433967747
-0.199112366466
-0.0678849393043
0.0600490674928
0.343971827561
0.283415002926
-0.0211968977468
0.425111687731
-0.0689517804058
-0.0287804047384
-0.121343554845
-0.281025440399
-0.178579076376
0.306787831851
-0.0562972536107
0.297967893688
-0.0429205793304
0.294569160363
0.251774601224
0.130676315848
-0.136375958659
0.251363226717
0.321219153759
-0.203272004842
-0.0848828498682
0.0732791988665
0.231392370481
0.0350717543862
-0.0115074154093
-0.0654521413724
0.122786821609
-0.0772166467623
0.238329647384
-0.0195297298559
-0.485488092759
0.234255972548
0.149133905725
-0.140092103646
-0.063156234347
0.0145375116188
-0.105107188145
-0.0525872470769
0.209763444319
0.0450571084727
0.137121276657
0.00818250957501
-0.02107861731
0.0976569344715
-0.0401961308318
-0.350950439368
-0.217529208516
-0.0306773774548
-0.102540212593
-0.223895066175
-0.0345298289416
-0.0199081672868
0.0788706573448
-0.143838801313
-0.0291944982379
-0.0543702973031
0.183124614055
-0.0226197500068
0.104652140843
-0.0199857012178
0.160390875395
-0.0736488265879
0.285538005804
-0.387416173427
-0.203783164882
-0.0647829711184
-0.0458826811129
0.0181713789415
-0.0845970782556
0.0234379350583
0.0235460223731
0.132321519578
0.0938004644304
0.0808259843685
-0.00239433092835
0.0501748458104
-0.11145663612
0.264697919799
-0.298798789643
0.0602164321864
0.00528358674817
-0.0674490084632
0.14973387089
0.0617161102149
0.332303516725
0.11067243326
-0.30180648758
0.051712927599
-0.264716530033
0.0367696841312
-0.0619673493366
-0.0581759108126
-0.203567016326
0.238272413412
-0.108734184683
0.14052097097
0.098943853809
0.309181062326
-0.0490543559303
0.129267599472
0.052763066741
-0.238434067649
-0.317227258997
-0.193344976456
0.014006697227
0.277855659573
-0.465383546284
-0.145995535223
0.363989074378
-0.138509531145
-0.0628791486868
0.163866611485
0.302599658358
-0.00183392816024
0.0477086255665
-0.0142455094946
-0.0982752267423
-0.272133414562
-0.368288067378
-0.000132539270808
-0.338524291797
-0.674645390411
-0.0938152120358
-0.254005534944
-0.149709245041
-0.109441293837
0.106739825969
0.183569249017
-0.120932168949
0.515013760502
-0.026839695004
0.488009464478
0.0865707423872
-0.0342762183191
-0.190113290083
0.389982761623
-0.254935139276
-0.209972273589
0.562462382477
-0.0202079296531
0.240854584602
-0.0838502611601
0.177456935963
0.0475552866325
-0.0721900898227
-0.0589413414926
-0.501561683371
0.0337895696057
-0.370273773807
-0.0200814231892
-0.431730044191
-0.591886509358
-0.0686196554457
0.185774052872
-0.166134183124
0.0112792471201
0.0683498023517
0.219005176418
-0.0364623133843
0.530202150436
0.00366657817168
-0.341999180374
-0.226450431763
-0.304307328018
0.0415829157937
-0.0921938340903
-0.498105467334
-0.439277167798
0.0829238321458
0.116956159706
0.0207369623474
0.0568622880644
0.0614907544282
0.0561094817136
0.55431350983
-0.0716511311102
-0.458590472947
0.0521020802823
-0.124054637757
-0.10525703357
-0.244349631577
-0.141680660671
-0.110799901583
-0.180944785078
0.116686877616
-0.0743179345084
0.085503841364
0.401185465716
0.441654534833
0.896380040747
-0.11760930311
-0.458201733297
-0.351019665982
-0.0664320497836
0.0924721842312
0.394507363665
0.480272852214
-0.464886947343
-0.222424437906
0.0931916406225
0.0548116758874
0.0212537187398
0.340153999739
-0.00610041448631
0.531273118845
0.0513335351062
-0.682518301415
-0.321411644169
-0.368646960329
-0.136224766133
-0.500042206169
-0.698239372209
-0.574500819084
-0.0638166975314
-0.206468581253
-0.117859016261
0.183786076012
-0.0336352584799
-0.124339695455
0.798519559743
-0.0735127862764
-0.894394860312
0.055960809441
-0.390045598973
0.0245112918162
0.448684333692
-0.957622906575
-0.393002999537
0.471820798276
0.449458911895
0.103579004341
0.272232978044
-0.167199739418
0.443118050265
-0.397729164459
0.366037996877
0.134938463937
-0.172448680397
-0.212782145608
0.0313574972264
0.160024769048
-0.191129652171
-0.598148934966
0.43067191114
0.411417947092
0.129760129513
-0.0727813721126
-0.454640793838
0.188421172655
-0.324418335945
-0.0420556318781
0.215135301286
-0.06083036585
-0.455112382271
0.530603790932
-0.723051744222
-0.207495625829
-0.316947198122
0.599734620449
0.499172330358
0.0146704234652
-0.487781543517
-0.15297955088
0.28762085664
-0.154646638478
-0.0133257287178
-0.00663203283193
-0.0307596055042
-0.242566365263
-0.052584420441
-0.463374599889
-0.394800118665
0.238723603703
0.69251441521
0.337328923408
-0.149927802324
0.0121650170113
-0.150408181684
0.354695768256
-0.00641067958394
0.356934039496
0.163396963576
-0.291650928702
0.34496130125
0.251050523858
0.500071505389
-0.329407861642
-0.514449918851
0.788641481786
0.42137193627
0.0735426501539
-0.0113280699307
-0.156430390424
0.0435275379062
-0.0130018756135
0.236670883342
0.127934829903
-0.239384360232
-0.129007523952
0.164320608758
-0.320815667228
-0.0963602251198
-0.326172502676
0.571475185063
0.400688677574
-0.0672444016674
-0.0389009302399
-0.0117567300155
0.185731390368
-0.0219622885028
0.293995840041
0.110699612894
-0.0342221697839
-0.0788782660324
0.581163331853
-0.253069708378
-0.133031967172
-0.243470458994
0.318374223091
0.1007046904
0.164492897792
0.21608212542
-0.135619951329
0.402138760743
0.159373157612
-0.123237771323
0.104009765634
-0.186278531177
-0.298176122569
0.501776166262
-0.0545460054046
0.271382101009
-0.123825152234
0.783126793303
0.483759520212
0.0290189232019
-0.307803292467
-0.0939323789131
0.375127902876
-0.233593800237
-0.101629260378
-0.0966200522721
-0.140671217455
-0.287837709566
0.267392674617
-0.397793502537
-0.197189770611
-0.270884289025
-0.010197321896
-0.266527974499
-0.110893157132
0.0994276146373
-0.0332454322587
-0.217864910174
-0.216809499087
0.1144822518
0.110324972591
-0.100586371523
0.237904251005
0.280433265493
0.113419602013
0.144782812414
-0.155821490355
-0.183962409702
0.441033993371
0.149582658163
-0.192986532161
-0.235445052586
0.209719422084
-0.0768630400562
0.271772219554
-0.00931593464383
-0.00848703525135
-0.0463464512754
-0.0918370081118
-0.412403243975
-0.390551267198
-0.254323746086
-0.0580464600504
-0.054990168571
-0.0893329843475
0.0824102785384
0.0540594381904
0.0150254205767
0.350188518023
-0.119240101588
0.503376726038
0.0182939011436
0.196255906129
-0.0944056492619
0.408448520323
-0.161266226796
-0.28123478755
0.34905205794
0.0258077278381
0.0140364334662
0.0593215202608
-0.0207116132577
-0.0599699453238
0.209370452951
-0.0512821131744
-0.10395736391
0.0893010752632
-0.268909176163
-0.0679301196398
-0.0777521172765
-0.0833073518678
0.00641668558964
0.145277054269
0.0796173860886
0.0282930241282
-0.0132300390272
0.0393335971917
0.0660870268747
0.372602322946
-0.0117652965083
-0.180768483525
-0.123653315758
-0.106851116508
0.0825792634
-0.0266312215697
-0.333463731305
-0.0916432363134
-0.138103810053
-0.0629718198056
0.011698880901
0.0874479055843
0.0775585749399
-0.160261400319
0.340834336839
-0.0572106117442
-0.342065853673
-0.130792816554
-0.0755940236159
-0.0756667412568
-0.154928066766
-0.335890870797
-0.250140797221
-0.0331506550865
0.0542811305332
-0.0103465048052
-0.0896361784808
0.0449157302791
0.181578506973
0.174626681228
0.0375128084551
-0.207698729908
-0.167539445347
-0.0725617524549
0.069919021562
-0.0149505322242
0.0837178685387
-0.195225256832
-0.0588745229202
-0.158801018193
-0.0273707582155
0.012542163086
-0.110648693534
0.0318600064931
-0.365871771217
-0.0283553911508
0.0837075283899
-0.157580727568
-0.0271600333985
0.151967554814
0.114226078067
0.298277946639
0.26521995036
-0.150757876384
0.0252402250284
-0.0655663653311
0.121252783873
0.0627454306023
0.155102447287
0.65295127218
-0.00886222550917
0.47350685263
0.0195435678366
0.0459875075818
-0.124718222142
0.0236050965312
-0.126900592645
-0.187330203137
-0.292509580271
0.0222549450521
0.0804452063245
0.115944896899
0.132891240932
0.040321773442
-0.109361123585
-0.00639140374267
0.497987818307
0.128808668343
0.104085118633
0.106512307318
0.11494259261
0.0974210132391
-0.161411355465
0.0817896841517
0.0463914033466
-0.0130924686551
0.0628835908823
-0.404667479972
-0.0261832335614
-0.370551038462
0.0501301129968
0.353723125793
0.511765193814
0.748553629054
-0.0472099456146
0.627681263285
1.00748007392
0.187998647722
-0.0743364558675
-0.00158646108912
-0.0110470077565
0.104226351311
0.292324738192
0.253136194129
0.00726048723806
-0.0245535483904
-0.237553112165
-0.0387039484014
-0.278437410377
0.0780956008978
0.558064399247
-0.0034271085696
-0.511790066365
0.732732715036
0.00758249980948
0.0644064510882
-0.0990372376298
-0.0794212600387
0.0815062747986
0.0455453953373
-0.0121541317935
0.0152577597328
-0.05981652515
0.0168645087293
0.0766514440677
-0.0818494883777
0.000404314166819
-0.162942560891
0.102771890179
-0.0266062653119
-0.110452817972
0.283768948716
-0.304479114498
0.151684408258
-0.155947044999
0.206961705229
-0.0384290916312
0.0087069218301
-0.1688356786
-0.368164491328
-0.406583210645
0.20671605364
-0.57200600411
0.597338764329
0.414379480814
0.0595403297413
-0.0441122016354
-0.144733462467
0.10483388067
-0.505785003549
0.108245288062
0.0123240914257
0.0413025934774
-0.0681909568002
0.124803565124
-0.0634254798137
0.169403825153
-0.241231822462
0.375261410782
0.0489849386328
-0.0822047470252
0.258909857888
0.0312433641532
0.118242637823
-0.0212791585995
0.00115442085037
-0.417505978725
0.0641786459352
-0.164956599731
-0.150255540214
0.0277000269452
-0.0546068561441
-0.165100060586
0.036026458908
0.60669751912
0.181018621943
0.24699929434
-0.321332184174
0.468247378485
-0.178556246843
0.0359418177534
0.196708002938
-0.164546262689
-0.219979097569
-0.0789957608013
-0.07658748515
-0.159845504963
-0.329421467152
0.282499200547
-0.105246056151
-0.0188443080373
0.33092002083
0.0647218305478
-0.0683011583449
-0.367419902846
-0.143021920317
-0.347906126602
0.0253946067604
-0.00262002030605
-0.0943014031096
0.274650912617
0.0576784368858
0.0700114942292
-0.410971365367
-0.129672462447
-0.00824147096827
0.284359106546
-0.0335671091167
-0.0430193247748
-0.142996375817
-0.182428092507
-0.0917360429487
-0.103191305017
-0.0385850513964
-0.0066644609526
0.310052488318
0.258285722364
0.0885868329141
-0.265209820585
0.293653173729
0.0552500762237
0.329161916401
-0.216807859295
-0.121910493995
0.37393174026
-0.18419535625
-0.12884457411
-0.0912927898805
-0.172588637248
-0.0680923020062
-0.145728515983
0.222064565332
-0.226073259027
0.310697570055
-0.403136781646
-0.0591121362909
0.490103805894
0.441822918107
-0.00586881992179
-0.334879983105
-0.162639885825
-0.236918566942
-0.0265079850142
-0.156706728875
-0.15566129875
0.297869536266
0.117234017056
0.141213751583
-0.450482996356
-0.0198403645553
0.136063142697
0.344524473353
-0.126277578338
0.0733847586248
-0.340587722227
-0.118248055384
0.18768667675
0.0671578014773
0.095737066782
-0.168324218878
-0.0850722693352
0.311790304326
0.0831117584464
-0.303386947769
-0.173949175912
-0.0643274539866
0.243214077513
0.212345699351
-0.0134987458371
-0.228392684248
-0.0961077139101
-0.0278918112675
0.0710993815804
0.010578617168
-0.158965238856
0.353135397604
0.280799691785
0.172166908285
-0.503406473231
0.0466707651457
0.039584357098
0.00356405554278
-0.232532576673
0.102614838227
-0.018126425906
-0.0103396258588
0.106431979362
0.0205064986644
0.176189187111
0.0494759274982
0.19893218809
0.33166213421
-0.147475988219
0.095592115173
-0.00486022924253
-0.0512004969691
0.0705548534277
-0.0355063539448
-0.0143914269045
-0.0230637015277
-0.0312471062687
0.00653793582304
0.01902708449
-0.202311707548
-0.115913459217
0.0943504618751
0.312949270465
0.0911121652958
0.112935203853
0.15211598342
-0.0382366273246
-0.050438969688
0.00715644408819
0.122251590157
0.0921487395121
0.0896107048815
0.0586683953986
0.170675233197
-0.0338136482734
0.169147720881
0.151422699995
0.0864234753524
0.0592802920319
-0.0342552457266
-0.0136175931261
0.169616155016
-0.091840896194
0.180687957259
-0.112127253078
0.446593569573
0.099536078449
-0.405561859494
-0.0655833621709
-0.107151693262
-0.0697830785174
-0.22298386078
-0.308112818575
0.153948699409
-0.177911727131
-0.032171977741
0.00697170351963
-0.0397055772867
-0.100170576742
0.0287916760767
-0.315326166891
0.0947618315919
0.0404765250694
0.233843405615
0.113268595062
0.102417992286
0.283484669712
0.220096495454
0.0248768650141
0.0543991190733
-0.269940569317
-0.017444017156
0.0761920772258
-0.114223348129
-0.137490610046
-0.213072524874
-0.0105864307248
0.249166714044
0.295416162871
0.352227216126
-0.00166786488905
0.134751420315
0.679130612247
0.341322013064
-0.19099433937
-0.00752370336528
0.0455546941789
-0.00485981173285
0.00661904916454
0.139991424936
-0.205213736497
0.0340109246603
0.236967259189
0.259123710335
0.194453992576
-0.10606860737
0.0118653864912
0.274304707699
0.223557132298
-0.154693471706
-0.118287852968
0.18629253506
0.0359311105506
0.194945349491
-0.107077070923
-0.125504991842
-0.0204344618991
-0.294508526049
0.023032762517
-0.39077071825
0.0483813791759
-0.0966838486039
-0.0704359882204
-0.381901959938
0.192859132741
-0.195035034674
-0.0769460296707
-0.0494910070761
0.150129321776
-0.0428660489328
0.250085673969
-0.0143629788337
-0.294103736119
0.106088395742
-0.0093477873022
0.0357510985998
-0.0237029425579
0.0159077269803
-0.240752006855
0.178813174633
0.294016582103
-0.0401464419972
0.208155748255
-0.239784014743
0.0474630694312
-0.303081576987
0.0499979851246
0.0853223320003
0.234875473893
0.536349718264
0.0340283643987
0.245595529124
0.0384682323393
-0.179130750672
-0.00777138083538
0.34729444799
0.181593413902
-0.283079537422
-0.0526119405378
0.274167253734
0.326862014257
0.0493757426981
-0.127333164076
-0.198335089879
-0.195121744002
0.195399066449
-0.242688550231
-0.311820693428
-0.487165868027
0.21175627613
0.227969153909
0.144848084091
-0.447097975637
-0.104244404631
0.236226038164
-0.261817615362
0.187014913387
-0.220667492276
-0.140927798661
-0.291787870894
-0.150964060464
0.328192686931
0.100021800668
-0.314704409317
0.400313868702
0.253992170901
-8.50009649089e-05
-0.075279039823
-0.00509348220406
-0.180837177815
-0.506058622654
-0.0792236193775
0.0310940460153
0.181051521624
-0.0745937595666
-0.169961339914
0.236665858371
0.0856533388803
-0.0015495878027
-0.339343287379
0.274311296812
0.0987159046635
0.0500326222673
0.0103431662702
0.287649959224
-0.0506605908427
0.00524476408005
-0.0531496087196
0.192508687707
-0.0197496424463
-0.192831711619
-0.0912004403349
-0.0523508892535
0.0203639058968
-0.208435309071
0.517060992418
-0.0435750615771
0.0404223991676
-0.255289881918
0.347892857752
-0.0631095676547
0.0162577254396
0.128845785396
-0.0800287865379
0.141185215386
-0.195022642781
0.212614892819
0.0105423184846
-0.128045418372
0.257175840187
0.190669730364
-0.0226942362118
0.00888673936042
0.113706622918
-0.169627506484
-0.222415439347
0.0448058101754
-0.112122048093
-0.0222724107866
0.318204714595
-0.180044293895
0.044741254687
-0.172499009911
-0.0191732419087
-0.269741710301
0.206668431767
0.023082749659
-0.052410363489
0.0927603329171
-0.144976520765
-0.137711842077
-0.00887418619811
0.0812773634442
0.0389717996602
0.193742085011
-0.119383115733
0.119156098999
-0.00100635291969
0.0623480395745
0.0339143970672
0.5303628596
0.0399491318101
-0.111748272497
0.00189595101688
0.265646488159
0.0978703727872
0.30153646982
0.118966671288
-0.129325555773
-0.114710784346
-0.151219688614
-0.265757238381
-0.0337583853698
0.0990741761915
0.152185857925
-0.0983940771122
0.0237543455386
0.155689037604
0.168963481842
-0.181998518854
-0.429945534688
0.0368390526521
-0.115439932401
0.0886869158992
0.27166291477
-0.265637817136
0.141499994651
0.0319237285168
0.0872093300905
-0.183364482123
0.412421852173
-0.0140579372346
-0.282804385493
-0.0938399840972
0.389551071999
-0.501589065145
0.289264387784
0.0241600223816
0.00735397370095
0.133386049626
-0.178977944591
-0.237518598143
-0.120760830839
-0.244196218806
-0.0321293332178
0.0990513429752
-0.00847845194469
-0.0237345352776
-0.10832010978
0.559466555949
0.219991166117
0.298709524447
-0.292479414331
-0.173931790038
-0.0592094117776
-0.147504613268
0.190609711225
-0.238234422476
0.110133166836
-0.246054168112
0.10152224755
-0.0521531713787
0.0258693127302
0.017402810407
0.0717807930813
-0.0605582665677
0.131545120463
0.0709170505537
-0.00821584409606
0.0523145530556
0.0657873964223
0.201329069743
0.164008690389
-0.016029895519
0.0833748237915
0.148958818791
-0.0562952678943
-0.16662746464
-0.367216849852
0.103937535117
0.0186528181359
-0.0980250280423
0.21634715344
0.202830126319
-0.238372004313
-0.0742050501891
0.129107908962
0.351440709187
0.00756191241706
0.194367162424
0.0465130248799
-0.0707761220464
0.0713652680506
-0.0481208845976
0.132225689475
-0.0133078260578
0.0324327018372
0.365969093828
-0.146505616603
-0.177045045052
0.288348834629
-0.152443056385
0.400753930918
-0.024061119447
0.112008621272
0.398974395209
0.0810452862745
-0.264147827597
-0.380931805834
0.0417917818193
0.0478057453763
-0.118855428653
0.306620368319
0.0412909559722
-0.0954304352834
0.334973924696
0.289009612802
-0.271871827865
-0.288336192018
-0.270732051852
0.00288113226503
-0.0371626223716
-0.139608230294
-0.125767545803
0.125945390888
-0.100580047016
0.0251028951178
0.142415919929
0.0522496119516
0.168618206507
0.198975765527
0.0918632625107
0.055242174181
-0.201716770824
-0.114924221317
-0.13192065922
-0.0243387005582
-0.127356730863
-0.0750056595363
0.0647867248727
0.118843899853
0.0538121041759
0.19809368692
0.00604674873985
0.299301874183
0.0854935127327
0.0730093256655
0.303389832668
0.0288674942083
-0.211066234814
-0.0381688261079
-0.00534950536888
-0.13101316688
0.156230265153
0.0789959489717
0.392315334072
-0.066400606691
-0.240531690711
-0.0933690521133
0.0450861035938
-0.0440559002415
-0.225174878814
-0.2061955913
0.230525803249
-0.253287157208
0.0449370933968
-0.0150567419845
0.0263530042324
-0.011946051115
0.104895162433
-0.0112042811697
-0.027740379738
0.159305846647
0.0644847791365
0.334502739904
0.000907179938664
0.190689884355
-0.081708429178
0.0156150767636
0.00494500333867
0.191136328236
-0.0558542016422
0.0345115557216
-0.194638395459
0.042585038014
-0.102900301865
0.0538781516575
0.188460286577
0.0922247315737
0.457098581773
-0.0762391695219
0.108771427059
0.0769520584097
-0.0951531644221
0.0892483723674
0.116631193692
-0.0308217416489
0.14063380823
0.292177651607
0.107722716073
0.274760203454
0.0307693651035
-0.152299965006
-0.0856324727705
-0.169694721798
-0.0626355984249
0.0800714650018
-0.353411590433
-0.437320767707
0.337975882803
0.246928781528
0.0325882539063
-0.276456854583
-0.232983356704
0.366328371363
0.364012523448
0.132086642848
-0.076844087326
-0.188473007287
-0.15774108476
0.121783778027
0.0756438572539
-0.0632900475412
-0.391234814737
0.249775385631
0.53640312045
0.0822318081908
0.112467258166
0.484902295688
-0.268880477351
-0.0856323123096
-0.207781622151
0.268528186002
0.155318210117
0.0491154414455
0.371074908237
-0.205622926274
0.600050115029
0.0167581292196
0.380986604062
-0.241079669549
0.0095113650537
0.0376977942722
0.186891009558
0.114405072243
0.0712668435426
0.0115884503396
-0.336059104831
0.136283514684
-0.149897744934
-0.0228801001802
0.0838959941666
-0.0209219651021
-0.173997845788
0.362381938048
-0.0324333387458
-0.0653627635425
0.302691355936
0.188902778865
0.0584830797212
0.052529497961
-0.0966562944696
-0.164819859916
0.249027207596
-0.0423427185967
0.037633613275
0.095677635184
0.0848934054132
0.0331638525625
-0.015273906327
-0.164457364767
-0.0750139647746
-0.388586216448
0.028547215399
0.408604171452
0.155756933944
-0.0516731511412
0.119945750156
-0.203002853266
-0.327798245797
0.195380076826
0.416774596312
-0.21956416382
-0.331991472154
0.0218607578666
0.251512769137
0.118020789412
0.109059327609
-0.189456883373
-0.164329017663
-0.0290060850177
-0.201363312693
0.0904030589491
0.114211235362
0.0520667601887
-0.283523805829
0.101531989573
-0.0580017602456
0.0931472714039
-0.0958217673624
-0.202964016091
-0.0630464332893
0.234232405952
0.216243926888
-0.0961748334046
0.0374328369243
-0.163608418858
0.0410239159145
0.0749368574725
0.112629019671
-0.0174465939646
0.347915031005
0.038785945652
0.209637461591
-0.0654174134517
-0.130493572208
-0.00823499914984
0.0502511833818
0.282220840632
-0.0749827093381
-0.0463123687562
-0.0747524081563
0.0298186973604
0.0298926880353
0.0411803360099
-0.0582700747741
0.188908201685
0.0791157737281
0.0701220101528
0.0539228870277
-0.0221125452542
0.127997895038
0.189646010476
0.25252523156
0.257454311931
-0.125828954883
-0.00708404630737
-0.269898407901
0.0519466369663
-0.141375684273
-0.0799631796842
-0.144591454636
-0.274648343152
-0.228034175851
-0.0966693026905
-0.207905662082
0.023831391617
0.264784860101
0.197266648298
-0.00180756559831
-0.0948464614812
0.00487248391966
-0.0513854968984
0.178468410138
0.140444503726
-0.108637510173
0.306505261191
0.277786965241
0.0575135624972
-0.100335352345
-0.0269348055631
0.0277642227713
0.276145297145
-0.0322936981998
0.29290874292
-0.184541405824
-0.0196854991699
0.227668155532
0.0722637886179
0.156381289922
-0.065354146885
0.11197297897
0.38535184113
0.0844864319997
0.0195399550706
-0.033931078687
-0.0037066062472
-0.0442667669499
-0.075490593211
0.0927485567598
0.0874829399321
0.114758033898
0.0115897162636
0.0145757447315
0.0659281760457
0.143755887977
0.053074408228
0.0645172050657
-0.0355106183246
0.122434698507
0.0678252332183
-0.0052579377764
0.0390089126176
0.156245841083
-0.0182719419921
0.451916880464
-0.0315973698247
-0.20378403077
0.119722247951
-0.419971029954
-0.0827487634424
-0.056862762904
-0.0443392587744
-0.112476657504
-0.202633968422
0.112872748805
-0.0550571233699
0.0447082851377
-0.0126552717929
0.0590853139032
0.227418521808
-0.0167018632286
0.121262558739
0.0930062188528
0.0819405500688
-0.0285293635027
0.0739077333572
0.0650185552024
0.146107477471
-0.0916200254043
0.0240627527825
0.00532367351226
-0.115334630299
-0.122293724481
0.0305590661078
-0.00655330667596
-0.00246968554924
0.0188070421344
-0.069596009871
0.0262515646885
0.025392228501
-0.0304743287639
0.0247000536171
0.092853066764
0.214482380057
0.0690940799761
-0.0801664293958
-0.121536886058
-0.0713201994819
0.083649607625
-0.115054496903
-0.0134302454374
-0.0281491254882
0.105019696643
0.0216736927162
0.0565007803909
0.0547761235814
0.127758574178
0.0320756156344
0.0722075731025
-0.191744261628
0.051835737353
-0.0683825361307
-0.0769902039778
-0.101531402902
0.0699630715818
-0.0870425921731
0.0730855415777
-0.0630359749222
0.216114397937
0.0561057389713
0.109802402949
0.216680649742
0.0993474119653
-0.0516164192551
0.250865405493
-0.00360942680787
0.0323438222366
0.151909866579
0.0523710207028
0.360997397691
-0.00641565679047
-0.43711921473
-0.0920959062359
-0.326158025235
0.000741414259145
-0.289729345773
-0.416447322303
-0.434148543452
0.0387261205312
0.147464246364
0.0520351829339
0.0649620420826
-0.068413861683
0.0903274722686
-0.31761367033
0.0749232053791
0.00684558473553
0.099900104732
0.195169350032
0.145738234864
0.101651193044
-0.0841709427362
0.0233114186429
0.132412038693
0.252840343335
-0.0174165186409
0.139272691643
0.0413653660051
0.259456871331
-0.0372629909817
0.206916686861
-0.288668396438
-0.0260937757571
0.00162313195385
-0.188500315958
-0.317009181133
-0.1997105382
-0.331284170176
0.1217121995
0.173604820715
0.105066981639
0.310790904226
0.104146616671
0.220609699786
-0.265283333609
0.144793028837
-0.241558379302
-0.00565034790007
-0.121700255616
-0.0541859059612
-0.0209452168209
-0.237120689595
-0.17913085464
0.338687843116
0.489005340565
0.127767363377
-0.305761428716
-0.314774799061
0.262052451013
0.376494443038
0.131038731792
0.0170292586765
-0.109784177723
-0.256826577575
0.108045928743
-0.213077191782
-0.169648811272
-0.34955599807
0.183913351726
0.0692363519959
0.0198607882261
0.0239009221907
0.229162736146
-0.106946879443
-0.123327876699
0.00472548628177
0.00953071752257
0.0231445940463
-0.126123335857
-0.0884681596616
0.0966501392307
0.44334112948
0.098789362229
-0.257529481999
-0.250882433907
-0.0268027058084
0.0434166900776
-0.0317071448397
0.11711845712
0.195533582463
0.241118524169
-0.0210098325145
-0.0242468855315
-0.437464711736
0.352057920079
-0.193162283054
0.443210937981
-0.118833998377
0.309331620135
-0.094760022417
-0.0577227100559
0.0424521572874
0.154489498652
-0.016665497348
0.158753212791
0.0484150700695
0.0229157782856
0.211526166778
-0.18752742032
0.027507613091
0.255387530909
0.38485897808
0.329668833435
-0.470420923554
-0.525122890273
-0.0421163755663
0.115954508126
0.167652522907
-0.038343342793
0.184914928046
0.042352154916
-0.0265733184186
0.102311587896
-0.140797612507
-0.0510909724185
0.590647458087
0.186564143534
0.00190375534854
-0.205283097593
-0.185770199019
-0.0351731581986
0.226588120309
0.28997297842
-0.00118821978699
0.0761896109353
-0.129443883004
-0.093625458493
0.123398317342
-0.0602270145697
-0.0167631143554
0.414837686432
0.10348842074
-0.0743621674487
-0.48686728142
-0.370640677586
0.196249226738
-0.326938891542
0.200671302515
-0.128785680773
0.072945837708
-0.00697680661698
0.151247431243
0.0440208886393
-0.00483222910957
0.371485307413
0.0479488261952
0.0256568565473
-0.142065220755
0.32571737804
-0.277181264019
0.0706783501041
-0.31786959922
-0.140869100515
-0.0325434328278
0.291321029588
-0.0201098373637
0.0511746845874
-0.0585743777138
-0.385075626303
0.412967249544
-0.17070944875
0.17521186922
-0.0266344495652
0.336076426188
-0.202014020376
-0.0619319903903
0.123380533549
0.148777227748
-0.00194763002968
-0.120915526773
0.150683450775
-0.0990655200224
0.0937853171682
-0.0436288215501
-0.14981994588
0.0994381832813
0.0905383454173
-0.039501482403
-0.138328441807
-0.300842351283
0.130145190522
-0.193269898218
-0.207214458392
-0.142095481086
-0.0619147501857
-0.0138042999091
0.141777602672
0.141445838833
0.0776608265461
0.303535831444
0.207731732151
0.20133866567
0.0499610539274
0.0646900096603
0.149687119692
-0.0467023835146
-0.275157015291
-0.0415081528238
0.483359450443
0.360304567464
0.333675285417
0.0897055818181
-0.0813206557562
0.148219447829
-0.0195106952667
-0.356799058015
-0.142554737727
-0.0121923137698
0.00989862760332
-0.0588965003596
-0.03531481586
-0.0706758449293
-0.302288853602
-0.0237685690938
-0.108003615733
0.0520115671957
0.225990230982
-0.00403024428742
0.386875273407
0.126238023163
0.162996969646
0.104913284945
0.0927781687602
0.141177255458
-0.129185854353
-0.0360464824946
-0.0421581931268
0.235922663202
0.0408416966257
0.302674848262
-0.112130981567
0.245257194274
-0.154149343845
0.194964585621
-0.107837698507
0.459219937466
-0.612863351935
0.315000335998
0.244174825014
0.0532196677364
0.0753723144215
-0.0718650208746
0.10017479082
0.0930234770395
0.474381959553
0.0278533016572
-0.148352119221
-0.0101987889545
-0.165696993724
0.0860938321058
-0.082890983097
0.0748705237871
-0.0437449318253
-0.211594293212
0.00571311814432
0.116168621445
-0.0747409064491
-0.21308482613
-0.0616912848251
-0.0458927620499
-0.0548048948456
0.0388426132964
-0.00172202422865
0.213036857482
0.0430951962344
0.0286028116203
-0.0502883739268
0.0972640473803
0.0970048842493
-0.128882033046
-0.0369217158199
0.0313495582225
0.082473745338
-0.0423191146337
-0.316950718999
-0.0668718204967
-0.305616943937
0.0218364866583
0.183050892347
-0.0998800947724
0.172061591654
0.0437010413935
-0.112228610051
0.130064953692
-0.168717719524
0.0971212597548
-0.0644964610646
-0.17322795371
-0.154481820587
-0.0260678621271
-0.0114383623245
0.262435394489
-0.00928901564649
0.471917103297
0.0727456525718
0.086790457704
0.406547218081
0.105584211537
-0.0433219363515
-0.0408208623733
0.10801174771
-0.104354314581
-0.147578980417
-0.0445134710505
0.0434661733868
0.0437247977509
0.176132352517
-0.129959913593
0.494112089379
0.026219379126
0.0316780671929
0.120210732561
0.117675259583
0.0320000596425
0.128926952297
0.035242007269
-0.108016442307
-0.122262767919
0.0823860482932
-0.249073888527
0.0409203210685
0.19433423701
-0.143008070772
0.370322110708
0.0953917603526
0.180097500092
-0.177378655153
-0.0264563474924
0.187854204007
0.117775431433
0.0196883208415
0.0730717450284
-0.164485304095
-0.149743338892
-0.331205217381
-0.0153639426567
0.083073200532
-0.00137022966273
0.534313428256
-0.0731623399143
0.2579820484
0.0573483019102
0.0411580920771
-0.0645014921496
0.102414998172
-0.0829718864633
0.111085120967
-0.360841783882
0.119736552348
-0.513342326562
-0.0429929911162
0.102546311538
-0.0495320782573
0.279895428083
0.0424568385156
0.167530329384
0.0826678441481
-0.100542776006
0.0596961458854
0.188982796182
0.0882074339781
-0.250804657089
-0.224344809704
0.0242451635907
-0.143787143859
0.281193193943
0.152757648233
-0.10846673478
0.149186733065
0.0147548513007
0.131087101693
0.00147344456485
-0.17711593544
0.0141494543627
-0.0922714185807
-0.0437501259216
-0.0647673311503
0.257132146308
-0.132419854765
-0.450334447586
0.0505845688065
-0.0721929742011
-0.0967345131901
0.0344506037326
-0.00632449116157
0.0135050884057
0.232055246269
0.0869897524197
-0.0626750835087
0.079050194094
-0.150741841127
-0.235233706229
0.0608479354842
0.214136106839
-0.490481592715
0.22170801783
-0.000486231748119
-0.0517547441842
-0.207456464953
-0.118821071482
-0.179560709248
0.0675480132296
0.130781116261
0.236524919338
0.384988462042
0.120569111221
-0.120227417821
-0.188079847841
0.125468564497
0.0036002229157
0.195573375378
0.172306129523
0.222014619233
0.0876276196288
0.332691194337
-0.398351087112
-0.0312346529025
-0.0117894899316
0.107639974435
-0.0931370748912
0.0373347570881
-0.0463055665445
0.039299489558
0.0216094810271
-0.0344738903205
0.116810472885
0.107887667415
-0.0441795752734
0.0901497805399
-0.133743045623
-0.176100759663
0.108407603001
-0.139545029989
0.0816517296227
0.29056763723
0.00982130836816
-0.207275079573
-0.0551761850476
-0.019889898092
-0.12838747728
0.0486701361857
0.0662457129227
-0.0980213173669
-0.104557947886
-0.135345160225
-0.287472786645
-0.248354857344
-0.112169658404
0.0568614127737
0.280473796179
0.101795859837
-0.272848946309
-0.140195817882
-0.0747490661611
-0.0144693922286
0.111646282412
0.0933283045387
-0.140670474302
0.0778305255268
-0.0805156691628
-0.226920207701
-0.0279953171087
-0.0155418119909
0.445102045155
0.187119929004
0.0690905081875
-0.280705596705
0.0605266129775
0.106232267082
-0.13250732256
0.111682453029
-0.0204824166022
-0.0708534936312
-0.0797636801568
0.00523424480825
-0.217887365472
-0.130261634743
-0.122234270778
0.207791927683
0.0768899459918
-0.0317167642613
-0.00682248449695
-0.0782036303773
0.34406292662
0.398983471499
0.28036923486
-0.163907913303
0.0363219230976
-0.20128212787
0.0372928536342
-0.190607063758
-0.196953668237
-0.394198287648
0.253164037489
-0.194620215244
0.0221180745037
0.212635468311
0.0817306375513
-0.00532998511816
0.0414429711005
0.0654177871871
0.0392727653107
0.0833209334731
0.160807867411
-0.148450222485
0.136819801288
0.048856343342
0.0827211570664
-0.0504294029325
-0.0941168053438
-0.0354959270086
0.0513763251619
0.125679104476
-0.0623134562022
-0.140926632075
-0.0161569975741
-0.00548357583001
0.130776514163
0.129610759558
0.0176503946391
0.281789062131
-0.24168667429
0.0286971774568
0.154639365945
0.00760486153232
-0.135465016048
-0.28990984883
0.0280215340325
-0.128938364687
-0.245828592938
-0.071026379312
0.525194520283
-0.337107631862
-0.395016037442
-0.103215763897
-0.25434793639
0.347758326778
-0.338971679564
0.733531787978
-0.0052421517807
-0.091004336497
0.0821508079496
-0.126110614308
-0.0213366698953
0.253933634601
-0.0987137127366
0.343750719697
0.189945443731
0.157326059838
-0.100841551735
0.38938231139
0.627984359795
0.201984330572
-0.197554393466
0.0275550289827
0.0411654417961
0.0402980536824
0.355176547105
0.133585091176
0.69867746842
-0.0971748482954
-0.109719674666
-0.0273464152868
-0.0434330807105
-0.128373109001
0.0240672928884
-0.0854343543263
-0.24948915585
-0.167572621463
0.0494107908673
-0.0635658578238
-0.0272619426387
0.0308098008529
-0.0726580895498
0.0947891957551
-0.0905967208579
0.23556501187
0.0285253440695
0.294415142718
-0.0795021292653
0.0436596250951
0.177950018225
-0.0140902507892
0.0252612568848
0.0149422322991
0.0180954276099
0.00320244873186
0.148703200811
-0.0904325053513
0.230966568975
-0.00016938553519
-0.145499193142
-0.0198885863637
0.132687732384
-0.0490862251183
-0.0674613966812
0.0583536314779
-0.0352837843358
0.137421083396
-0.0318818003916
0.0758543267121
-0.0271665460407
0.148803361568
-0.0937617219052
0.1458601012
-0.0374469418763
0.2283512948
0.00294932677334
0.147274038787
-0.092480732339
-0.17630694691
0.143700670207
0.0169305809497
-0.168645122654
-0.133429835381
-0.0158902751688
-0.0241196041878
0.112631985907
0.0505500133268
0.240584366399
-0.120511289773
0.189427049047
0.0492843492574
0.30539708614
0.0194662604161
-0.294196581971
0.0898309835656
-0.0456695839814
-0.132103989133
-0.0254878296968
0.0106412959722
-0.0595710509876
0.155216374735
0.00915494094652
0.122176888792
0.0215734075802
0.276155105222
0.0341261781331
0.477645653355
0.0087433575597
-0.0863255314457
0.341699057355
0.166748838401
-0.00646895594365
0.0819766499885
-0.0177172639192
0.0186266357868
0.149049559972
0.0595752429638
0.299000159066
-0.131209397086
-0.277114900721
0.0226198568991
-0.029603903434
-0.0866578780588
-0.334100892781
-0.226322003688
-0.226300672724
-0.202048299545
-0.05075929077
-0.00710518355216
0.225270485581
-0.00494237512462
0.0198430240349
-0.40880639531
-0.063653582688
0.0674570993066
0.0919524401003
0.169521907109
0.0379864924997
-0.108135213326
0.238540000854
-0.0178662751755
-0.119273344138
0.0384981093053
-0.0103933465354
-0.117877417875
0.260823837853
-0.223684625264
0.0884369038468
0.0956155769192
0.0946665780198
-0.106661641846
-0.114772399073
0.0629587495096
0.018120120858
0.0993189341158
-0.0845396613703
-0.0550198076414
-0.223648987308
0.00906553461777
0.159420873434
0.28920516649
-0.279492536921
-0.0616129114226
0.00344942553841
0.106076665884
-0.123725470371
0.245241011277
-0.115039259637
0.285551088256
0.330622837438
0.127439520734
0.110174590996
0.122783007282
0.118880668081
0.131006449076
-0.000417384150719
-0.254097282096
0.071741952585
0.378481022252
0.118359071859
0.00132146087114
-0.158639463828
-0.157335312965
0.0688677028
0.159753053706
-0.0326723037939
0.492884003546
-0.0386777338043
-0.0100755622907
0.119343823797
-0.0183204256992
0.0630470312158
0.0945464224341
0.176341267992
0.227153405947
-0.00262325694608
-0.0299959749553
0.256001366382
-0.193939449644
0.291643859189
0.118029243842
0.121998760175
-0.440932970392
-0.000900609186293
0.250464442238
0.344378166752
-0.102285349991
0.494168592754
-0.0391646215788
0.100750127575
-0.212032079968
-0.225078459381
-0.0950669142146
-0.181131606289
-0.288746119778
-0.00108518974558
0.63074176916
0.0315360218087
0.140541139391
0.100990680286
-0.075598390477
-0.0299855840825
0.0226261747337
0.156739942196
0.243306791038
-0.110839381049
0.00591262803401
-0.0170497851599
-0.0356479159877
0.177292762759
-0.0298368809369
0.233873533675
-0.14467774399
0.0322416143454
0.169221089358
0.0673984058152
-0.0482399399053
-0.118216262184
0.0467044927607
0.0923532713536
-0.0212834386429
0.0496245264896
0.0206053097235
0.106904663016
-0.00101854960728
0.157224763219
0.245053922774
-0.314596446227
0.144948903853
-0.367207992847
-0.115967829747
0.153728960128
0.125440666026
0.276147108042
0.050057862497
-0.0984019589495
-0.231365802851
-0.16828813109
-0.153520472557
-0.137044090813
0.096056846587
0.508719289549
-0.0516237449573
0.00392748995082
-0.0963463974708
0.0554359000361
0.0794543872098
-0.165967088783
0.215889456265
-0.109267658584
0.0506321516102
-0.19701964487
-0.0311179420883
-0.118722196753
-0.191169824373
-0.0694366804664
0.256902050073
0.304213682678
-0.212483921681
-0.11635429902
0.00294974865386
-0.27940459396
-0.0803036590916
-0.11970261074
0.121616040923
-0.204446671008
0.395459110567
-0.156780163648
-0.2092645076
-0.377214198794
-0.472047139858
-0.529419842984
-0.293188586011
-0.16062874636
0.0973147006971
-0.0120952562289
0.138393646018
-0.289049782675
0.172933494003
-0.02860428692
0.0507137841041
-0.106440604323
0.255604236068
-0.0542706002166
-0.0732210441889
-0.16038911273
0.32093876554
0.0595800136449
0.0367201838903
-0.0411166065403
-0.110291458489
-0.0169976250244
-0.0981865797061
0.0277321655803
0.0948748020992
-0.0774550819126
0.0748449992002
0.132893584489
0.0794141170473
0.137443347358
0.123931717987
0.0286928757562
0.0109503016019
-0.0112908240627
0.0274304974035
0.0900407113519
0.0355585295505
0.218549378465
0.0848080942836
-0.200891822886
-0.100749621365
-0.158081966725
0.13334726315
-0.118300879098
-0.172792254643
-0.0514667516639
-0.0276606336893
0.0589649928854
0.0088791424133
-0.0261042405336
-0.0617280077995
0.0947235580275
0.397261452155
0.0185136584562
0.0353472532769
-0.134433655551
-0.0870635752339
0.0493932461289
-0.00667444684818
0.221664155563
-0.0304130565656
-0.00115049914236
-0.0503623236751
0.0495166408814
0.0503409273697
0.00345746409916
0.087383673798
0.443753664291
0.0449635088469
-0.248897428059
-0.161531011319
0.00401553151425
-0.0784345355082
-0.100946441137
-0.371033887135
-0.177600200785
0.197987785474
-0.0364043498257
0.0597332519839
-0.0441610677837
0.0420938674081
0.0347314402634
-0.0771544323282
-0.0191117476686
-0.135340162029
-0.0248956832363
-0.111375272074
0.0903599102234
-0.0774553933843
-0.127926800109
-0.0127870781714
0.098010523465
-0.225603808736
0.00769084520884
-0.0613836489463
-0.0805294411193
-0.104580789542
-0.0344899675768
0.142867735606
0.144181438921
-0.272221677332
-0.0283356652173
0.0246837697274
0.0753945018704
-0.0663769351197
0.130150380699
-0.0383409546042
-0.172328665722
0.0347722933913
-0.00932262410779
0.0338971479908
-0.0196353596389
0.137763005235
0.00654142031586
-0.000938303954467
-0.206118389623
0.100109156631
0.00773241274749
-0.133515194769
-0.279738503093
0.025564342936
0.0971044045746
-0.204394991955
-0.0773310203786
-0.212290607911
0.0741540162917
-0.0432749348029
-0.306398301377
0.336529506552
-0.219836667399
-0.205763170295
-0.0491261137221
0.254432349945
-0.0238069127876
-0.312941030182
-0.210583744438
0.257069911233
-0.129807637088
-0.0805366091597
0.15407542195
0.0546204898731
-0.154721537485
-0.124612767609
0.00483957808026
-0.0232673596086
-0.0992019591716
0.0397144065217
-0.109665710099
0.0968876257827
-0.0295036647623
0.201685661112
-0.0688385961537
-0.0690496268213
-0.0939731296326
-0.0141316637399
-0.237417016684
0.372184481158
-0.332425171261
-0.153028794548
0.037222790233
-0.23678752626
-0.109344126136
0.37567076525
-0.034901307678
-0.0734515557121
-0.072981377126
0.268246384938
0.275780187049
0.0112384915118
-0.248563722377
0.0590707515387
-0.374029677803
-0.0747542913423
-0.0874801695192
0.0967697341939
-0.0589857317351
-0.270678030945
0.0997121029818
0.233590917936
0.0463719857098
0.283258999891
-0.231358821573
0.0804336518644
-0.039222647165
0.0374160512555
0.305231050956
-0.535213517546
0.358914616609
-0.284616416658
-0.233281292458
0.0487582397192
-0.119029398306
-0.176722826871
0.298874193548
0.0920608866228
0.0447114080439
0.0299874639339
-0.393535908581
0.114180109484
-0.553906617126
0.309904283037
0.415916827388
-0.491157941053
0.315963635115
0.0962037460383
0.0726002268698
-0.232361805299
-0.415542174057
0.0258488648231
-0.326289467059
-0.420002620441
-0.362625261125
0.209022232337
0.0183351115138
-0.0243204391979
-0.126266467577
0.0817499052016
-0.175789902073
-0.103482350878
-0.00273930816571
0.199416249936
-0.0268588535629
-0.119207158398
-0.209807358097
0.068506284007
0.14015741503
-0.362747109278
0.109869696104
0.0992384990547
0.0443912850234
-0.109945949743
-0.0402607338305
-0.148280726994
-0.156789237922
0.124640210456
-0.101918970431
-0.102325904155
0.200028031685
-0.0810063194082
-0.000565001845715
-0.0308889005426
-0.112090132774
0.138247498576
-0.048323127798
0.0132165214378
0.0187113885416
-0.0866788113212
-0.130024783176
-0.0982717153787
-0.1136286582
-0.0482374297895
-0.0610884153187
-0.284767906556
-0.15981159722
-0.201783493019
-0.201463349468
-0.134283307996
0.0509545802267
0.0753005803011
-0.0917463881849
0.0764484496022
-0.0832136346482
-0.122958393533
0.0247765927331
-0.0758539918792
0.06051021895
-0.0216810793443
-0.0989189854934
-0.070955817807
-0.0876482379827
0.0667435210272
-0.162037857779
-0.166316709619
-0.0740107188445
0.00967811877281
0.344439102109
-0.210365305451
-0.0753593974366
-0.00508890506002
-0.162828742535
-0.033316498899
0.063260595285
-0.270262165325
0.075600666148
-0.12942945652
0.0857587417953
-0.104091263979
0.0260572522743
-0.0381435842969
-0.0419778412638
0.192009592604
-0.186439433441
-0.0460975817711
-0.0100332612877
-0.241948636031
-0.0363941779316
-0.0527313639312
-0.269686223392
-0.201009524801
-0.3755552748
-0.0615435194451
-0.126559240406
0.487689530934
0.118998820325
0.00180611634732
-0.32272397322
0.31083325425
-0.0165071078332
-0.0498879246603
0.251481191889
-0.069936878415
-0.19327708824
-0.19491607197
-0.306439075689
-0.116993220427
-0.188425759875
-0.337371710446
0.506538275966
-0.0302900540068
-0.410722167002
-0.022131972548
0.342717346806
-0.250501771619
-0.063824668261
-0.101110165451
-0.0496837272962
0.0777844788217
-0.0752794872387
-0.280047435312
-0.181747759886
-0.255293465758
-0.075643547173
0.0712227420251
-0.0495809206733
0.124993088498
-0.00747593076719
-0.0623763163673
-0.031855675018
-0.0130891489375
0.053642441807
0.112517664406
0.14618875789
-0.0329029723344
0.138133292758
0.13411284017
0.194796879075
0.000565630522829
0.0884813795271
0.107710111758
0.0779506780875
-0.0186053019633
0.236934853015
0.0129875576213
-0.0132945043364
-0.0946413575038
0.0489936898072
-0.145274186732
0.0538816210825
0.0623687993645
-0.357423952532
0.0874054267025
-0.0737038681052
-0.0291919115951
0.0337422906376
0.0489463990041
-0.0507176055346
0.0761904797622
0.0463771648202
0.0363867050172
0.232939288607
0.0492244641604
0.11164910312
0.0208844434507
0.159636673336
0.132750808759
0.112528488167
-0.242176436354
-0.00165226647478
-0.0202902951363
0.0332640796789
0.0334655277196
0.0216822812688
-0.0875101067532
0.0620323610755
0.153181493204
-0.00143781846183
0.0716187120131
-0.072853999361
-0.0116200507782
-0.0539435943234
0.189740689525
-0.139443176914
-0.0320936427292
0.0351418784646
0.0172551169363
-0.102476964803
0.00183903464884
-0.36357859552
-0.0600028896
0.129719762011
0.0106225422986
0.0423468687102
0.0195887464051
0.132855069423
-0.0709026326868
0.164873620681
-0.242935851474
-0.112886880558
-0.023061967236
0.0484583902691
-0.141089077683
-0.107207620062
-0.387053139899
0.000876673256112
0.225918534258
-0.0610080876955
0.201305189676
-0.0394777507806
0.177244006862
-0.0422396503233
0.276188341608
-0.361360639698
-0.0194312082526
0.121170304358
0.0701471205759
0.012137640521
0.0403638697728
-0.197085981428
-0.0267132964779
0.166267124724
-0.095120243763
0.145975390133
0.0312716839521
-0.00797382034883
-0.351436591969
0.090321767352
-0.211433090645
0.237893923982
0.0470968495577
-0.0427160070031
-0.188783170244
0.0859088857612
-0.275107290153
0.0701224420345
0.159941419929
-0.17309478571
0.0419542767393
0.12155760401
0.0399470447419
-0.301182151083
-0.0144838894274
0.148256281953
0.172374352202
-0.0114306996882
0.212310719806
0.05782392155
0.280928093733
0.277489906253
-0.142095004705
-0.342557023382
-0.125747380311
-0.0875534081544
0.0688729480854
-0.161894300868
-0.326875594999
-0.0961400294595
-0.137327128611
-0.0550688639124
0.0790984526607
0.320052753403
0.0524049878394
0.155343459836
-0.0899983015487
-0.0415818092627
-0.367078658376
-0.0566341400738
-0.0317361403672
-0.0570584446433
0.275453768623
-0.294145553932
0.0542085114325
0.101639819508
0.162679024208
0.0310148027201
-0.191390117553
-0.103888384656
-0.213375732516
-0.234866957759
0.0483150809689
0.0100597501457
-0.111204511958
-0.106373996708
0.126222658362
0.304938576227
0.0325894880677
0.258379801193
-0.143117990766
0.307631606036
0.0752928355721
-0.318800414759
0.243399973406
0.0335846427512
0.0403062785693
0.151621008946
-0.0465105105475
0.126625349988
-0.0159370232341
-0.191443952378
0.0326334466571
0.241550789503
-0.058773673082
0.21673665603
-0.263295107341
-0.0691207029661
0.00707740566987
0.176374149301
-0.0781168178606
-0.195575909338
-0.0272358812285
-0.0758685036204
0.151006727752
0.0360370548921
-0.0830222487798
0.238029927285
0.0978056999835
-0.0163658319253
0.0592303630177
0.316361326562
-0.017210884852
-0.0742190493225
-0.134233897207
0.413428252963
0.134288461838
0.182980244804
-0.106285534152
0.181040234146
-0.0714816606642
0.295361697427
-0.201187573594
-0.0395866525018
-0.204701972967
-0.15356342525
-0.0966177371545
-0.0451488727238
0.16653656318
0.0285313190794
0.146894150662
0.0532995542056
0.0175651797592
-0.0787364789025
0.0103087070054
0.111927179934
-0.0516995185653
0.0527443246719
0.158512463165
-0.0797637854528
-0.0731110068616
-0.0895192473093
-0.0533874795374
0.0895631804479
0.105977735388
0.01842199566
-0.0812446057051
0.00499251284705
-0.138829995791
-0.100269442975
-0.0125426074148
0.0341315416977
-0.0169792708515
-0.0349518383115
-0.125133201155
-0.0077128184643
0.0890470771238
0.0768227044997
0.115739882716
-0.0847528882679
0.0537708012453
-0.323241106425
0.0704394710718
0.0919452232657
-0.0413792604247
0.0698201911166
-0.00100570993549
0.0306860427716
0.077408889388
-0.0357969200438
0.0683947105393
-0.212842047285
0.0615519164564
0.0576054822803
0.199868241875
-0.189548510681
-0.0258392930344
-0.0324538619965
0.0179096708693
-0.0566830059365
0.0773956778362
-0.0483053013385
0.294824298147
0.39547691709
0.262242526012
0.105511900354
-0.169557179282
-0.0819034074276
0.0468962751168
0.0814241731303
-0.0132231078697
-0.0206603712956
0.0133178568997
-0.0779562736082
0.0142732265068
0.0804448578429
-0.182523704864
0.0797351044032
0.0114185270925
0.0443267516307
-0.128978849678
-0.133762747465
0.0431876952844
0.117891438034
0.0526911138536
0.0399708309515
-0.0246558621778
0.0955944831277
-0.0137170099109
0.040410788503
0.0946635750268
0.0226243113849
0.142876919524
0.151535765766
0.0867489440643
-0.25528219205
0.10773265147
-0.112144517379
0.0940156302567
0.131135689441
0.0207762705132
-0.120460568684
0.0471657309449
-0.118505233956
0.0614422596479
0.00978898713345
0.0176137466917
0.0817426001597
0.0102921480097
-0.0931506503554
0.130575016209
0.017781493665
-0.0413159369352
-0.00434693480287
0.135082498078
0.0271292790917
0.184215338376
-0.0754898181782
-0.326273303051
0.178366490474
-0.0685473052491
-0.0969761697362
-0.0293882609559
-0.107953082205
0.0481167642755
-0.0137548382384
0.0978882061834
-0.00406930878158
0.000916208470494
0.200870943434
-0.154263486065
0.0279376109927
-0.0244516403269
-0.2978149559
0.0516078058079
-0.0550875725987
-0.0443560926588
0.0460637785884
-0.164234358307
0.279216952154
-0.0596543670298
0.0148837138982
-0.0354140597329
0.0417925625377
-0.189041696546
0.118886084657
-0.095601645932
0.0201982199636
0.29666956935
0.20818424516
0.0452294082622
-0.0442491636709
-0.00832187438376
0.263231161584
0.0880067805479
-0.305774876447
0.0758979626195
0.0156212405623
-0.0984160249524
-0.142270383495
-0.0931097841347
-0.238791078252
-0.0111068927918
0.15525171226
0.116501586334
0.230786741143
-0.0123253759455
-0.15642823879
0.0254836255566
0.0854253200668
-0.147702187443
0.0372165444746
0.0125344890546
0.0441358392359
0.000518220700893
-0.039399413205
-0.12131186691
-0.09460999121
-0.0203231428389
0.0386084982207
-0.0557474256896
-0.0665451352541
-0.281149253852
-0.015464564762
-0.00109816454587
-0.138513805351
-0.00143380544636
0.0823957761072
-0.0136087428334
0.109288646466
-0.0856460015789
0.344918160309
-0.0235010987558
-0.225248046126
-0.0240937856544
-0.0495300365572
-0.0400455860324
-0.223246735955
-0.167900054627
0.00918202171234
-0.13877697898
0.0172967096638
-0.0518303647514
0.0816981874175
0.0238127164022
0.128704356668
0.127424066161
-0.107207149632
-0.0346561887398
0.0237253023206
0.125230621201
0.0805633341074
-0.325430627867
-0.0895454246058
-0.220540116769
-0.167030849037
-0.0783651677734
0.122213827466
-0.256625576233
0.0691968391261
-0.03583750354
0.659325792771
0.00697636898762
-0.129874561591
-0.0981741698521
0.192122196212
0.278786450199
-0.385527319399
0.0183757176487
-0.281365497691
0.427693158658
0.442454016323
-0.0525810274858
-0.132507861521
-0.00098419979601
-0.0267419073213
0.275914851339
0.00694328024904
-0.376457879759
-0.167605302868
-0.0137995586141
0.0647320427291
-0.237168988311
-0.60954433912
0.246968147011
-0.0707731066438
-0.314175292282
0.0494152906343
0.18302046663
0.226401387909
-0.0178822186509
-0.768388731473
-0.106564661111
-0.404774789121
-0.0234209400307
-0.174933538996
0.0396722953466
-0.110129949684
-0.3467399623
-0.159998651444
0.5215671267
0.178780358261
-0.00878362894428
-0.298377704717
-0.00846572335508
-0.256355995851
-0.00949622607613
0.171228452085
0.0589941972562
0.100791404189
-0.145048397786
0.269165425246
0.00486277944635
0.255806365399
0.0951932012168
-0.193360062775
0.182555778089
0.0516077234456
-0.398108777472
0.106058736344
-0.444672364293
0.27949091427
-0.165896320387
0.0391287123906
-0.000732223484721
-0.198501927757
0.220472530231
-0.112044187611
0.118200248378
0.258799140838
-0.215104173779
-0.241514410871
-0.0565508786786
-0.118342756495
-0.00381021041896
-0.217633022739
-0.249353385288
0.059157851163
0.00744903056027
0.173752542292
-0.0439615489796
-0.163120513405
0.123157413874
0.122547429513
0.00991683679868
0.141481675481
0.386377702663
0.0900278601222
-0.267703435706
-0.308895626713
0.334574933463
0.355815778106
0.213266081976
0.0323415996953
0.153638204064
-0.149068412533
-0.0334305156183
-0.328067953401
0.00311944772637
0.172442019083
-0.159722430823
0.0535192841966
0.0623747129821
0.0142628779667
-0.156080296349
0.0750510775294
0.128120533153
-0.0169356515966
-0.155543226338
0.0118143080874
0.046911096532
0.0172985157388
-0.202113003324
-0.0951460358969
-0.218658226084
0.157928154949
0.133376778933
0.0732532347377
-0.00462270261408
-0.0470076472927
0.0355811591302
-0.0655285690829
0.124436489465
-0.146065304512
-0.116126914515
-0.112719024338
0.0182108795913
-0.180151697623
-0.387543806482
-0.181370594537
0.199689433064
0.188438940352
0.104232522749
-0.0798886684952
-0.182273523979
0.139806240484
-0.182222235117
0.214226385693
0.125987040139
0.0035524436497
-0.0397065969527
0.0933936405159
-0.305116741215
-0.107764911049
-0.137953021472
0.185182024827
0.140521149466
0.135573817012
0.0578577636182
-0.0331231981673
0.194126165291
0.0155946268874
0.226656477641
0.107973735455
-0.0654597224682
0.0682042012727
0.0402312109682
0.0766118680184
0.0749379680032
-0.117984923269
0.231273987936
0.127633292949
0.0700758174849
0.0327168012187
